const float conv1_weight[360] = {0.3364095, 0.14332265, 0.43353897, 0.46547067, 0.44754615, -0.19064221, -0.28026244, -0.19783343, -0.019566072, -0.264577, -0.34159237, -0.13891847, -0.37454212, -0.27643338, -0.28061268, -0.20776933, -0.009817934, 0.14403063, 0.26353058, 0.23838311, 0.07680431, 0.07990703, -0.060065296, -0.10554078, 0.023202911, -0.036104303, 0.033780575, 0.13811366, 0.06550536, -0.0062293923, -0.29324248, -0.28429666, -0.33794445, -0.17449106, -0.18635207, 0.06628343, -0.07159434, 0.06450799, 0.07793734, -0.2033811, 0.08850426, 0.010925534, -0.006412062, -0.014253598, 0.008079858, 0.02313101, -0.027506992, 0.060031712, 0.106062315, -0.09428175, -0.17145771, -0.11418983, -0.018180383, 0.07746813, 0.08957278, -0.13422206, -0.2278013, -0.27725723, -0.17020461, -0.120230466, -0.2059989, -0.14065541, -0.11094089, 0.031512022, 0.019468078, -0.3166845, -0.08177101, -0.22678924, -0.37124133, -0.14198288, -0.1416055, -0.3754209, -0.41611367, -0.43400508, -0.40914354, -0.021018123, 0.13749991, 0.10695594, 0.1530427, -0.08992014, -0.27006552, -0.039893985, -0.1935188, -0.13498726, -0.03635915, 0.23047182, 0.25958815, 0.01244062, 0.23224336, 0.18122654, 0.30831915, 0.45360023, 0.23729473, 0.19527017, 0.21056594, -0.20400631, -0.28997862, -0.27753356, 0.035099857, 0.022151692, -0.21206512, -0.32674596, -0.25685734, -0.31727466, 0.0060151774, 0.19400415, 0.25643736, 0.1368059, 0.19340153, 0.15926017, -0.059729688, 0.060130958, 0.041637756, 0.04586548, 0.2032386, -0.06370447, -0.005630463, 0.096968904, 0.12942158, 0.15755355, 0.2910832, 0.15265214, 0.121462196, 0.2894899, 0.14983924, -0.04895374, -0.13782094, -0.22143473, -0.05227784, 0.05736826, -0.0629235, 0.110357, -0.11105798, -0.17200612, -0.15250926, -0.12750383, 0.16547336, 0.0676616, 0.13381416, 0.04724332, -0.06293281, -0.06883414, -0.15026446, 0.12460302, -0.11214354, -0.051320013, 0.08485449, 0.087324195, 0.10429475, -0.1339787, 0.2130743, 0.09034847, 0.07802678, 0.10127136, 0.1648693, 0.23521566, 0.1957763, 0.097012475, 0.21310885, 0.19917893, 0.34455398, 0.2421935, 0.2636695, 0.28794935, 0.07265596, -0.19475979, -0.042686816, -0.1145229, -0.18012232, -0.18569364, 0.100152604, 0.07540835, 0.0193307, 0.05040084, -0.08592342, -0.0038702788, 0.05808274, 0.18157254, 0.20148899, 0.16477552, 0.08765125, -0.19682851, -0.046634857, -0.053022, -0.16678007, 0.14015327, 0.05915169, 0.03825703, 0.040137872, -0.0086748665, 0.21708043, 0.2576419, 0.2711642, 0.19399598, 0.31017327, -0.16195782, 0.015041033, -0.10574217, -0.024502397, 0.07959873, 0.09786813, 0.13906255, 0.09085889, -0.00035234398, 0.05919341, 0.009674281, 0.04946017, 0.19603935, 0.037404828, 0.07418454, -0.13809583, -0.007567977, -0.048871566, 0.085532896, -0.14002821, 0.2937161, 0.10649186, 0.28174153, 0.0126251895, 0.03168031, 0.29304895, 0.10741375, 0.060328852, 0.24955222, 0.07088314, -0.13553855, -0.12119369, -0.029520495, 0.091933884, -0.008866065, 0.20411068, 0.16836905, 0.065989956, 0.15081859, 0.051637277, 0.022125762, 0.323766, 0.13313669, 0.3179688, 0.28246802, -0.31960505, -0.4100198, -0.28288725, -0.38800678, -0.22648382, -0.099421225, 0.15982476, 0.055934466, -0.12203538, 0.13655505, -0.11477334, 0.13762444, 0.125443, 0.043945145, 0.23804083, 0.025507728, 0.07615372, -0.038009543, 0.11728794, -0.09656331, 0.027189964, -0.050930254, 0.010255943, -0.049082756, 0.08703868, -0.2280165, -0.17180018, -0.18554921, -0.23680343, -0.009463859, -0.09085911, -0.12397672, -0.05816806, -0.20619947, -0.17792732, -0.09117835, 0.07536858, -0.056104224, 0.054056533, -0.2323752, -0.18081313, 0.05439922, -0.078739755, 0.1634602, 0.17269062, -0.03867477, -0.107318155, -0.05509004, 0.05700381, 0.11451027, -0.3042008, -0.29677197, -0.07278459, -0.14955397, -0.08644792, 0.2662909, 0.24250743, 0.20609334, 0.2089957, 0.29984075, 0.021010492, 0.030758994, 0.2895076, 0.3070433, 0.19056982, 0.077186175, 0.046962485, 0.15373673, 0.027971081, 0.05397053, -0.0050291466, -0.10412913, 0.21587107, 0.19343382, 0.028988747, 0.1790438, -0.065624505, -0.041517522, 0.1802294, -0.17832893, -0.054593537, 0.06973347, 0.046005584, 0.17544255, -0.02209848, -0.12597568, 0.097442225, -0.04612017, 0.10702756, 0.04547857, -0.28983173, -0.18911023, -0.18420592, -0.36923358, -0.08520393, 0.13717072, 0.12941767, -0.0051037064, 0.14964437, 0.17374645, -0.039877217, 0.14694516, -0.011581846, 0.015761914, 0.08021019, 0.10714472, -0.103674956, -0.036042407, 0.04430381, -0.11968873, 0.0068974686, -0.25241014, -0.31545982, -0.08767914, -0.12547304, -0.16329113, -0.10460125, 0.114262156, 0.12313553, 0.2406116};
const float conv1_bias[12] = {-0.17088084, 0.13591653, 0.016924422, 0.058095288, -0.10044054, -0.08194015, 0.06798255, 0.29912913, 0.17445962, 0.26852122, 0.010913811, 0.031374093};
const float conv2_weight[216] = {-0.06292187, -0.027561916, -0.20968682, -0.14075288, 0.035863265, 0.005876104, -0.24054055, 0.056340933, -0.25672725, -0.024832742, -0.049478736, -0.13337158, 0.0029258078, -0.09331354, -0.021426357, 0.046836212, -0.05177026, 0.17075804, 0.12189946, 0.12320942, 0.062057387, 0.26091728, 0.08683041, 0.22499606, -0.06939056, 0.023015527, -0.032659907, 0.14562777, 0.15701552, 0.07264121, -0.017909681, 0.08294555, -0.0119229695, 0.09319967, -0.043732807, -0.09665373, 0.017760698, 0.17667516, 0.08828792, -0.17032507, 0.10070074, 0.03708768, 0.115920365, 0.05259523, 0.24108626, 0.16364679, 0.08095949, 0.07530773, -0.021279817, 0.00010427847, 0.020628212, -0.04613828, -0.1743779, -0.1152643, 0.022814356, 0.11068278, -0.13703787, -0.006572687, 0.13811293, 0.082351275, -0.053339656, -0.16600269, 0.05159548, 0.06971318, 0.056273084, 0.22241724, 0.0008334458, -0.07574181, 0.09729475, -0.0821993, 0.14513136, 0.12200595, 0.11890262, -0.16016684, -0.24730247, 0.15754831, 0.09760354, 0.17558897, 0.16692698, 0.0022549832, 0.08479723, -0.07705666, -0.11592804, -0.11814738, 0.08813756, -0.10414778, 0.10258347, 0.13116373, -0.10946902, -0.06561261, 0.054337997, -0.018441169, -0.0286134, 0.16553536, -0.00759992, -0.027166918, 0.08839243, 0.06428149, 0.22326724, 0.04612521, 0.13760747, 0.13507746, 0.029567791, -0.069314174, -0.085059665, 0.038054984, 0.14450541, 0.22008862, 0.19698134, -0.0625003, 0.10691692, -0.09093896, 0.0572974, -0.13429323, 0.11653174, 0.14318071, -0.04325678, 0.0333021, 0.18964882, 0.072787486, -0.0030754243, 0.17095369, 0.06570181, 0.013673589, -0.13871072, 0.026973356, -0.13978158, 0.06503787, -0.11205177, 0.097728565, 0.08070017, -0.051110495, -0.12878537, 0.11582449, 0.08932011, 0.124407925, -0.014978714, 0.19680151, -0.0658144, -0.07658092, 0.03830132, -0.034336034, -0.16269338, -0.05195169, -0.038539104, 0.07276697, -0.08253447, 0.016907323, -0.0027015759, 0.05008522, 0.067314334, -0.06504851, -0.15295956, 0.1366653, 0.080805734, -0.071497396, -0.07239297, 0.18244061, -0.10938784, 0.097211435, 0.16364184, 0.06821265, -0.1501564, -0.07745288, 0.109720655, 0.090689614, -0.15452641, 0.052656997, 0.1370112, -0.07158046, 0.050572425, 0.03177548, -0.12663917, 0.16709185, -0.060347654, 0.09919124, 0.11052075, 0.04292335, -0.017156713, 0.03742556, 0.13728686, 0.082487606, 0.013494927, -0.017590918, -0.08619709, 0.007184652, 0.10404786, -0.15672125, -0.015120681, 0.11304676, 0.17198537, 0.14697973, 0.17544883, -0.080490686, 0.09124259, 0.022938035, 0.20538233, 0.14351843, -0.08662052, 0.14088511, 0.122262016, 0.093765154, -0.0013749136, -0.030988123, 0.05528486, 0.07399295, -0.05436423, -0.043945357, -0.15060773, 0.05489383, -0.04619369, 0.06322076, 0.009565716, 0.034816302, -0.13504562, 0.030012446};
const float conv2_bias[6] = {0.3192785, -0.051339816, 0.2300848, -0.07058267, -0.3908314, -0.11753093};
const float fc1_weight[720] = {0.20403314, 0.102467135, 0.06708287, 0.17047802, 0.1378909, 0.16022414, 0.1580717, 0.16001862, 0.13592435, 0.16404569, 0.18539917, 0.13282509, 0.10252746, 0.081636004, 0.10216718, 0.16750684, 0.06889804, 0.17483298, 0.104636826, 0.14897859, 0.19339104, 0.09593806, 0.100721434, 0.14010273, 0.13055071, 0.123265475, 0.10311527, 0.06549393, 0.1792434, 0.07525345, -0.15581389, -0.15350653, -0.15520786, -0.15806621, -0.13911052, -0.09104253, -0.07875148, -0.11018327, -0.19377136, -0.14999591, -0.19756822, -0.12082396, -0.08569503, -0.16563283, -0.059572186, -0.19914557, -0.1288379, -0.10411655, -0.15977028, -0.14034727, -0.17635387, -0.1549307, -0.15137264, -0.16964965, -0.12225688, -0.10574922, -0.07033016, -0.107781895, -0.14413221, -0.08941905, -0.18257368, -0.22873275, -0.063445106, -0.13425523, -0.0925322, -0.2006876, -0.19948961, -0.08138831, -0.18220292, -0.13840215, -0.1542339, -0.037800547, -0.07331012, -0.13202089, -0.13978988, -0.10401142, -0.11686885, -0.08370958, -0.12210035, -0.19210184, -0.1508115, -0.18564841, -0.18490152, -0.13589065, -0.08862867, -0.18241626, -0.1147196, -0.15040405, -0.14387701, 0.05253634, -0.07252504, -0.14264943, -0.099678025, -0.07081983, -0.12390226, -0.13674508, -0.070136435, -0.12147739, -0.12432216, -0.118485734, -0.16231057, -0.16002949, -0.18647887, -0.17377767, -0.075580955, -0.18834202, -0.13363133, -0.13563229, -0.20791124, -0.16963844, -0.15252993, -0.08975319, -0.16682379, -0.04822981, -0.11366066, -0.042398904, -0.15206395, -0.023828939, -0.14689693, -0.15819451, -0.0101867495, -0.046927862, -0.03483251, 0.002412036, -0.0039977604, -0.035581827, 0.06133802, -0.0024101248, -0.01754028, -0.06390113, -0.040633477, -0.055302963, -0.07152153, -0.017714638, -0.054828763, -0.028249735, -0.058489442, -0.023445383, 0.012870843, 0.015583109, -0.04079883, 0.03354303, 0.040948767, -0.02329947, -0.06554035, -0.012109951, 0.035160843, -0.067891635, 0.035084836, -0.0037001034, 0.071056925, 0.10605258, -0.009745432, 0.11706264, 0.08476833, 0.0019450706, -0.005435954, 0.07083165, -0.002682445, -0.0037631283, 0.09650637, 0.0015182056, 0.114769354, 0.061321627, 0.052394964, 0.10775946, -0.013141759, 0.06889257, 0.061480645, 0.06994805, -0.011567336, 0.09398179, -0.0035316339, 0.062380433, 0.1105577, 0.04745956, 0.10654511, 0.055941485, 0.10334597, 0.049527697, 0.028925156, -0.046876814, -0.032697592, -0.026671108, -0.00551961, -0.08238809, -0.003604133, -0.00177731, -0.023315575, -0.046063174, -0.02203619, 0.02534654, 0.0007891522, -0.05546411, 0.011771698, -0.010868283, -0.03816193, 0.03195369, 0.03663225, -0.040456932, -0.024664547, -0.026167277, 0.048272494, -0.040550716, 0.0064620357, 0.030333197, 0.024541076, -0.02641514, -0.05124737, 0.052561294, -0.011203813, 0.06223085, -0.059456103, -0.046577275, 0.054736268, -0.006374007, -0.023654584, 0.023933312, 0.0236654, 0.0718235, -0.054087374, 0.064804696, 0.043037333, -0.008237458, -0.033682983, 0.025018215, -0.024945874, 0.055764254, 0.04332201, 0.050552856, -0.010819254, -0.0155352345, 0.07025352, -0.020076988, -0.020298297, 0.06917832, 0.0485181, 0.050812967, 0.06776123, 0.040489595, 0.15549543, 0.08278721, 0.03490544, 0.10730477, 0.09898883, 0.09491989, 0.0578117, 0.0042533474, 0.004444463, 0.0041527776, 0.07400961, 0.13451736, 0.04596575, 0.011827829, 0.112807125, 0.11472523, 0.05846175, 0.0678274, 0.035742693, 0.002936296, 0.1046402, 0.120771475, 0.045499623, 0.074289635, 0.07110967, 0.06663031, 0.052243482, 0.06620137, 0.09894903, 0.06697007, 0.040197402, 0.039805934, 0.03140515, 0.06362632, -0.023298103, -0.0023331044, -0.04575334, 0.0109328395, -0.025880093, 0.0134959435, -0.00992274, -0.040135585, 0.018557038, -0.010085034, -0.010410973, -0.058142565, 0.011167058, -0.06537622, -0.02962277, 0.00091848435, -0.022869831, 0.014603749, 0.018591527, 0.050007015, 0.0480534, -0.037759352, -0.049467437, -0.06488769, -0.048859835, -0.03863702, -0.105418384, -0.036899388, -0.0003933079, -0.11200465, -0.03884984, -0.04074645, -0.021927498, -0.0032179893, -0.005537688, -0.11848518, -0.0024279784, -0.082427695, -0.037617873, -0.087713316, 0.012677678, -0.019008435, -0.06804908, 0.006087189, -0.10251576, -0.014230833, 0.01613718, -0.02925564, -0.021460984, 0.012102354, -0.02648133, -0.021111112, -0.040665835, -0.065121986, -0.0008507087, 0.0012233331, -0.11547779, -0.044032533, -0.05039632, -0.051243715, -0.010100441, -0.059551455, -0.08170645, -0.06020745, -0.08249644, -0.12548935, -0.10742997, -0.05893932, -0.026894037, -0.050582778, -0.11040918, -0.11225569, -0.076053165, -0.034433972, -0.0029233533, -0.115895145, -0.07833303, -0.053966034, -0.11130938, -0.032978937, -0.063846506, -0.08728344, 0.00829453, -0.110967636, -0.018008944, -0.06559348, 0.023690322, -0.06531519, 0.040209293, -0.046590373, -0.059805617, -0.031222427, 0.026125383, -0.012118953, -0.051007163, -0.028715335, 0.024790896, -0.059206717, 0.0050297896, -0.028832216, -0.035040632, -0.055633575, -0.02449776, -0.013165605, -0.030920176, -0.06427277, 0.009127198, -0.0955577, 0.019037513, -0.07020119, -0.015989548, -0.044162355, 0.047482483, -0.021692645, -0.04497995, -0.05845475, 0.022622433, 0.05476168, -0.0034659496, 0.0345001, 0.055210732, -0.0050158533, 0.03564177, -0.015441402, 0.0018971467, 0.067562476, 0.0002888556, 0.0023943526, 0.023448378, 0.059249897, -0.018201938, 0.029719727, -0.022198286, 0.089120306, 0.027680814, 0.078441575, 0.0065085124, 0.051151387, 0.07487087, 0.003061461, 0.07884206, -0.033489987, 0.008440573, 0.05042001, 0.06936944, 0.013618042, -0.037228815, -0.0893418, -0.081187285, -0.07533236, -0.039995916, -0.06434619, -0.05534002, -0.10520959, -0.08475854, -0.12869531, -0.017024783, -0.017890587, -0.045046613, -0.10796388, 0.015980646, -0.051707067, -0.055259317, -0.046702918, -0.03229299, -0.10334532, -0.10445789, -0.003889815, -0.003939563, -0.05282296, -0.03871382, -0.069876015, -0.03287702, -0.040386997, -0.077451676, 0.026085362, 0.06182707, 0.033760726, 0.040824957, 0.012403871, 0.07930957, 0.019574214, -0.003492444, 0.09523569, 0.048272345, 0.09780733, 0.024183992, -0.028539184, 0.102981016, 0.0019307951, -0.0016962616, -0.036531206, -0.013054568, 0.011561472, -0.00873688, 0.10833664, -0.015503963, 0.026523288, -0.029931324, 0.05393402, 0.048199635, -0.032379806, 0.06373351, -0.015593844, 0.01977843, 0.02255835, 0.029199535, 0.12660424, 0.07882552, 0.01050915, 0.027553836, 0.009741918, 0.037703384, 0.065513544, 0.05927526, -0.013380575, 0.08676849, 0.07936207, 0.065741725, -0.012498563, 0.030116037, -0.00020922828, -0.03441146, 0.046715207, 0.036516532, -0.017923301, 0.0521793, 0.018987844, 0.050608274, -0.01596275, 0.00086414686, 0.09070423, 0.06811681, 0.024608955, 0.073727414, 0.044695836, 0.015467829, 0.006678761, 0.10567081, 0.102174245, 0.09988919, 0.06454539, 0.120501235, 0.0560425, 0.0676717, 0.06702852, 0.010035848, 0.07213882, 0.070987515, 0.1340314, 0.10295008, 0.025449371, 0.05463574, 0.08300253, 0.06753749, 0.062286653, 0.011359687, 0.029723644, 0.118950404, 0.12847728, 0.01579136, 0.08449679, 0.09971297, -0.020166555, 0.09072591, -0.035459187, -0.024826014, -0.027175754, -0.08503273, 0.008830319, 0.022572644, -0.052019, -0.04267537, -0.08579925, -0.045034964, -0.10530239, -0.0812847, -0.006270796, -0.0072689718, 0.011889032, -0.09992672, -0.043453988, -0.089572445, -0.06416254, -0.10655756, -0.09525404, -0.0041696737, -0.035303257, -0.056916263, -0.028691765, -0.050228108, -0.09083528, -0.08693064, -0.102731355, 0.01862793, -0.08561747, -0.059811536, -0.04430506, -0.010185775, 0.029851591, 0.013737238, 0.021821486, 0.040525325, -0.004824137, -0.066353045, 0.023511708, -0.0019105434, -0.037007634, 0.0001496692, 0.026271664, 0.01163896, -0.05080552, 0.045739476, -0.031937223, -0.027781075, 0.003016546, -0.06887411, -0.05507764, 0.045793697, -0.094152324, -0.08203771, 0.009059339, -0.08454501, 0.0016054682, -0.039723508, 0.007566195, -0.0858019, 0.023998411, 0.0050815823, -0.097319916, -0.04680198, -0.059442304, -0.061954528, -0.04243141, -0.04594071, -0.024783913, -0.020861017, -0.08903078, -0.043056685, -0.079326235, -0.077812545, -0.07065962, -0.054117337, -0.07457575, -0.081018396, -0.019424414, -0.004095646, -0.12201571, -0.048960768, 0.016909162, -0.10251613, -0.07619074, -0.0052145165, -0.099793874, 0.0052204514, 0.014715454, -0.04653689, 0.016107634, 0.042263117, 0.038075257, -0.08446644, -0.0060468917, 0.051403403, 0.043892555, -0.031380042, -0.07619823, -0.004006516, -0.0029255294, -0.08228023, -0.07142301, 0.049536034, -0.055796523, -0.042997707, -0.093292944, -0.05468756, -0.063744865, -0.017297905, -0.081248604, -0.015608645, -0.0036731856, 0.0291949, -0.044388972, -0.0017601672, -0.056173604, -0.037457477, 0.038603034, 0.032113437, -0.017621906, 0.03038962, -0.06373574, 0.031173771, -0.036849696, -0.07068154, -0.013691386, -0.023458207, -0.03620713, -0.029165922, -0.011014409, -0.009988165, -0.07914568, 0.021734454, -0.08835855, 0.030843709, -0.05595411, 0.0026737833, -0.027534042, -0.054034814, 0.012642884, -0.03669426, 0.030795893, -0.0053242794, -0.003975734, 0.0056109084, -0.0032462222, 0.019941682, -0.004819957, -0.07868687, 0.033578597, -0.062751375, -0.08035753, -0.08276589, -0.022573102, -0.09908219, 0.019242195, -0.02668504, 0.012244257, 0.013939423, 0.00012302262, -0.00093133625, -0.04442411, -0.05795255, -0.021180691, -0.045218516, -0.080496244, -0.093044095, -0.03595703, 0.025640268, 0.03699615, -0.09438909, -0.0582788, 0.010675266, -0.10014961, 0.038498826, 0.025157131, -0.07409866, -0.00938444};
const float fc1_bias[4] = {0.07718003, 0.1917878, -0.21853627, -0.079827495};
const float fc2_weight[360] = {-0.017359076, -0.038276877, 0.032491196, -0.09149932, -0.07331132, -0.0023036539, -0.03451427, -0.04095572, -0.16937889, -0.06680832, -0.12730019, -0.03627765, -0.110406466, -0.122159615, -0.05715028, -0.042707518, -0.076733835, -0.11379211, -0.07362062, -0.08826492, -0.0005714873, -0.08828905, -0.12390464, -0.02109332, 0.002261364, -0.119837515, -0.00744871, -0.07623559, -0.08403222, 0.0091526825, -0.044389345, 0.06761666, 0.024096737, -0.038035907, 0.07865835, 0.0023371617, 0.092093475, 0.029291911, 0.08273059, -0.015187224, 0.04546011, 0.032790113, 0.090075925, 0.10226222, -0.025284817, 0.08382786, 0.06426258, 0.0037814926, -8.752788e-06, 0.005559056, 0.038230453, 0.070583925, 0.003241777, 0.085779406, -0.031020755, -0.051218208, -0.014305795, 0.041255873, -0.027532002, 0.057377886, -0.07973286, -0.022470688, -0.03510455, -0.021328513, -0.136322, -0.10475438, -0.17477392, -0.04861823, -0.114978455, -0.08473987, -0.10419512, -0.14942537, -0.13754356, -0.07499938, -0.04571991, -0.0382292, -0.064568825, -0.16808231, -0.15167364, -0.14268573, -0.16463931, -0.12915426, -0.10100235, -0.0988199, -0.09415958, -0.04085196, -0.13458328, -0.08243511, -0.111307554, -0.036834422, 0.033631854, 0.04347155, 0.050198667, 0.067338884, -0.018218184, 0.06462063, 0.009849322, -0.0055609713, 0.030399447, 0.056175698, 0.025133578, 0.06064701, -0.029933615, -0.033661023, 0.068004645, 0.0913031, 0.056270503, 0.057098188, 0.091525525, 0.105091386, 0.06881083, 0.00398502, 0.055732876, 0.0010602147, -0.050218165, -0.05925871, 0.06312948, 0.021617915, 0.061486118, -0.015127145, -0.023323292, 0.091313265, -0.024152733, -0.004577492, -0.060181797, 0.044277, 0.0288674, 0.03355115, -0.0062062354, 0.028152013, 0.02619066, -0.034538373, 0.02989733, -0.02383296, -0.05174873, -0.037171192, 0.0027218142, -0.042800076, 0.012075835, 0.044953395, -0.06670719, -0.04486689, 0.017566262, -0.0038281272, -0.06349905, 0.012494141, 0.033054266, 0.022975624, 0.0029835461, -0.020153258, -0.0027779883, 0.04750078, 0.0806152, -0.052082963, 0.003792678, 0.025719274, -0.012388188, 0.010705469, 0.050678965, 0.049630966, 0.012591543, 0.009110314, 0.0036501766, 0.05763517, 0.0047708782, 0.058676235, -0.05339592, -0.0051603424, -0.009998417, -0.021846129, -0.02274857, -0.015598204, 0.046877425, 0.04913098, 0.058018487, 0.06562633, 0.040272903, -0.050055888, -0.060524262, -0.024296053, 0.06655214, 0.11847175, 0.049656384, -0.021557027, 0.10806422, 0.075057775, 0.07394813, 0.06459513, 0.056309678, 0.09115717, 0.04221277, 0.083567865, 0.13215372, 0.11124885, 0.0084084775, -0.006629663, 0.06983755, 0.10744225, 0.1040146, -0.019857548, -0.014805504, 0.084947266, -0.0047840406, 0.0058175647, 0.06853733, -0.014701699, 0.06911133, 0.03702167, 0.0052977554, -0.02031983, -0.030644238, 0.007915778, -0.045258977, 0.017540194, 0.032940768, -0.072513744, -0.07630542, -0.0046647387, -0.07126554, -0.003656011, -0.098642215, -0.04909396, -0.078260265, -0.10208333, -0.023039784, -0.02640236, 0.03291855, -0.058032602, -0.032948475, 0.02818236, -0.046181142, -0.049628645, -0.09511126, -0.08797738, -0.059515968, -0.038954362, -0.07147644, 0.0108457925, -0.08425253, 0.02959191, 0.058025707, 0.07710055, 0.12787093, 0.055064872, 0.15941171, 0.080206096, 0.12020161, 0.11862421, 0.17254478, 0.116359666, 0.07467087, 0.06384727, 0.11441557, 0.031058455, 0.058723394, 0.10021654, 0.12909105, 0.120660916, 0.13206388, 0.09235923, 0.10771691, 0.16649325, 0.14130792, 0.073408425, 0.13165548, 0.14480212, 0.08853234, 0.1110002, 0.07765953, 0.011676213, -0.05785087, 0.008727407, -0.017957168, 0.060612336, -0.044993844, -0.073825516, 0.027707683, -0.03665261, -0.08784236, -0.046361454, -0.065351196, -0.10620629, -0.031664994, 0.025877124, -0.0046466696, 0.009774228, -0.096404165, -0.050970007, -0.06938136, -0.045851234, -0.019173019, -0.04399319, -0.01606765, 0.028240835, -0.04692112, -0.004259053, -0.053220846, -0.03726814, 0.0489692, 0.00211784, 0.021595262, 0.043523304, 0.010135981, 0.014011038, -0.053834006, 0.06418931, 0.001559394, -0.028842088, 0.089111194, -0.024140745, -0.013918369, -0.04079466, -0.009212376, 0.044467364, -0.021430856, -0.0027348914, 0.069963, 0.039582703, -0.055873893, 0.06394577, 0.037859544, 0.06615475, -0.020626387, -0.0018289463, 0.0072790966, 0.04826318, -0.023806613, 0.030251436, 0.06393297, -0.07516813, 0.005977698, 0.041689094, -0.030223588, 0.0078855995, -0.03966754, -0.062439535, 0.018688183, -0.057491813, 0.016211718, 0.032994494, 0.029514698, -0.061215114, 0.025087241, -5.3088756e-05, -0.054326132, 0.043759845, -0.04047623, 0.031527314, -0.011430617, -0.016590618, 0.02895938, -0.025438033, -0.06923362, -0.0104642445, -0.017710667, -0.037057538, -0.06546016, -0.007073279, -0.0008038893, -0.034288857};
const float fc2_bias[2] = {0.031834573, 0.055649217};
