const float conv1_weight[120] = {1.1861213, 1.1150534, 1.3599885, 1.4489896, 1.3876445, -0.080889806, 0.16640294, -0.018084377, 0.22605036, 0.5371389, -0.21860106, -0.33277303, -0.045303512, 0.17918296, -0.10313884, 0.22331403, 0.16041495, -0.07556774, 0.18185903, 0.03326769, -0.0071784058, 0.09443536, -0.029885706, 0.05650193, -5.919451e-06, 0.06978637, 0.033766612, -0.054316737, 0.11523642, -0.13610715, -0.86253333, -0.42228583, -0.7475826, -0.73240155, -0.70250803, -0.3836342, -0.5815262, -0.54909253, -0.50859827, -0.5484257, -0.87790227, -0.7535777, -0.6421375, -0.5166829, -0.65210575, -0.045616176, 0.088818975, 0.045252416, -0.06208604, -0.1453652, 0.11125037, 0.29897538, 0.28084475, 0.29127634, 0.08526088, 0.09693658, 0.20541881, 0.069370836, -0.14309154, -0.4138141, -0.6156805, -0.7971313, -0.5481882, -0.6129203, -0.67720866, 0.29768422, 0.14570008, 0.1150525, 0.31211698, 0.21088372, 0.5200761, 0.6012007, 0.6343198, 0.8073656, 0.5927226, -0.064763196, -0.0056952825, 0.06668959, 0.11644657, 0.07324273, 0.04217, 0.10214013, -0.008346542, 0.08771054, 0.0034246028, -0.37768713, -0.3230782, -0.11918973, -0.020571537, -0.25252643, -1.0142066, -1.316593, -1.1985991, -1.0279828, -1.2663738, 0.4986389, 0.5481668, 0.5696247, 0.39824587, 0.40564913, 0.4017834, 0.5727401, 0.44724095, 0.40254787, 0.4767686, -0.014762305, 0.055227675, -0.0870409, 0.04241428, -0.101158634, -0.2704457, -0.20504843, -0.13224025, -0.19882676, -0.052272182, 0.033158235, 0.02969324, -0.101399586, 0.12251757, -0.11519704};
const float conv1_bias[4] = {0.3325462, 0.17247179, 0.32376614, 0.0055370484};
const float conv2_weight[72] = {0.030126547, -0.058120493, -0.039252557, -0.23988265, 0.03269824, -0.2377858, 0.29947147, -0.056393206, 0.19542308, 0.12240141, 0.13337412, 0.2147867, 0.062318437, -0.16311926, -0.15666957, -0.09821929, 0.19256848, 0.15664256, 0.19190358, 0.15937963, 0.24220282, -0.19201718, 0.04233098, -0.13040072, 0.0071278205, 0.08850115, -0.10109318, 0.10490887, -0.1786021, 0.0680801, 0.04669701, 0.41090024, 0.4081877, 0.28364578, 0.070271775, 0.044140566, -0.061816975, 0.032926105, 0.08102414, -0.12112766, -0.07689877, -0.32186258, -0.12819636, 0.3204807, 0.23038025, 0.36356032, 0.16544597, 0.36315203, -0.0118375635, 0.21961288, 0.07559548, 0.0663732, 0.49260846, 0.23061515, -0.4503656, -0.53862584, -0.2338671, -0.08069001, 0.23133089, 0.11988713, -0.09049305, 0.41176984, 0.46490863, 0.027173664, -0.24825864, -0.44499645, 0.35261565, -0.06887557, -0.08709153, -0.18268287, -0.031097887, -0.15054165};
const float conv2_bias[6] = {0.60987175, -0.030924644, -0.08280488, 0.27291468, 0.34824276, 0.10126054};
const float fc1_weight[720] = {0.08314952, -0.098374866, -0.04725259, -0.033202123, 0.0013935163, -0.17615, -0.077601746, -0.05965694, -0.02893968, 0.0069232523, -0.016368646, -0.11294165, -0.103042156, -0.124443404, -0.14610322, -0.13114895, -0.068780206, -0.025931083, -0.1514753, -0.0094164945, -0.04513103, -0.15969875, -0.1218037, -0.13573761, -0.17338431, -0.083186604, -0.13879322, -0.051816743, -0.06538612, -0.0093592, 0.13891004, -0.015097446, -0.010860984, -0.01755755, -0.12922393, -0.19107005, -0.12889881, -0.12748219, -0.20203374, -0.12037006, -0.12572739, -0.16527566, -0.124194086, -0.24047604, -0.10101974, -0.115516156, -0.15926066, -0.18400528, -0.16949178, -0.020518962, -0.17356806, -0.22150235, -0.10779648, -0.18396203, -0.27879566, -0.20448688, -0.3322605, -0.26506475, -0.43886274, -0.32147428, 0.08304372, 0.010879845, -0.021666666, -0.1372482, -0.30839404, -0.19652931, -0.11934476, -0.1689195, -0.24236941, -0.2263143, -0.17242186, -0.23874794, -0.1753889, -0.17629768, -0.14593367, -0.2631388, -0.28857526, -0.25170046, -0.17227823, -0.25404465, -0.15859425, -0.22961532, -0.15279768, -0.22286911, -0.23437916, -0.3667691, -0.24709342, -0.19446701, -0.42800733, -0.48160177, -0.12681912, 0.041325793, -0.044498924, -0.10694498, -0.11080674, -0.06307738, -0.058998875, -0.06088642, 0.009303725, -0.07562337, 0.067912966, -0.032523744, -0.03556454, -0.011475636, 0.04230935, -0.023080269, -0.024268584, -0.052905608, 0.037056938, 0.007490935, -0.002328423, -0.08163882, -0.06585277, -0.049034607, -0.028219324, -0.04849727, -0.021609632, -0.06662194, -0.23217022, -0.1722153, 0.23007353, 0.1719201, 0.17029533, 0.22852376, 0.29574713, 0.31813478, 0.21524186, 0.3028797, 0.23923053, 0.35288745, 0.2192373, 0.27533537, 0.2885582, 0.2726461, 0.281805, 0.23643655, 0.24811135, 0.19767757, 0.23969217, 0.3008694, 0.34279865, 0.23433742, 0.22052267, 0.25583187, 0.24767962, 0.16625436, 0.24666539, 0.08506487, 0.0857478, 0.2185152, -0.41580257, -0.34287086, -0.15061411, -0.02846299, -0.20878555, -0.30053768, -0.18421043, -0.2106696, -0.109769784, -0.283157, -0.3957455, -0.36470392, -0.42528313, -0.384504, -0.3845996, -0.423947, -0.5014741, -0.45133135, -0.45333916, -0.45923588, -0.4028636, -0.38471642, -0.38157913, -0.45302314, -0.3841257, -0.3931899, -0.42322, -0.4462144, -0.29983994, -0.40712222, 0.056297667, 0.13304512, 0.090717606, 0.11249282, 0.097301245, 0.03893328, 0.07314005, 0.059902903, 0.06524908, 0.056972932, 0.119990826, 0.111588195, 0.09617333, 0.11734295, 0.043070253, 0.062220108, 0.115087874, 0.008851188, 0.082164824, 0.07886567, 0.0658679, 0.037345536, 0.15396602, 0.016133452, 0.089337565, 0.042350605, 0.021908233, -0.00090958073, 0.0769087, 0.112703785, 0.112986594, 0.07278898, 0.07776929, 0.05677885, 0.0037362736, 0.076384574, 0.012202473, 0.089638755, -0.0044023544, 0.09318468, -0.04087909, 0.057183992, 0.08741698, -0.029548962, -0.0041621127, 0.05693008, 0.031240238, 0.04083037, 0.10925207, 0.04927362, 0.09487375, 0.026681945, 0.034540817, 0.092389606, 0.0020628863, 0.06208568, 0.060227983, 0.04364148, 0.013648481, -0.011571454, 0.025052954, 0.05444079, -0.007958139, -0.035588704, 0.074904464, -0.01896925, -0.04373451, -0.0099029215, 0.07260632, 0.017667096, 0.012216572, -0.025371773, 0.052106827, 0.010737131, 0.0069420445, 0.051318217, 0.06366886, 0.0025063176, -0.04293143, 0.052764814, -0.044343926, -0.01133639, 0.011591277, -0.082053475, -0.052297402, -0.022149501, -0.0076627773, 0.069213234, -0.030147828, -0.032436106, -0.005150333, 0.049763013, 0.04028239, 0.06535885, -0.0055488558, -0.039727353, 0.04836109, -0.003543446, -0.020311495, 0.03517563, -0.02563467, 0.0012895348, -0.010715312, 0.017745921, -0.016423374, -0.009378078, 0.050579682, 0.043965884, -0.026662389, 0.04811687, -0.0014808875, -0.035883974, 0.051022235, -0.048656218, -0.023036096, 0.018398413, 0.0173254, 0.048185937, 0.017090593, -0.01428217, 0.044847272, 0.012933243, 0.0068000597, -0.045402292, 0.056957085, -0.028590383, 0.05603979, -0.020563355, 0.024031997, 0.013154699, -0.06361815, -0.047915857, -0.060385775, 0.0030420832, 0.0017692446, 0.016747003, 0.005017926, 0.027441973, -0.01168372, -0.07944906, -0.009957897, -0.034226827, 0.016966008, -0.08491271, -0.03392141, -0.09572184, -0.014665549, -0.056984417, -0.018294988, -0.0120603, -0.16079631, -0.21011789, -0.105495326, -0.1242107, -0.08544447, -0.08573233, -0.12867706, -0.15150784, -0.116105676, -0.045698058, -0.057677735, -0.08964922, -0.06476892, -0.06827739, -0.15316077, -0.05514311, -0.09146786, -0.10807175, -0.116015494, -0.13294539, -0.06078108, -0.11850868, -0.061593294, -0.07009755, -0.12880813, -0.08260804, -0.114526145, -0.07780347, -0.19691725, -0.074889116, -0.1417669, -0.041531533, -0.0757964, 0.010080979, -0.08622211, -0.11090602, -0.14249578, -0.026852528, -0.100028016, -0.03958266, -0.08119422, -0.014318441, -0.12335996, -0.10510078, -0.0676156, -0.13102667, -0.113503374, -0.105453, 0.0007323516, -0.06771211, -0.032829635, -0.056516822, -0.03270626, -0.04210934, 0.0033668382, -0.044869334, -0.07129518, 0.020128598, -0.04061396, -0.12919639, 0.026448756, -0.021500712, -0.03346473, -0.029739857, -0.072259255, -0.07726369, -0.061480176, 0.0049810125, -0.031569816, 0.043838613, -0.03629074, 0.016462442, -0.012251857, 0.010675266, -0.08184433, -0.03012625, -0.04223902, 0.0022526607, 0.0317959, -0.038363077, -0.06575917, -0.031700715, 0.00066518446, -0.028242853, -0.021704068, -0.04423672, 0.050863817, -0.061159402, -0.08414454, -0.0037905164, 0.049435534, 0.06993045, 0.0260535, 0.07847198, 0.042282157, 0.01906849, -0.04581395, 0.016094225, 0.04618848, 0.026585897, 0.054085933, 0.039499518, -0.035165094, 0.039201804, 0.043416668, 0.05350884, 0.051427003, 0.021361133, -0.010472698, 0.047992602, 0.0005023782, 0.010604386, -0.0077850856, -0.025696596, 0.018924676, -0.01150228, -0.02127279, 0.08452313, 0.0010509476, -0.01815929, 0.037071537, 0.0032267633, -0.049886588, 0.07316881, 0.0023699305, -0.01600393, 0.0745112, 0.027055502, 0.032906488, 0.00054024195, -0.023650007, 0.06211827, 0.035143666, 0.03804222, 0.043958478, 0.054430492, -0.008871826, 0.061146878, -0.0053614336, 0.007235765, 0.012037715, -0.0060614278, 0.048496265, -0.05650149, -0.082481295, -0.02032234, 0.046771817, -0.013729336, 0.00471803, -0.00044293542, -0.02637505, -0.030693261, -0.049810577, -0.078428976, 0.03418339, 0.0009920443, 0.005280269, 0.031698618, 0.002738493, -0.02555674, -0.00394044, 0.017998667, -0.03189999, 0.024439462, 0.013469461, 0.0807711, 0.014840333, 0.0075524435, 0.00041062423, -0.05161272, 0.03736632, 0.001459731, 0.06340153, 0.03749795, -0.018666675, 0.011049817, 0.05187837, -0.007817982, 0.009075081, 0.006000228, 0.20920168, 0.23106611, 0.12843491, 0.13848235, 0.13600603, 0.17681725, 0.1200817, 0.123781525, 0.1713066, 0.1863466, 0.19509712, 0.16207363, 0.16043776, 0.17462015, 0.15361261, 0.1939247, 0.19418769, 0.11215639, 0.17427059, 0.113969244, 0.15853831, 0.16208115, 0.15560447, 0.14596096, 0.14970957, 0.07806176, 0.1125377, 0.11909254, 0.16659057, 0.09551264, -0.17393422, -0.104066245, -0.047366716, -0.17064658, -0.15321991, -0.06283161, -0.038239457, -0.10726936, -0.038641725, -0.095265105, -0.1315799, -0.059525516, -0.18614928, -0.08296877, -0.17527042, -0.14008245, -0.13043833, -0.18763514, -0.14575396, -0.029777743, -0.07639448, -0.16034783, -0.1811794, -0.13260068, -0.1252212, -0.06176962, -0.15601517, -0.118593045, -0.13376394, -0.0732182, -0.12308282, -0.05549751, -0.031185297, -0.078818515, -0.066491336, -0.014567229, -0.10662184, -0.14250752, -0.11287832, -0.016807636, -0.13338122, -0.025406424, -0.12735131, -0.02659753, -0.035742506, -0.03658471, -0.013234064, -0.121465504, -0.10747596, -0.13264775, -0.034929335, -0.15224437, -0.06962178, -0.05234767, -0.08987934, -0.09466536, -0.030620841, -0.13303363, -0.1585957, -0.10744846, -0.03348629, -0.028699126, -0.097220354, -0.09543259, -0.05559801, -0.09356078, -0.10727899, -0.047322515, -0.11057308, -0.08157408, -0.026082102, -0.021973625, -0.13481115, -0.033010058, -0.06866307, -0.04124239, -0.11525093, -0.031236634, 0.006763937, -0.1355303, -0.12437787, -0.021873174, -0.059035666, -0.13534833, -0.02959517, -0.11554083, -0.07010594, -0.053759124, -0.09565343, -0.0448473, -0.04747734, 0.01255469, -0.0481678, -0.100972496, 0.0012639668, 0.022308879, -0.0019089152, -0.004777403, -0.06326455, -0.057258483, -0.08401665, -0.06511133, -0.064667076, -0.087332115, -0.0777817, -0.10012336, -0.06524476, -0.07404728, -0.021064406, -0.10286242, -0.12110024, 0.0034577553, -0.123332545, -0.09401673, -0.11104549, -0.12317166, -0.08943825, 0.0037131612, -0.024927424, -0.1446702, -0.09657556, -0.10034616, -0.1259454, -0.19308215, -0.111275904, -0.093050376, -0.06694965, -0.06985547, -0.18950942, -0.17759146, -0.06237383, -0.08609785, -0.20953847, -0.1873871, -0.08772405, -0.089270525, -0.08164555, -0.09597219, -0.102054104, -0.19807824, -0.07476537, -0.19255288, -0.13719505, -0.18384656, -0.14419648, -0.13677646, -0.2151891, -0.12244794, -0.08585174, -0.19639373, -0.09847251, -0.0005509087, 0.009313169, -0.10693141, -0.0576014, 0.011446726, -0.03931095, -0.060098924, 0.014162811, -0.015717505, -0.016428856, 0.016605614, -0.017703613, -0.09474938, -0.013534426, -0.00962527, -0.09502561, -0.0036145006, 0.011177927, -0.05494489, -0.03431287, -0.081348, -0.05906903, -0.04419249, -0.014424699, -0.064683475, -0.121092066, -0.042466067, -0.05391888, 0.0087831};
const float fc1_bias[4] = {0.12820037, 0.2237183, -0.34477955, -0.09066085};
const float fc2_weight[360] = {-0.12385453, -0.027112078, -0.116437376, 0.026951207, -0.05328767, -0.1506948, -0.17586863, -0.17535767, -0.17861857, -0.0678738, -0.1063253, -0.14721923, -0.2516385, -0.13586108, -0.06406128, -0.090195276, -0.045910988, -0.18902428, -0.13976029, -0.10188703, -0.12255941, -0.19161248, -0.2192037, -0.11534217, -0.14940727, -0.19904554, -0.16464023, -0.16059059, -0.1375883, -0.14537872, 0.021258865, -0.038252145, -0.025375925, 0.0759946, -0.08110149, -0.044136707, 0.040159166, -0.041685, -0.017547451, -0.006432996, -0.072597444, -0.07406119, -0.07935425, -0.097008504, -0.0135139795, -0.09698607, -0.091650434, -0.013307913, -0.04133332, -0.011754784, 0.0043030675, 0.020442652, -0.023622565, -0.041143615, -0.07441978, -0.022316845, -0.064272776, 0.030349936, -0.040799353, -0.09904831, -0.124555685, -0.07721797, -0.070567705, -0.04573211, -0.042169064, -0.07937048, -0.0058788746, -0.1000589, -0.11200593, -0.07420658, -0.09042949, -0.100644335, 0.0054207495, -0.13642946, -0.07359987, -0.10990874, -0.09105359, -0.09168894, -0.13615364, -0.09809568, -0.035016187, -0.04726772, -0.17737098, -0.039281927, -0.039758164, -0.11531298, -0.0932438, -0.033170726, -0.10617743, -0.04462091, -0.04230408, -0.16417496, -0.1261442, -0.044186838, -0.11889171, -0.16965029, -0.15855931, -0.11516587, -0.0682323, -0.05143153, -0.068821326, -0.18769364, -0.13173676, -0.13345967, -0.16054139, -0.10623923, -0.06847034, -0.0871857, -0.15863219, -0.18747658, -0.18861327, -0.10094562, -0.13734029, -0.079224944, -0.098715976, -0.12968966, -0.21018901, -0.17424838, -0.1145549, -0.11094668, -0.02098969, 0.1303171, 0.08388917, 0.029841803, 0.1401634, 0.15236929, 0.13335891, 0.028269162, 0.08240052, 0.109497786, 0.09193012, 0.10206201, 0.11034999, 0.03552589, 0.109913565, 0.17846881, 0.16760047, 0.11390014, 0.07622027, 0.1429899, 0.067672804, 0.17987399, 0.120351195, 0.08327438, 0.09746371, 0.046872597, 0.10866717, 0.031357516, 0.007864698, 0.1272236, 0.102372624, 0.1430442, 0.0774223, 0.07398258, 0.08489576, 0.024900256, 0.07147851, 0.0066492194, 0.051143453, 0.12196543, 0.080174886, 0.11719194, 0.12330957, 0.16506067, 0.07606188, 0.07776817, 0.026088988, 0.03734577, 0.07032007, 0.026265118, 0.03666455, 0.06643265, 0.08951869, 0.116897255, 0.09416823, 0.0062651657, -0.023605563, 0.046329588, 0.08294573, 0.040449828, 0.14523943, 0.061913803, 0.1333704, 0.061527807, 0.028447047, 0.080031775, 0.09398279, 0.07910991, 0.18441741, 0.1300219, 0.18876307, 0.21819448, 0.2272874, 0.12471182, 0.16716346, 0.113906406, 0.09674385, 0.05800253, 0.087492764, 0.15288875, 0.13434598, 0.17469664, 0.17704415, 0.20283762, 0.24654734, 0.16396722, 0.12337455, 0.18045102, 0.18752028, 0.050931714, -0.009984573, 0.04184828, 0.038548257, -0.08481846, -0.015182188, 0.032251123, 0.022716729, -0.03103634, 0.02523425, 0.0460808, 0.057227883, 0.097740605, 0.099539004, 0.087858945, 0.011097084, 0.025391132, -0.03709501, 0.08769197, -0.046672247, -0.030710181, 0.057997063, 0.01199002, -0.05441191, -0.018172674, 0.077364855, 0.10387622, 0.043640736, 0.04217159, 0.01675667, 0.1779131, 0.13265276, 0.0576774, 0.09200387, 0.11303923, 0.10466493, -0.029835656, 0.095022865, 0.12991446, 0.06317825, 0.100787796, 0.071313195, 0.055363845, 0.10180925, 0.041993853, 0.07080708, 0.07034606, 0.08261376, 0.059044186, 0.054954726, 0.097931676, 0.096779905, 0.08408937, 0.09921926, 0.1548636, 0.11925198, 0.057180695, -0.017432144, -0.013116421, 0.1003938, 0.045222137, 0.00045181907, 0.045151886, 0.026620174, 0.15730211, 0.13501158, 0.135603, 0.15084523, 0.21001843, 0.17685498, 0.11821856, 0.14734, 0.11762547, 0.22858183, 0.123311065, 0.15469941, 0.04641993, 0.12626201, 0.019844722, 0.06977855, 0.110387914, 0.09645699, 0.043256402, 0.07521438, 0.16770834, 0.07359491, 0.07624458, 0.12044779, 0.09254972, 0.14995465, 0.0958953, 0.004184344, -0.11168727, -0.13862619, -0.040415198, -0.053345468, -0.117711894, -0.037445582, -0.11243137, -0.132514, -0.09300857, -0.14050245, -0.17266312, -0.06863578, -0.078455776, -0.1705545, -0.17570454, -0.19441333, -0.1742353, -0.12873778, -0.10004183, -0.09848298, -0.11718079, -0.19399531, -0.060865164, -0.07180001, -0.062237393, -0.115455896, 0.017847417, -0.069453605, -0.056012206, -0.11654028, -0.06794765, -0.010697978, -0.110203505, -0.021979414, -0.12688416, -0.10045565, -0.075114906, -0.04209913, -0.07406867, -0.08634955, -0.0726598, -0.04823167, -0.11544574, -0.06366623, -0.16502409, -0.10423857, -0.11846205, -0.018733384, -0.108421244, -0.07713492, -0.10347494, -0.114138156, -0.040410772, -0.05380118, 0.0053825, -0.05544051, -0.07017626, -0.07407748, 0.002386937};
const float fc2_bias[2] = {0.065687224, 0.021333527};
