const float conv1_weight[120] = {0.009695777, 0.10377146, 0.011809445, 0.02607719, -0.13325697, 0.41960782, 0.5200926, 0.46066928, 0.39441854, 0.38138333, 0.2986596, 0.37517098, 0.39774483, 0.1734127, 0.36212474, 0.12110666, 0.016939083, -0.19496308, -0.28086188, -0.05545547, 0.0120145045, 0.01968565, -0.11445068, 0.15024789, 0.04858691, 0.05532286, 0.10911236, 0.00046811925, 0.14066945, 0.27486095, 0.49091434, 0.1773251, 0.33440733, 0.34563136, 0.4284284, -0.24214454, -0.12079477, 0.19896208, 0.071041, 0.22556466, 0.3057287, 0.2440695, 0.20930614, 0.033411812, 0.1016356, 0.20150054, 0.061247192, 0.26494375, 0.12017009, 0.20262106, -0.072901346, -0.103551544, -0.02827138, 0.1024587, -0.019524837, -0.023799077, 0.03172753, -0.0106882015, 0.06498415, 0.19659698, 0.14780536, 0.2050228, 0.4454585, 0.3166134, 0.21496323, -0.37257567, -0.4908681, -0.24901773, -0.29632333, -0.2845319, -0.19303317, -0.41635215, -0.36817327, -0.5431347, -0.34495273, -0.18244949, -0.18114012, -0.04492408, -0.078948386, -0.12608165, 0.12158426, 0.024414556, -0.08452719, 0.18609713, 0.050824363, 0.023198826, -0.20551129, -0.14079742, -0.015303051, -0.03020489, -0.57174283, -0.55867165, -0.49582976, -0.44229734, -0.2496521, 0.22018538, 0.25795913, 0.31965315, 0.23000091, 0.058435913, 0.06097727, 0.22355077, 0.19165242, 0.19476165, 0.2349, -0.04176691, -0.13777111, 0.124619536, 0.063384384, -0.16132283, -0.38350222, -0.38269, -0.21332768, -0.027212605, -0.20615445, 0.05182011, -0.0664752, 0.08510364, 0.18395099, 0.1530635};
const float conv1_bias[4] = {-0.070249155, 0.06922918, 0.037307672, 0.24324913};
const float conv2_weight[72] = {-0.087393604, -0.16263168, -0.22456598, -0.05828158, 0.02512015, -0.1801777, 0.032760344, -0.11681347, 0.18709663, 0.17282763, 0.38497886, 0.042424314, 0.034385942, -0.08900995, 0.111818984, -0.061178084, 0.16167429, -0.14334384, -0.051751498, 0.08896752, -0.04783622, -0.21312176, 0.37201884, -0.17057057, 0.104631506, 0.23881632, 0.07853964, 0.28742984, 0.29491994, 0.11969665, -0.32648686, -0.24328159, 0.06340647, -0.11793573, 0.016282588, -0.04778517, 0.2561649, -0.035241023, 0.061903093, -0.11459974, 0.1486529, -0.05009177, -0.06274443, 0.015140508, -0.06530957, -0.3000275, 0.18835166, -0.29843062, 0.34916502, 0.2911985, 0.20752156, 0.20491044, -0.1205373, -0.08059677, -0.14522009, -0.02286997, -0.3409849, 0.35598156, 0.33338836, 0.3710329, -0.008217526, 0.21713093, 0.15287429, -0.3822817, -0.3843951, 0.14395668, 0.3443708, 0.30719045, 0.200263, -0.2062591, -0.18099625, -0.10975883};
const float conv2_bias[6] = {0.50977516, -0.13134003, -0.11263128, 0.47164384, 0.11339086, -0.15890695};
const float fc1_weight[720] = {0.022860322, -0.07303524, -0.0807109, -0.07298546, -0.13805325, -0.11676009, -0.03554591, -0.011391428, -0.07148647, -0.075650126, -0.15363099, -0.054214735, -0.021581773, -0.014754383, -0.10431786, -0.003894205, -0.12398786, -0.073913746, -0.077812955, -0.14568135, -0.22435853, -0.17340915, -0.12784062, -0.10272603, -0.11442852, -0.15962252, -0.09259004, -0.08561126, -0.20791486, -0.1915407, -0.21330547, -0.10193229, -0.060875647, -0.030158611, -0.154623, -0.099052526, -0.09486631, -0.14558184, -0.11272905, -0.14937168, -0.06840593, -0.16817184, -0.019330148, -0.054494686, -0.07967083, -0.08078113, -0.117857665, -0.18217005, -0.029743465, -0.15019178, 0.0048130886, -0.04941557, -0.08404705, -0.05683703, -0.09616514, 0.0244576, -0.08906422, -0.14635845, -0.043195274, -0.09132524, 0.010277842, -0.2625002, -0.22057208, -0.108587265, -0.22077107, -0.22677962, -0.21711883, -0.14464207, -0.17062181, -0.2507993, -0.20715229, -0.15625665, -0.13098547, -0.09350388, -0.21827827, -0.16477805, -0.12913156, -0.13178754, -0.1298552, -0.111435734, -0.14460817, -0.107329376, -0.14132246, -0.13520642, -0.19822359, -0.18777202, -0.032988727, -0.05413204, -0.034503665, -0.16761449, 0.12735793, 0.25284773, 0.28554246, 0.18915461, 0.2564619, 0.27158532, 0.20245314, 0.35261887, 0.2853053, 0.17468816, 0.30859867, 0.29011402, 0.25604627, 0.29731324, 0.20576264, 0.27548644, 0.17842865, 0.2986312, 0.22654441, 0.21519724, 0.2812181, 0.3235021, 0.28374088, 0.29719898, 0.2901863, 0.34626266, 0.25960812, 0.34306338, 0.37800032, 0.20959984, -0.061284002, -0.005672457, -0.04747833, -0.05866459, -0.039208826, -0.11165318, -0.03958666, -0.11267034, -0.04302931, -0.05374179, -0.14307855, -0.025877845, -0.033744775, -0.13908176, -0.109932035, -0.17539202, -0.07612689, -0.13447468, -0.06798106, -0.18101756, -0.04226873, -0.02944519, -0.15652673, -0.16590548, -0.058151014, -0.09412964, -0.01588359, -0.11549514, -0.1391542, -0.10226027, 0.032422263, 0.09451891, 0.09688947, 0.15606818, 0.14503588, 0.05312554, 0.0988352, 0.113135256, 0.1871047, 0.16913871, 0.17505309, 0.20453423, 0.14416605, 0.10702361, 0.026184885, 0.10106639, 0.1352053, 0.20156322, 0.21356711, 0.15972921, 0.14712952, 0.118799284, 0.11689604, 0.082298286, 0.14640802, 0.09964764, 0.13410498, 0.052348234, 0.066491455, 0.03834095, 0.15874016, 0.15697142, 0.22069134, 0.13622399, 0.08999686, 0.16220744, 0.18189615, 0.20842117, 0.09713235, 0.19990444, 0.21936221, 0.17875703, 0.15428992, 0.10164257, 0.1536513, 0.17784797, 0.09593384, 0.076429754, 0.101118244, 0.12581761, 0.07879164, 0.19354503, 0.1583449, 0.054683458, 0.15926728, 0.19102603, 0.13245307, 0.1591156, 0.11498624, 0.13770236, -0.02578375, -0.05100336, 0.0066263503, -0.050444465, -0.0065717706, -0.02643542, -0.0025631934, -0.02567701, -0.016298357, 0.03802301, 0.05398921, 0.015562184, -0.03327033, -0.019122139, -0.027888699, -0.031428184, -0.020727437, -0.04439401, -0.051100828, -0.0749208, -0.063947305, 0.042116202, -0.04443634, -0.07099515, -0.021104679, -0.0787547, -0.08345964, -0.07430205, -0.10030035, 0.02318424, -0.11111637, -0.0046081925, -0.056401975, -0.055637326, 0.037908964, -0.022194384, -0.046858057, -0.08976502, 0.007798034, -0.09588896, -0.07408139, -0.05909552, -0.028635113, -0.02471488, -0.031448983, -0.07296946, -0.12553252, -0.08958702, -0.03665438, -0.025724484, 0.023004692, -0.018801657, -0.08362948, -0.004960513, -0.08626309, 0.032315556, -0.0053559626, -0.024301996, -0.09100958, -0.055820182, -0.002630487, -0.08356861, 0.00042544748, -0.033244338, -0.074541666, -0.051547643, -0.063290805, -0.093238786, -0.07116768, -0.06702295, -0.08780722, -0.03216988, -0.08183884, 0.050093304, -0.030822728, 0.0060913116, -0.06269693, -0.0286992, 0.004333479, 0.032551575, 0.022322664, -0.037753947, -0.025564678, 0.03088319, -0.07268706, 0.02859985, -0.006643425, -0.0012548818, -0.057356652, 0.0036383208, 0.046876766, 0.102846496, -0.016922288, 0.02332768, 0.051618032, 0.011557823, 0.07488412, -0.011297163, 0.044307806, 0.03346282, 0.02008803, 0.047427587, 0.117087446, 0.080511875, 0.004170671, 0.024926785, 0.07031097, 0.0577344, 0.04549709, 0.040018685, 0.088627845, 0.08434179, 0.05061731, 0.11213716, 0.05194326, 0.10050634, 0.024555849, 0.021938771, 0.043985773, 0.03895268, 0.0012732741, 0.02952406, -0.021286823, -0.0064658076, 0.032217037, -0.018575078, -0.050760735, -0.06919907, 0.0020249416, -0.07174514, -0.0038783595, -0.046911247, -0.0755619, -0.059309933, -0.056875587, -0.014822203, -0.026090018, -0.010737402, -0.027546126, 0.016108101, -0.026103653, 1.4957075e-05, -0.008228088, 0.008526712, -0.047714777, -0.041386545, -0.022906588, -0.055280674, -0.005189166, -0.09486435, -0.17821524, -0.12937985, -0.059349466, -0.17991097, -0.09829365, -0.095713325, -0.19831204, -0.12441156, -0.10588674, -0.14233477, -0.13222308, -0.17590523, -0.07883359, -0.20753765, -0.08204692, -0.17213748, -0.048412934, -0.10282845, -0.07399841, -0.044968367, -0.10874794, -0.08945437, -0.09475552, -0.12960933, -0.00086786656, -0.016408311, -0.099695705, -0.027733881, -0.14866608, -0.1170978, 0.09619597, -0.045977607, 0.117771335, 0.071242765, 0.02535164, 0.031747114, 0.06956384, 0.08422881, 0.07045967, 0.034080222, 0.010388314, 0.03505342, 0.0015183924, 0.031721327, 0.015559731, 0.01432205, 0.09030661, 0.08218842, 0.016506296, 0.06370956, 0.08482572, 0.01637254, 0.057432063, -0.03505912, 0.052819997, 0.05465357, 0.025003115, 0.045393515, 0.073159896, 0.029825268, 0.026749395, 0.015877323, -0.027439358, 0.030798707, 0.077316225, 0.07002529, 0.045776363, 0.13674825, 0.10260604, 0.0858577, 0.15211253, 0.088003464, 0.15351488, 0.14863612, 0.04634709, 0.04050817, 0.110486776, 0.060611036, 0.14708227, 0.10766827, 0.14937551, 0.04913847, 0.105448775, 0.09088713, 0.01689799, 0.06684517, 0.0107240835, 0.06632893, -0.0016519807, 0.024562834, -0.058941066, -0.056229826, 0.020134531, -0.039946783, -0.0072725615, -0.05481663, -0.052835025, 0.038414225, -0.018388193, 0.047499344, -0.05899285, -0.03446817, 0.012381462, -0.05078524, -0.036687497, -0.029248772, -0.024144517, 0.017258538, 0.015845766, -0.034267224, -0.03267844, 0.008556503, -0.09064531, 0.014907435, -0.05681022, 0.041589804, 0.03779037, 0.08680287, 0.031802315, -0.03606563, -0.0024504282, 0.067732215, -0.019837555, -0.044289034, -0.024867699, 0.089388214, 0.032618795, -0.025126318, -0.007133304, 0.035890672, 0.0027291193, 0.023355855, 0.03173488, -0.0064857192, 0.022005744, 0.029702382, -0.0321249, -0.0042389557, -0.022258585, -0.01056048, 0.058369026, 0.008388209, 0.03097331, 0.026807152, 0.0015304764, 0.06579684, 0.028760953, -0.0068389704, -0.015140307, 0.015604474, 0.02097979, 0.020828318, 0.09010778, 0.025080629, 0.020564623, 0.05472752, -0.025593344, 0.099388935, -0.009494151, 0.09418083, 0.019317238, 0.059216246, 0.024598552, 0.00765293, -0.021637999, -0.016297331, 0.044070862, 0.021897232, 0.047556527, 0.038753476, 0.016101837, 0.08909941, 0.07341364, 0.048270818, 0.059287913, 0.03444675, 0.107990906, 0.027123746, 0.08405448, 0.057690382, 0.014329748, -0.07365481, -0.08100495, -0.069278054, -0.07222516, -0.052560017, -0.14765324, -0.15413506, -0.012280335, -0.12474147, -0.026401982, -0.06846809, -0.06840078, -0.11390983, -0.07988843, -0.0010536434, -0.05119605, -0.11000189, -0.10687043, -0.007975806, -0.113181114, -0.10515867, -0.15299429, -0.116319984, -0.07187641, -0.05679866, -0.057437483, -0.1369107, -0.06887039, -0.081664786, -0.009649191, -0.07447934, -0.051411066, -0.08563179, 0.042589318, -0.0034225988, 0.029628377, -0.047862608, 0.047585197, 0.045023635, -0.046118706, 0.001929156, -0.09444022, -0.012964448, 0.024024123, 0.04113581, -0.04766581, 0.05159101, -0.039486844, 0.040538695, 0.035058584, 0.026798839, 0.023793109, -0.07975245, -0.040183004, 0.012718557, -0.009711046, -0.014021336, -0.08662711, -0.004932551, 0.027939752, -0.019571934, -0.029845936, 0.012405768, -0.010133966, -0.03501, 0.036042046, -0.044643838, 0.045733053, -0.029069409, -0.021608869, -0.0312791, -0.08273343, -0.052781403, 0.022255484, -0.052614786, -0.004031159, -0.046839606, -0.074176945, -0.08381659, -0.013004664, 0.021737104, -0.03053339, 0.010388714, 0.0027007288, -0.0054730834, -0.0969238, -0.09416349, -0.057040248, 0.007389333, -0.045356307, -0.01246469, -0.080284536, -0.048766613, -0.0248335, -0.028381536, -0.07604821, 0.01834416, -0.03240073, -0.07148221, -0.12198125, -0.016742785, -0.08337753, -0.10882011, 0.00026827338, -0.007832847, -0.068272255, 0.0013743833, -0.0034537865, 0.025384845, -0.13135014, -0.0672516, -0.07840827, -0.03181249, -0.030042794, -0.091410875, -0.065509126, -0.042654097, 0.0032781803, -0.11472147, 0.033402562, 0.013689154, -0.04998257, -0.011014871, -0.066329174, -0.048750594, -0.10274539, -0.057912797, -0.014115744, 0.035160013, 0.030594314, -0.066771425, 0.029683169, -0.013686809, 0.01963973, -0.06601092, -0.0019775238, 0.02331188, -0.062166065, -0.020657768, 0.015900241, -0.04310057, -0.035151612, -0.02370297, -8.010792e-05, -0.024188556, -0.10001605, 0.018783277, 0.03148757, -0.06744163, 0.00207601, -0.027850872, -0.06876543, -0.14307758, -0.11579695, -0.007860934, -0.0028986346, -0.12661558, -0.07446253, -0.12577483, -0.062171288, -0.011415321, -0.042606488, -0.01055776, -0.079224706, -0.12522346, -0.0059735966, -0.08796585, -0.07922688, -0.008971608, -0.120392255, -0.14818463, -0.09569141, -0.025329933, -0.065218225, -0.13356616, -0.11510936, -0.06596988, -0.100826606, -0.13625856};
const float fc1_bias[4] = {0.20859604, 0.1483612, -0.30923912, -0.06147117};
const float fc2_weight[360] = {-0.035061207, -0.06527707, -0.11011504, -0.09882296, -0.051761784, -0.02075988, -0.08320005, -0.04434761, 0.01789801, -0.049863596, -0.014067147, -0.12538661, -0.04473022, 0.06839645, -0.03678341, -0.105352566, -0.09692836, -0.001154287, -0.06191046, -0.016383735, -0.020796103, -0.05592918, 0.0155693935, 0.0034185897, -0.022248784, -0.046544828, -0.027022095, -0.017451242, -0.14512625, 0.08648361, 0.038229827, -0.075269096, -0.042274997, -0.120549776, -0.020603746, -0.123156905, -0.0613215, -0.09916306, -0.022039121, -0.09519011, -0.07292211, -0.055478953, -0.09505832, -0.11560206, -0.028596796, -0.06557817, -0.14943331, -0.050313633, -0.12489424, -0.07415399, -0.03913665, -0.04451164, -0.079376645, 0.0027542277, -0.092737526, -0.0966473, -0.022990309, -0.042799935, 0.01683488, -0.016083295, 0.006050506, -0.041533314, 0.038967248, -0.014290882, 0.073137954, -0.017562091, 0.055624366, -0.029256403, 0.039410967, -0.04833234, 0.02749317, 0.005960336, 0.054540504, 0.020472832, 0.040569488, 0.019018922, -0.033489585, -0.043363787, -0.00657891, 0.035581544, -0.034359448, 0.0024729501, 0.09089122, -0.0048055085, 0.020268697, 0.0072477856, 0.089717336, -0.04930892, -0.07004904, 0.030982044, -0.026340421, 0.025614671, 0.009843405, -0.03614527, -0.11684213, -0.06894472, -0.044999346, -0.0725829, -0.091792226, -0.030742014, -0.090624616, -0.006261233, -0.04868941, -0.069705, -0.028522572, -0.10561142, -0.036744498, -0.0364461, 0.008867028, -0.0883938, -0.03689663, -0.083616994, -0.1092381, -0.000996431, -0.03501887, -0.06407014, -0.066037804, -0.083772965, 0.009330225, -0.12613241, -0.16545638, -0.0029621113, -0.051140692, -0.08009811, -0.062186494, -0.033611506, -0.13822684, -0.13944112, -0.15778439, -0.111291416, -0.066718936, -0.123999186, -0.100667164, -0.027071517, -0.10458552, -0.012806779, -0.042949326, -0.03351346, -0.12181637, -0.13851997, -0.100458816, -0.07151713, -0.09163202, -0.028041407, -0.11045176, -0.052496675, -0.054626063, -0.03680682, -0.10547493, 0.046307366, 0.04994795, 0.0055999635, 0.10053744, 0.07834605, 0.11814222, 0.0052580987, 0.07867888, 0.08647271, 0.066346884, 0.10830623, 0.029255455, 0.023304274, 0.0579306, 0.09041403, 0.0033226307, 0.11884622, 0.056340322, 0.046257216, 0.035111085, 0.12029037, 0.034134712, 0.10044908, 0.09085846, 0.07141517, 0.01692909, 0.10386223, 0.115807556, -0.03273376, 0.08360073, 0.07356435, 0.078651026, 0.07363572, 0.110609524, 0.022661287, 0.02382029, 0.028649986, 0.08036971, -0.06074885, -0.011832768, -0.0075722304, 0.09783562, 0.02653468, 0.08741757, 0.002730203, 0.00044198404, 0.07029179, 0.0024279966, 0.011751013, 0.028980132, -0.026746359, -0.01270122, 0.012147006, 0.035002146, 0.1011932, 0.14138608, 0.12549049, 0.04064561, 0.019230504, 0.14146379, -0.015359369, -0.034897596, 0.065515704, 0.027998323, 0.021948162, -0.026755901, 0.05468658, -0.0051132417, 0.09622637, 0.015168604, 0.077930495, 0.08880663, 0.112941295, 0.10996115, -0.005759226, 0.13216075, 0.013503813, 0.09579099, 0.13759361, 0.11407361, 0.057511464, 0.07854406, 0.11234389, 0.034364488, 0.052587327, 0.015026389, 0.07202957, 0.08046885, 0.044616457, 0.07163701, -0.08062254, -0.020560937, -0.06864718, 0.0003734618, -0.09250048, -0.08790293, -0.049946968, -0.0153014995, -0.008077246, 0.07910366, -0.016389446, 0.014769606, 0.024327448, -0.03429311, 0.012473365, -0.002474881, -0.033466835, 0.033917606, -0.024148341, 0.008502406, -0.018573081, -0.045034695, -0.05539288, 0.0037339246, 0.010369899, 0.018004349, -0.002353292, 0.038838193, 0.010410606, -0.008573609, -0.029139498, -0.001627235, 0.07861204, 0.012661203, 0.13500383, -0.009817028, 0.14351514, 0.04337076, 0.080792546, 0.094867796, -0.01843362, -0.012505956, 0.021854032, 0.09669182, 0.074584864, 0.040480524, 0.061521847, 0.057221033, 0.08887799, 0.10697901, 0.14556801, 0.100119635, 0.032641232, 0.07074024, 0.07962085, 0.10229695, 0.111499846, 0.050551713, 0.08586933, 0.014002577, 0.034496512, 0.06558595, 0.0018591408, 0.068908036, 0.035013977, 0.15166722, 0.12904121, 0.060739383, 0.12619115, 0.05624087, 0.11457546, 0.123745255, 0.083507694, 0.07113303, 0.14937176, 0.094356574, 0.1328072, 0.13846248, 0.03668137, 0.061361447, 0.008817687, 0.10933548, 0.07624138, 0.114781074, 0.078916915, 0.027940188, 0.10430098, 0.07673928, 0.0570395, 0.053749584, 0.015949354, -0.091268264, -0.008484563, -0.10686772, -0.032921627, -0.05274169, -0.02783911, -0.1121202, 0.0059876433, -0.06568861, -0.02841907, -0.06532362, -0.070245475, -0.06318669, -0.096402414, 0.025374396, 0.02024877, -0.043377522, -0.10374911, -0.05224532, -0.012254452, -0.0628056, -0.092524305, -0.018575642, -0.079623125, -0.040688474, -0.107393496, 0.00070547883, -0.0008842352, -0.04483666, -0.060841832};
const float fc2_bias[2] = {-0.057775695, 0.052577734};
