#ifndef TENSOR_DATA_H
#define TENSOR_DATA_H

const float tensor_data[6][60] = {
    {-0.039062, 0.01123, -0.004883, 0.040283, -0.019043, 0.09082, 0.081055, -0.023682, -0.020508, 0.042725, 0.047607, 0.068115, -0.022461, 0.091797, 0.048096, -0.019287, 0.047363, -0.008057, 0.038574, 0.051758, 0.032471, 0.003174, 0.026611, 0.032471, 0.039551, 0.046875, 0.063477, 0.019043, 0.010986, -0.019775, 0.02832, 0.007812, -0.010742, 0.047852, 0.00415, -0.026367, -0.04126, -0.047363, -0.022217, 0.013184, -0.00708, -0.037109, -0.006836, -0.016357, -0.013672, -0.026123, -0.00293, -0.013184, -0.006592, -0.004639, 0.037109, -0.01001, -0.006348, 0.012207, -0.008789, -0.002197, 0.011719, 0.076172, 0.04834, 0.077637},
    {0.063416, 0.092224, 0.12738, 0.107849, 0.030945, 0.199646, 0.206482, 0.10321, 0.230408, 0.158386, 0.307312, 0.231873, 0.304138, 0.262878, 0.294861, 0.293152, 0.278015, 0.284607, 0.31488, 0.28241, 0.282166, 0.292908, 0.249939, 0.274109, 0.170837, 0.239197, 0.174011, 0.157898, 0.169373, 0.150085, 0.163757, 0.103699, 0.141296, 0.073181, 0.058777, 0.022888, 0.014587, -0.029114, 0.030212, -0.074036, 0.010925, -0.03009, 0.001892, -0.018127, 0.001404, 0.00531, 0.024353, -0.000793, 0.037048, 0.042175, 0.038025, 0.05658, 0.09198, 0.078552, 0.146667, 0.102722, 0.153259, 0.180115, 0.148376, 0.375183},
    {0.031616, -0.026245, -0.016479, 0.090454, 0.068481, 0.020142, -0.008911, 0.026245, 0.034058, 0.048706, 0.057251, 0.041138, 0.02478, 0.046753, 0.016968, 0.019653, 0.043823, 0.033569, 0.014282, 0.062866, 0.010132, 0.061401, 0.020142, 0.023804, 0.048706, 0.012329, 0.058228, 0.044312, 0.006226, 0.033081, 0.026245, 0.081177, 0.030151, 0.021118, 0.034058, 0.009155, 0.006714, 0.026978, -0.012085, 0.008667, 0.011108, -0.004517, 0.004761, 0.009155, 0.026001, 0.028687, -0.001343, 0.020874, 0.037476, 0.00769, 0.018188, 0.031372, 0.010864, 0.015259, 0.044067, 0.046021, 0.029663, -0.022339, 0.016479, 0.112427},
    {20.233154, 6.866455, 8.331299, 6.866455, 6.713867, 1.251221, 16.021729, 19.16504, 16.937256, 8.361816, 9.277344, 10.894775, -0.091553, 3.112793, 3.02124, -2.624512, -6.591797, -9.368896, -7.293701, -9.094238, -9.063721, -6.500244, -12.8479, -11.962891, -16.63208, -11.505127, -15.075684, -16.967773, -16.448975, -15.991211, -9.887695, -8.239746, 0.732422, -0.518799, -4.577637, -11.810303, -4.91333, -7.263184, -2.960205, -13.366699, -6.408691, -7.141113, -3.326416, -0.823975, 2.593994, 2.105713, 5.584717, 2.868652, 5.950928, 9.216309, 11.688232, 17.181396, 14.709473, 20.29419, 21.54541, 25.08545, 22.67456, -9.979248, 3.753662, 10.559082},
    {-0.701904, -1.00708, 5.340576, 0.946045, 3.051758, 0.701904, 5.462646, 2.319336, -1.312256, -2.502441, -3.417969, -1.12915, -1.861572, 0.793457, -1.068115, 0.671387, -1.220703, -0.396729, -0.518799, 1.281738, 3.204346, 0.640869, 1.12915, 2.197266, 2.960205, 3.692627, 5.310059, 7.202148, 2.7771, 2.319336, 0.12207, 0.427246, -0.732422, 0.518799, 0.671387, 0.091553, 1.00708, -0.549316, -0.946045, 1.647949, 0.549316, 3.234863, 1.373291, 0.823975, -0.640869, -0.152588, -1.678467, -0.915527, -2.044678, -3.356934, -3.875732, -1.556396, -1.037598, -0.762939, -2.01416, -3.601074, -3.143311, 0.213623, 4.058838, 8.972168},
    {-5.157471, -6.80542, -3.387451, -2.89917, -10.864258, -0.701904, -1.556396, -10.131836, 11.077881, 14.221191, 9.277344, 5.0354, 3.814697, 8.972168, 4.974365, 7.141113, 9.033203, 8.209229, 8.331299, 2.624512, 0.701904, 5.218506, 2.7771, -2.197266, 2.89917, -3.692627, -7.263184, -11.108398, -4.730225, -0.366211, 7.69043, 3.479004, 10.498047, 7.293701, 5.187988, 1.861572, 10.71167, 4.455566, 4.852295, 2.258301, 5.310059, -1.281738, -1.373291, 1.12915, -1.312256, -1.800537, -2.227783, 0.915527, 0.091553, -0.549316, -0.030518, -4.302979, -2.868652, -3.143311, 2.01416, 1.647949, 5.096436, -8.026123, 7.659912, -20.690918},
};

#endif // TENSOR_DATA_H
