const float conv1_weight[180] = {0.17774944, 0.27335164, 0.039535534, 0.29094434, 0.07433969, 0.08791666, 0.0007583891, 0.004426326, 0.15722784, -0.045061547, 0.14058203, 0.0722581, -0.005007804, -0.11716563, -0.054870233, -0.21331169, -0.09942635, -0.092802994, -0.010997371, -0.10139773, 0.035722144, -0.006670887, -0.010813338, 0.0337951, -0.035957634, 0.02013591, -0.11165677, -0.03957184, -0.06773345, -0.020633424, 0.35589927, 0.36350462, 0.13038982, 0.4011699, 0.36263338, 0.050497822, -0.022941194, -0.10348459, -0.17409293, 0.075404294, -0.24996744, -0.11871082, -0.28411415, -0.20908596, -0.07407178, -0.10088955, 0.1846741, 0.2550875, 0.21943676, 0.2501114, 0.13287961, 0.018999748, 0.08528003, 0.035639297, 0.048347317, 0.13505918, 0.13625081, 0.016802313, 0.038555726, -0.011898383, -0.23061053, -0.3788023, -0.18604827, -0.07110931, -0.10172802, 0.18017319, 0.18774003, 0.047381654, 0.19523428, 0.0023229276, 0.30491176, 0.36587948, 0.31233546, 0.09556299, 0.35223427, -0.06820653, -0.042892646, -0.032980878, 0.079076454, -0.099163905, -0.2398468, -0.13956493, -0.24445416, -0.124740124, -0.042201266, 0.23505487, -0.04325956, 0.18139626, 0.17690694, 0.095982626, 0.03508831, -0.062288787, 0.04625903, -0.0457038, -0.07981835, 0.2617861, 0.07926211, 0.20316449, 0.105083175, 0.28248534, 0.38837624, 0.15064709, 0.19055833, 0.09938589, 0.24665333, -0.17864826, -0.011465866, 0.009848755, -0.033667307, 0.042259473, 0.30441073, 0.2642663, 0.11772038, 0.29559654, 0.25964016, 0.25822073, 0.15107417, 0.00028528713, 0.13179068, 0.054128755, -0.21389398, -0.20218308, -0.39602387, -0.3130318, -0.3281972, -0.030091679, -0.19432396, 0.019662512, -0.07244051, -0.069060884, 0.017978258, -0.04355764, 0.23632687, 0.12997474, 0.06186835, 0.03482901, 0.004895258, 0.070399955, 0.113580935, 0.10657542, 0.20811565, 0.23113844, 0.10931785, -0.02801425, 0.17200366, -0.31942025, -0.32846242, -0.090359844, -0.076373555, -0.101695046, -0.19490021, -0.126121, -0.28068447, -0.09037206, -0.4051253, -0.15880942, -0.055956576, -0.33633533, -0.015116626, -0.2961668, -0.14971137, -0.4038221, -0.015513955, -0.24942906, -0.12613381, 0.050313067, 0.07674209, -0.1444927, -0.13564162, -0.14996453, -0.06897746, -0.13534448, -0.22133681, -0.045097433, 0.049695645, -0.0789494, -0.31138662, -0.11455775, 0.020568132, -0.25115612};
const float conv1_bias[6] = {-0.37916228, -0.047689945, 0.02574146, 0.10475803, 0.21366198, 0.36669978};
const float conv2_weight[108] = {-0.04157783, -0.0485282, -0.019901082, -0.1561075, -0.28256583, 0.03672881, 0.0661383, 0.25795296, 0.24292034, 0.39083675, 0.20038281, 0.2776249, -0.21953066, 0.18948667, -0.19533166, -0.08273331, -0.14018965, -0.08165846, -0.114240006, -0.14552213, -0.06329179, -0.02003166, -0.13029239, 0.07093509, 0.3018471, 0.018403428, 0.19291025, -0.22709602, 0.13535704, 0.080375865, -0.14180331, 0.1312157, -0.16389589, 0.2222901, -0.084777944, -0.020173008, -0.017121583, -0.09795832, -0.046018127, -0.04787832, 0.01837336, -0.18822022, -0.0056010783, 0.080113575, 0.107221365, -0.028029492, 0.16230258, 0.21340282, -0.1368627, 0.14464621, 0.07053102, 0.1524137, 0.009954465, 0.10595954, 0.20265219, 0.1953348, 0.12793508, 0.3401261, 0.30717808, 0.31158096, -0.021525249, -0.102824286, -0.111931205, 0.20563267, 0.12324537, -0.13341358, -0.13052815, -0.032735277, -0.030519359, -0.082507655, 0.00550979, 0.2661692, -0.13930437, 0.1719553, 0.17749944, -0.07492737, 0.17872949, 0.09746665, -0.0017941368, 0.027538165, 0.19973165, -0.04611964, 0.1490583, 0.01840694, -0.022437824, 0.06132837, 0.18831092, -0.11648213, 0.026805012, -0.2663474, 0.03724706, -0.17487092, -0.16989109, -0.08259129, 0.08452354, -0.10922728, 0.024668038, 0.07541218, 0.38886923, -0.020958932, -0.13446896, -0.0035833977, 0.163345, 0.2923821, 0.103654064, 0.2643796, 0.19271624, -0.022069491};
const float conv2_bias[6] = {0.24322635, 0.108932815, 0.3791593, -0.091553286, -0.24992749, 0.10596243};
const float fc1_weight[720] = {-0.027047474, 0.09668321, 0.08918981, 0.123776354, 0.12070175, 0.17044629, 0.11864079, 0.15856071, 0.15881024, 0.15082273, 0.15440424, 0.17570035, 0.15497708, 0.07338492, 0.13199843, 0.035148256, 0.13167511, 0.1553575, 0.10434327, 0.11029226, 0.09851833, 0.10658115, 0.09498381, 0.09563588, 0.07844046, 0.038205523, 0.06277882, 0.09850141, 0.11682489, 0.05313515, 0.040649634, 0.031327177, -0.08383821, -0.16711739, -0.098140895, -0.10525286, -0.1242224, -0.13586906, -0.19866493, -0.13815339, -0.12654841, -0.11992447, -0.13705996, -0.1908553, -0.19965447, -0.1596552, -0.19629808, -0.08044161, -0.07141879, -0.16057287, -0.072959416, -0.0938007, -0.07270565, -0.0813628, -0.1751293, -0.096072465, -0.11502632, -0.072358645, -0.1097756, -0.037927173, 0.024910815, 0.055561315, 0.056869786, 0.0133290095, 0.018817408, 0.004965544, 0.12982278, 0.11216807, 0.08640433, 0.08902472, 0.00010029582, 0.01237938, 0.031289063, 0.09598023, 0.07093328, 0.10350155, 0.017381042, 0.04690998, 0.053637527, 0.09652673, 0.097567916, 0.10988161, 0.11244564, 0.0049938643, 0.082616545, 0.10720963, 0.0048618084, 0.08502057, 0.042320557, 0.121356145, -0.10816229, -0.08656294, -0.0053588813, 0.040765177, 0.0075225467, 0.043794245, 0.043052208, -0.06674004, -0.027133906, -0.018112138, -0.002041669, -0.05162596, -0.062044635, 0.0013008703, 0.026756879, 0.004036371, 0.042963974, -0.0026776963, -0.09429581, 0.028781353, -0.09037697, -0.022852154, 0.032202635, 0.05302791, -0.06457862, 0.044869997, -0.046983335, 0.0029092808, -0.0447267, 0.05878346, -0.08392013, -0.06379454, -0.023993686, -0.0974432, -0.10284287, -0.098943606, -0.040796146, -0.079631165, -0.07831843, -0.115480974, 0.011071482, -0.03855605, -0.019064859, -0.09507895, -0.014399784, -0.053902216, -0.010673959, 0.020190977, -0.014847254, -0.0392341, 0.0007921466, -0.03834075, -0.024522759, -0.063323766, -0.075556554, -0.125512, -0.08285796, -0.02536598, -0.12267346, -0.015650513, -0.11714074, -0.30062118, -0.31883115, -0.27852148, -0.23536819, -0.28214383, -0.29434988, -0.25404868, -0.31783447, -0.22102277, -0.31007418, -0.2994358, -0.26989716, -0.23847376, -0.32014573, -0.33535624, -0.2855064, -0.26647475, -0.2282193, -0.30009803, -0.32460263, -0.22354332, -0.22167203, -0.21707195, -0.21035963, -0.21365708, -0.19107555, -0.19430976, -0.3091868, -0.2163829, -0.00818763, 0.057028376, -0.05980742, -0.0064866687, -0.01998578, -0.09401964, 0.0040194327, -0.08384498, -0.049325082, -0.02993889, 0.011370717, -0.02417343, -0.07417751, -0.0058567775, 0.053801943, -0.011126861, -0.0447907, -0.08211227, -0.05234285, 0.0070290994, -0.0032009548, -0.017442716, -0.030026281, -0.043560777, 0.019734235, 0.008742031, -0.015357144, -0.06940994, -0.057268072, -0.04346576, 0.03858516, -0.03922422, 0.012757663, 0.12365668, 0.01182661, 0.05123678, -0.0042230487, 0.04552263, 0.0011183022, 0.004948314, -0.027294816, 0.04530544, 0.021937199, 0.07179762, 0.06345141, 0.0333029, 0.11083362, 0.068573825, 0.078384124, 0.022683652, 0.08266706, 0.08408182, 0.059586484, 0.06283535, 0.029194396, 0.07532928, 0.0691995, -0.008075619, 0.11410651, 0.117640905, 0.07238289, 0.04217882, 0.05494612, -0.001975637, -0.0335869, 0.04502787, 0.07200292, 0.08244387, 0.05366123, -0.027413648, 0.054118063, 0.05660857, 0.024908489, 0.051787127, 0.101241864, 0.07506902, -0.016845433, 0.0026967379, 0.0020244503, 0.039151225, 0.092161655, 0.0069239945, 0.013980589, -0.027829362, 0.08276475, 0.081308275, -0.025517244, 0.037069708, 0.030156136, -0.015149849, -0.013633575, -0.09557756, 0.0181583, -0.07777302, -0.107882425, -0.036536384, -0.05046098, -0.10871332, -0.08903355, -0.04226521, -0.09272447, -0.06576848, -0.067616485, -0.033841085, -0.070580326, -0.085899696, -0.045974586, -0.060077876, -0.10659857, -0.0452425, -0.06932549, -0.033114366, -0.066003576, -0.012352374, -0.02840167, -0.025916453, -0.05940981, 0.018314863, -0.054071873, -0.038624965, -0.041200623, 0.0046825996, -0.019515019, -0.0052639646, -0.08966666, -0.08098476, -0.050814383, -0.036999587, -0.06610628, -0.107137874, -0.043479014, -0.0062045213, -0.051896874, -0.102965236, -0.098156124, -0.06302553, -0.06372202, 0.0030989507, -0.086713545, -0.07457922, -0.06860992, -0.0687377, -0.024284404, 0.011362763, -0.05927431, -0.0026280268, 0.02604452, 0.04654289, 0.019720027, 0.0030471515, 0.12335206, 0.067005806, 0.14238457, 0.04810599, 0.14341865, 0.06497008, 0.15349096, 0.14442006, 0.1143687, 0.012791478, 0.07267009, 0.1455329, 0.09449337, 0.08305552, 0.08656346, 0.13843802, 0.13322987, 0.06903119, 0.087029256, 0.052477732, 0.07181809, 0.091469824, 0.131323, 0.15781605, 0.10776028, 0.050292145, 0.14954399, 0.1352281, 0.10594673, 0.087755345, 0.006822376, 0.01948503, -0.06076997, 0.04379087, -0.03357927, -0.05517893, -0.028825501, -0.056887604, -0.012808308, -0.02198319, -0.0050567104, -0.0023115103, -0.00935117, 0.0048018508, 0.052850753, 0.020930747, -0.059979968, -0.06616895, -0.017879168, -0.017353155, 0.03212189, -0.07100831, -0.052562766, -0.060430206, -0.0072295796, 0.013127035, -0.02766287, -0.03096611, -0.028098548, -0.08883333, -0.06596147, -0.009046824, -0.01887646, -0.030457253, -0.03886562, -0.073336, -0.011528477, 0.018547714, -0.052964434, -0.045147303, -8.932315e-05, -0.047148623, -0.005643194, -0.024382798, 0.03012259, -0.023859795, 0.035646196, 0.010245398, -7.0581606e-05, 0.052748818, -0.04428207, -0.038330533, -0.013304723, -0.05838409, -0.041782588, 0.06363728, -0.055640046, -0.02713542, 0.037880693, 0.029563291, 0.026088858, -0.07360718, 0.010396355, -0.04414519, -0.04220502, -0.022188775, -0.010202422, 0.0069271396, -0.056502428, -0.054494582, -0.037927937, -0.084252, -0.016720463, -0.04730263, -0.0424852, -0.024188194, -0.05497301, -0.056479562, -0.037480813, -0.06889792, -0.06954469, -0.01896959, -0.014994139, -0.017749323, -0.07414029, 0.010074336, -0.08055053, -0.023054278, 0.00499133, -0.09109473, 0.068744555, 0.07057292, 0.09335547, 0.055231884, 0.039843936, 0.12165783, 0.120764405, 0.0039954144, 0.12179074, 0.104101725, 0.144578, 0.14848736, 0.15134977, 0.115805656, 0.118652664, 0.032938536, 0.08089058, 0.07247333, 0.09990675, 0.115400635, 0.044142555, 0.047890123, 0.046406507, 0.13332297, 0.07197849, 0.114577115, 0.08751563, 0.004791953, 0.11675733, -0.008086422, 0.062282518, 0.036633834, 0.026950385, 0.10573149, 0.0819408, 0.06178613, 0.09492534, 0.076277666, 0.099229656, 0.06684348, 0.044872195, 0.06217636, 0.053819492, 0.08447569, 0.08457232, 0.111651175, 0.010734362, 0.056412086, 0.05599553, 0.026621025, 0.10544873, 0.015728718, 0.09424879, 0.028098846, 0.021762576, 0.017052455, 0.08655787, 0.049040828, 0.04057224, 0.0773198, -0.08820621, -0.0700051, 0.032388203, -0.025089327, -0.071169324, -0.08655204, 0.014636158, -0.049715225, -0.019382434, -0.07250603, -0.030431805, 0.031555824, -0.02584563, 0.01727395, -0.01924168, -0.017129919, -0.008620759, -0.035304856, -0.0017376549, -0.07939109, -0.038887538, -0.039682288, -0.029737491, 0.017304212, -0.009160871, -0.09660007, 0.047595542, -0.01473378, -0.01809837, -0.054948725, -0.12713635, -0.12216196, -0.1423811, -0.16012321, -0.09498437, -0.009655385, -0.061509352, -0.122337565, -0.1589803, -0.12697902, -0.10282381, -0.018096033, -0.11318851, -0.11497015, -0.0197212, -0.07447833, -0.057018235, -0.14171721, -0.09517454, -0.09211382, -0.10266916, -0.043714218, -0.064389795, -0.06337533, -0.020578777, -0.11511578, -0.10265033, -0.12299802, -0.089580484, -0.09660618, -0.07343284, -0.12527928, 0.0073458333, -0.06933259, -0.07284166, 0.035236716, 0.01329451, -0.08903179, -0.047239855, -0.008861305, -0.081471615, -0.09131573, -0.00055259856, -0.020852372, -0.04932545, -0.027847681, -0.06452142, -0.018456772, -0.11074832, 0.0033487189, 0.038574748, 0.010922371, 0.0017610609, 0.00039929475, -0.028040139, -0.09748725, -0.030384557, -0.07538209, -0.022591585, 0.00437369, 0.013209504, -0.008969965, -0.068792365, -0.018093199, -0.071775615, -0.058804095, -0.104163595, -0.111472026, -0.06629317, -0.045236707, -0.049414936, -0.02672121, -0.09300488, -0.04636099, -0.11127366, -0.12336551, -0.029004747, 0.011649747, -0.11512255, -0.054109346, 0.014158689, -0.050106123, -0.08842836, -0.05522082, -0.06811736, -0.055138376, -0.09126336, 0.006320662, -0.0757481, -0.07732517, -0.06288637, -0.05751779, -0.09936919, -0.057363566, -0.040339027, -0.093761206, -0.044332605, -0.049801294, -0.008946257, -0.06922221, -0.04879841, -0.07178469, -0.051624537, 0.011369306, -0.080678485, -0.08884272, -0.07381001, -0.08072212, -0.03262299, -0.10576584, -0.0035386286, -0.0069662677, -0.030079456, -0.09488163, -0.043219533, 0.018321404, -0.0042598587, -0.044277422, -0.112567835, -0.07165874, 0.004456888, -0.05332697, 0.013004102, -0.09424086, -0.04633535, 0.0055247154, 0.04243693, -0.040411953, -0.012710466, 0.02135608, -0.090083644, 0.034271844, 0.044547662, -0.003486297, -0.0023802037, -0.056579385, -0.08123238, -0.08664335, -0.026298672, -0.047103725, -0.08208384, 0.027367461, 0.007743722, 0.038404036, -0.048519988, -0.082911775, -0.08629787, 0.042309105, 0.02889857, -0.0019549774, -0.057846602, -0.14049663, -0.06398601, -0.05952551, -0.072974026, -0.13717942, -0.12896232, -0.037442487, -0.10564462, -0.13418052, -0.028541462, 0.004330862, -0.026538545, -0.14441234, -0.09478289, -0.08177448, -0.12363643, -0.004434004, -0.13203639, -0.1374431, -0.034793016, -0.010757332, 0.005642161, -0.034676086, -0.089501634, -0.007234624, -0.080507755, -0.12922285, -0.11322761, -0.047180794};
const float fc1_bias[4] = {0.06720941, 0.058533616, -0.13110338, -0.09951709};
const float fc2_weight[360] = {0.016951406, -0.12982813, -0.14818487, -0.13228826, -0.12200613, -0.07969339, -0.14026237, -0.086820096, -0.13603844, -0.14627206, -0.12042616, -0.106148876, -0.15133503, -0.057072353, -0.10607718, -0.046643745, -0.14420746, -0.09249007, -0.12973568, -0.054616094, -0.06203012, -0.115343325, -0.07628517, -0.0541852, -0.049198035, -0.11383458, -0.10398469, -0.09050375, -0.05268119, -0.047578335, -0.0057040127, -0.072578125, -0.01801477, -0.044210453, -0.019201845, -0.1359934, -0.1235411, -0.12988119, -0.086468406, -0.039557848, -0.04037739, 0.00799537, -0.016632777, -0.047509335, -0.008696839, 0.05204948, -0.029284328, -0.011877986, 0.046302978, -0.06573702, -0.09128475, -0.03108763, -0.0982039, 0.016829489, -0.04804351, 0.034135476, -0.04106985, 0.02768182, -0.065545626, 0.0014539378, -0.056469522, -0.049476247, 0.07666641, -0.017980637, 0.004534988, -0.046576787, -0.041270386, -0.036501333, 0.006556009, -0.10189933, 0.030819304, -0.06898002, 0.0096779335, -0.0054427334, 0.010777736, 0.07293306, 0.011214935, -0.0115974825, -0.07462635, 0.048375145, 0.03436219, 0.047234274, -0.00890404, 0.0043191896, 0.012743266, 0.06484616, -0.004071068, 0.06156728, -0.009081526, 0.03879058, 0.024948504, 0.06864398, 0.0483184, 0.05976285, -0.015152875, 0.075893804, 0.1023163, 0.1010239, 0.0067851925, 0.012723044, 0.00405384, 0.11478063, -0.007327806, 0.025210526, 0.0074111326, -0.026177984, 0.008308741, 0.023189032, 0.09561937, 0.026326645, 0.018981734, 0.010876557, 0.039980114, 0.0699265, 0.028577553, 0.017701427, 0.09610041, -0.03877741, 0.028835943, 0.06291244, 0.043969046, -0.040781483, -0.046440598, -0.04476253, -0.07010723, -0.04556933, -0.043412384, -0.07730764, 0.012007948, -0.013336846, 0.016226912, -0.061427705, -0.0011093486, -0.08885241, 0.046624035, -0.046942707, -0.054225534, -0.0130306585, 0.045167163, 0.025564952, -0.06124703, -0.011890902, -0.05557924, 0.019982735, -0.030110583, 0.00018839657, -0.0058975504, 0.009604852, -0.038998574, -0.09117252, -0.040969525, -0.07474864, -0.15288225, -0.07384734, -0.059449002, -0.14203511, -0.1694969, -0.034958337, -0.10982869, -0.15314892, -0.16380519, -0.08257579, -0.117580645, -0.08734542, -0.107514545, -0.047653258, -0.08485772, -0.05334633, -0.13457146, -0.057142165, -0.11340995, -0.14522606, -0.12430865, -0.098358385, -0.1393676, -0.16886844, -0.13048662, -0.113285996, -0.11569828, -0.10214929, 0.052763235, 0.11365685, 0.0026347188, 0.065386064, 0.041867886, 0.1317847, 0.03698969, 0.11368067, 0.027298994, 0.11562493, 0.16961533, 0.037024844, 0.08365885, 0.10199483, 0.03055453, 0.056930136, 0.08188697, 0.09359408, 0.0405659, 0.13118345, 0.017458932, 0.0981288, 0.11629877, 0.013680684, 0.08480198, 0.045332283, 0.0014163135, 0.004828022, 0.08956172, 0.06894647, -0.0134954415, -0.034351084, -0.0059309476, 0.10617576, -0.0061657163, 0.08929044, 0.08424317, 0.046638656, 0.103306636, 0.07742003, 0.05268598, 0.054553393, 0.099156745, 0.074200824, 0.07641063, -0.01563323, 0.029079884, 0.011702829, 0.079335906, 0.066133365, 0.03915867, 0.052998967, 0.073848814, 0.04540107, 0.03441121, 0.088088624, -0.010666302, -0.041164763, 0.07727718, -0.015824733, 0.011627579, -0.014126819, 0.018299347, -0.06910672, 0.015621475, -0.04014543, 0.06994601, 0.06977996, 0.073250815, 0.05615438, -0.022582648, 0.046817977, -0.040506158, 0.059115935, 0.03733249, 0.066667624, -0.065233245, 0.06909339, 0.0016571431, -0.0108890375, 0.07327555, -0.045473535, 0.022288516, 0.06523695, 0.037596278, -0.015632838, -0.025248071, 0.052282393, -0.031416822, 0.027409356, -0.053852204, 0.018222874, -0.001641957, -0.044353023, -0.108607695, -0.06846112, 0.022838991, -0.08470384, -0.109628856, -0.10604163, -0.104052566, 0.0016869499, -0.11366531, -0.104593, -0.08151701, -0.008221825, -0.05313473, -0.10299722, -0.0093012685, 0.0005861834, -0.020585915, -0.09325971, -0.07507084, -0.047689866, -0.04790435, -0.09119513, -0.063227735, -0.08214734, 0.026141865, -0.058023646, -0.0524127, -0.04348094, 0.06324181, -0.04872468, -0.0173094, 0.070229255, 0.019581927, 0.021888308, -0.005366924, 0.00049654476, -0.014051985, -0.016522463, 0.067935035, -0.048943494, 0.008022333, -0.016225955, 0.060954884, 0.0007949926, -0.049670212, -0.009808342, -0.0086523965, -0.005701769, 0.09653755, 0.013607712, 0.08543327, 0.07280678, -0.010331108, 0.011643001, -0.026145944, -0.021391291, 0.09285555, 0.036014702, 0.060684014, 0.06883403, 0.14749852, 0.068090744, 0.082444556, 0.16006972, 0.09392419, 0.059430014, 0.0628561, 0.04463946, 0.1146587, 0.10842649, 0.16027695, 0.12457411, 0.13075554, 0.029383814, 0.15164098, 0.13487153, 0.10061028, 0.07250306, 0.14406824, 0.16390134, 0.09562665, 0.038854007, 0.048498455, 0.05746996, 0.16175066, -0.010713492};
const float fc2_bias[2] = {-0.00022253908, 0.02421783};
