const float balance_conv1_weight[360] = {-0.43388057, -0.25385365, -0.51059264, -0.47403598, -0.31810832, -0.17118333, -0.29200003, -0.24842206, -0.17777845, -0.057624895, -0.21437432, -0.28073317, -0.12058095, -0.25918883, -0.21611801, -0.103013836, -0.08612864, -0.005192228, -0.012621241, -0.078305125, 0.05248318, 0.20479447, -0.1198156, 0.10638521, 0.1016779, -0.18035544, 0.023265952, 0.17212161, 0.062875114, -0.046678547, 0.26502395, 0.25340167, 0.46035117, 0.4355431, 0.40819815, 0.3598544, 0.107166156, 0.07001861, 0.2842878, 0.23910627, 0.054471172, 0.02556223, -0.045171265, -0.1997138, 0.08484459, -0.14182626, -0.045929868, -0.078541264, 0.19549315, -0.18544811, -0.12324766, 0.013253171, 0.01285064, 0.14400452, 0.026945364, -0.07642579, 0.1399134, -0.053244248, 0.019926492, -0.13803029, 0.096469864, 0.08739892, -0.044649035, 0.11718049, 0.04318954, -0.111425206, 0.16533236, 0.047514565, 0.041099295, -0.14047611, -0.3001897, -0.16998112, -0.086275354, -0.07093554, -0.08517344, -0.06170361, -0.15970251, -0.17117015, 0.054811675, 0.06494933, -0.0915455, -0.23042417, -0.16988924, -0.083322845, 0.06664637, 0.14332648, -0.11316718, 0.07601512, 0.12650308, -0.011368147, 0.29228786, 0.16860802, 0.21522127, 0.42270952, 0.23898534, 0.18571872, 0.015669838, 0.364645, 0.26124692, 0.060875382, 0.20219879, 0.36351877, 0.12007432, 0.20946337, 0.31368843, -0.091100775, -0.10162376, 0.28412706, 0.09557073, 0.10360889, -0.17330946, 0.0066333483, 0.10405104, -0.05152481, 0.020993065, -0.015453444, -0.12349009, 0.07814154, -0.050512314, 0.02935398, -0.5214322, -0.21503669, -0.3537163, -0.454451, -0.3072777, -0.270036, 0.0013464533, -0.011025599, -0.16367564, -0.20173593, 0.055977125, -0.11665137, 0.12924507, 0.15879731, 0.122003056, 0.017160522, -0.15404554, 0.044744566, -0.11752124, 0.0788719, 0.25310463, 0.21543956, 0.023255598, 0.23516947, 0.184352, -0.015701614, 0.20073202, 0.1601068, 0.008650357, -0.021110874, -0.22882423, -0.21578495, -0.15059775, -0.371648, -0.21483344, -0.23544724, -0.3699388, -0.28934038, -0.28622076, -0.2223231, -0.051561244, -0.23895276, -0.34744987, -0.1394889, -0.21998744, -0.022680575, -0.110249564, -0.025382722, 0.02071803, 0.033869453, 0.015282495, -0.10899182, -0.23591055, -0.33812147, -0.13980435, -0.09794297, 0.042153854, 0.028283432, 0.05671334, -0.14532143, 0.4930519, 0.31521845, 0.16585991, 0.34427014, 0.18061434, 0.27103096, 0.33120355, 0.12888613, 0.06346911, 0.22025944, 0.050591867, 0.1581366, 0.16476002, 0.038092982, 0.06646528, 0.09918948, -0.09106904, 0.0058653704, -0.20887895, -0.11705592, -0.11852749, -0.0236957, 0.030014075, 0.03917089, -0.09835066, -0.043343056, 0.034345075, -0.22070651, 0.10258974, -0.043917444, -0.021389697, -0.045978364, 0.20270677, -0.059359606, 0.0039418344, 0.32696968, 0.054016836, 0.28294957, 0.29427987, 0.16443728, 0.0936213, 0.19773164, 0.27009606, -0.010878829, 0.05359976, -0.16392024, -0.13701285, -0.2034561, -0.20977484, -0.041298117, -0.010669223, 0.049003366, -0.04523662, 0.05920182, 0.0050618937, -0.1068536, 0.15054287, 0.13012984, 0.0061039515, 0.08618585, 0.1476096, -0.0079533225, -0.0732091, 0.117302194, 0.054496564, -0.16163118, -0.26360637, -0.25268438, 0.032621533, 0.0018396992, -0.24977773, -0.20113282, -0.036745258, -0.23491414, -0.099786535, -0.012303416, -0.058171324, 0.13432378, 0.11041276, 0.025539398, -0.017830813, -0.016831174, 0.08047442, -0.094521604, 0.035479333, -0.15126553, 0.17366332, 0.20124267, 0.14464794, -0.106512696, -0.15891966, -0.19696309, -0.055381406, -0.1802848, -0.18913403, -0.21353169, -0.27904558, -0.36064357, -0.3212698, -0.10383376, -0.2692697, -0.08243015, -0.39504692, -0.42129022, -0.106775485, -0.017793583, -0.0076430487, -0.12635969, 0.031976204, -0.047649607, 0.1146272, 0.0030634545, 0.02677893, -0.102242105, -0.120887205, -0.22399919, -0.24764967, -0.086384796, -0.2531717, -0.12751108, 0.08366148, 0.22300944, 0.21398225, 0.18373854, 0.33228055, 0.34793195, 0.4654098, 0.1768127, 0.19694895, 0.33362797, 0.19185147, 0.3857542, 0.35671896, 0.31000954, 0.2963466, -0.122144766, -0.15351512, -0.11403011, 0.013119598, -0.11176479, 0.11833982, -0.20314755, -0.055516046, 0.0100816265, -0.029289158, 0.07177604, -0.17573021, 0.10274025, -0.064222164, 0.07734749, 0.23140046, 0.14392787, 0.011499982, 0.26272893, 0.19431458, -0.15258108, -0.17709184, -0.31582382, -0.0044701193, -0.044169426, -0.30491912, -0.28623483, -0.15913256, -0.37927154, -0.24784285, 0.14570695, 0.02612801, 0.058562938, 0.1754464, -0.11207076, -0.018173704, -0.11972015, -0.078925274, -0.1414692, 0.03769625, 0.22227699, 0.1736218, 0.18427649, 0.21024178, -0.100661986};
const float balance_conv1_bias[12] = {0.38298905, -0.36549506, -0.13261832, -0.07425147, 0.27110568, 0.3698262, -0.3355936, 0.060859475, 0.0957608, 0.22137552, -0.3287752, 0.15284885};
const float balance_conv2_weight[432] = {-0.13858083, -0.02824319, 0.05776372, -0.108370095, -0.102035426, 0.0008423831, -0.099155694, -0.14347135, -0.070532374, -0.043583926, 0.066845156, 0.093474075, 0.089562126, 0.0018752746, 0.1449765, -0.11849098, 0.12861858, -0.14060561, 0.010542114, -0.06285151, 0.17066438, 0.061436724, 0.0039674835, -0.034839645, -0.061925553, -0.11699119, 0.1652493, -0.099825956, 0.050957337, 0.10521863, -0.09187085, -0.14076534, 0.10697623, -0.12116966, -0.15908818, 0.081701, 0.13961649, 0.16275619, 0.09554871, 0.13478622, -0.013848705, 0.047273103, 0.049219947, 0.09225247, 0.13574442, 0.0337994, -0.07302245, -0.012524718, -0.03648548, -0.16738081, 0.0045644166, 0.21092068, -0.043685988, -0.053926274, 0.11769299, 0.05969748, -0.03722878, 0.15430607, -0.08786202, -0.09147417, 0.07480664, 0.13959453, 0.19980922, 0.24154711, 0.20302615, 0.25171044, -0.0006373724, -0.1445209, -0.10985588, 0.030462462, 0.19249867, 0.17159504, 0.1588426, -0.035660464, -0.03527659, 0.04762071, -0.061852634, -0.073110916, 0.15146233, 0.027808413, -0.055253815, -0.026430823, -0.03542868, -0.029894888, 0.16771717, 0.18112253, 0.17555714, -0.11921194, -0.22468933, -0.14304076, 0.05603003, 0.060353834, -0.004915453, 0.19329387, 0.1952171, 0.08395684, -0.051876314, -0.15216397, 0.043388654, -0.22270045, -0.013656751, -0.24242564, -0.02411269, 0.13168475, -0.07792404, -0.11825251, -0.1801576, -0.12778297, 0.12556872, -0.14156133, -0.08925641, 0.17962785, 0.18379152, 0.18028136, 0.09936767, 0.083521485, -0.08328423, 0.13512853, 0.07209285, -0.081977606, 0.00731377, -0.17697299, -0.1502214, -0.24337249, -0.12511635, -0.1830089, 0.2260683, 0.18435434, 0.11427294, 0.16136813, 0.1680552, 0.07707241, -0.0038671487, 0.05627809, -0.068455786, 0.088544756, 0.06455488, -0.06147382, 0.15555881, 0.07683921, -0.045798566, -0.0018677486, -0.01939219, 0.03072069, -0.08160737, -0.09261433, -0.16990249, 0.082687214, 0.21975264, -0.00038173914, 0.068035565, -0.07206242, -0.15148191, 0.10941146, -0.013591642, 0.053159073, 0.18614714, 0.1848616, -0.018635904, -0.031929485, 0.09898895, -0.15669905, 0.032612912, 0.103331074, -0.09181275, 0.16352467, 0.026172144, -0.17878215, 0.040941924, 0.091237046, 0.23558067, 0.11886759, 0.010650641, -0.024877604, -0.08459502, -0.086074635, 0.14973618, 0.09501931, 0.12733121, 0.057356462, 0.12451545, 0.0043759793, 0.23236613, -0.103789315, 0.0045732297, -0.15652291, -0.03589212, 0.006534016, -0.11582789, 0.051999804, -0.13904841, -0.0017005653, 0.117006116, -0.01621827, 0.15252751, 0.004047506, -0.17441127, -0.018758187, 0.114946045, -0.0907597, -0.1311641, -0.051040526, 0.20402431, -0.069785595, 0.020963885, -0.16484524, -0.11672243, -0.009549008, -0.17869368, 0.11057917, -0.1291942, 0.03609382, 0.03819342, -0.25671184, 0.070056304, -0.2221659, -0.115660764, -0.09009353, 0.04382003, -0.20408478, 0.05380664, -0.03825986, 0.16711883, 0.1750838, 0.1510905, -0.08230108, 0.052462004, 0.0063006254, 0.06845913, 0.06833613, -0.031632487, -0.0016751754, 0.1477778, -0.020655388, -0.027937077, 0.0692496, 0.14340246, -0.1295163, 0.09720995, -0.1090348, 0.12949498, 0.1435503, 0.03164578, 0.14478631, 0.20588036, 0.16651852, 0.069652624, 0.12082086, -0.116081975, 0.16217275, -0.15529762, 0.13518944, 0.07784876, -0.03588198, -0.06287182, -0.063402876, 0.17374645, -0.08944517, 0.085463546, -0.0013994643, 0.13590589, -0.08776247, -0.049967635, -0.13763314, -0.095994174, 0.033186644, -0.06670897, -0.05197547, 0.022059934, -0.034593623, 0.15193944, 0.099297345, -0.022492284, 0.06656561, 0.12169746, -0.118244, 0.0754816, -0.05419136, -0.035285845, -0.051105, 0.25868443, 0.28580296, 0.16457851, -0.13588904, 0.052000396, 0.120615475, 0.1562836, 0.120780386, 0.08765618, 0.13878734, -0.13942167, 0.021633947, 0.20780861, -0.10446197, -0.033943154, 0.08180566, -0.0797038, -0.12218956, -0.067266725, 0.012283344, -0.08380556, -0.15424849, 0.09418186, -0.17943461, -0.1961229, -0.16293684, -0.08360738, 0.15877779, 0.060980406, 0.12487352, 0.18765214, 0.1034605, 0.11717958, -0.1318339, -0.038901884, 0.089735374, -0.14396314, 0.03828667, 0.12836695, 0.1054716, 0.19217148, -0.1672835, -0.062323533, -0.070739806, 0.014783458, 0.23030494, 0.19445193, 0.005145467, -0.14131998, -0.09252278, -0.009233851, -0.18991402, -0.026223285, -0.07950142, -0.14011252, -0.11989247, 0.17191306, 0.10906939, 0.11764548, 0.14503686, 0.13510087, 0.27477834, 0.05502475, -0.1887775, -0.15931264, -0.020435985, 0.05526281, 0.11946071, -0.041089978, 0.13148218, -0.10891252, -0.050162114, 0.18556502, -0.07038074, -0.1264187, -0.062306095, 0.019370195, -0.027755313, -0.054898042, -0.050556585, 0.0906529, -0.20778087, -0.09344911, -0.08370344, -0.07869696, 0.0420518, -0.0027446446, -0.061211385, -0.12479071, 0.22369072, 0.06798128, 0.00095835555, -0.05562101, 0.01712495, -0.02366467, -0.07529856, -0.07503228, 0.03018132, -0.015644822, 0.16941148, 0.0798557, 0.10001871, -0.11439346, -0.18542014, 0.21219774, -0.050379194, 0.035395704, -0.0957463, 0.03726466, -0.03528008, -0.12476128, 0.078288965, -0.06524478, 0.12982653, -0.033275913, 0.20111206, 0.08835171, 0.13382782, 0.16513641, 0.036847368, 0.08085598, 0.0043240422, -0.11485024, -0.067800015, 0.032297667, -0.108975895, -0.057715353, -0.08815206, -0.026421648, -0.07885044, -0.13984302, 0.18210968, 0.19863006, 0.121342614, -0.15665556, 0.0548667, 0.12205329, 0.121661745, 0.0817674, 0.15969723, -0.1272412, 0.10880404, 0.06624835, 0.13126735, 0.16395004, 0.13250232, 0.059155148, -0.162436, -0.1088844, 0.117730975, -0.028734202, 0.07821959};
const float balance_conv2_bias[12] = {-0.1920885, -0.056213874, -0.049663246, -0.22164284, -0.13702285, 0.32641077, 0.16997999, 0.014637674, -0.12892392, 0.3395015, 0.003999359, 0.27904612};
const float balance_fc_1_weight[1440] = {-0.008272756, -0.020581918, -0.030960588, 0.020182516, -0.06328887, -0.053909108, 0.019229157, 0.038579542, -0.0038667487, -0.035647456, -0.032245137, -0.05776457, -0.014279049, 0.051063947, -0.029574892, -0.030560534, -0.01643699, -0.014651701, -0.06215924, -0.05502248, -0.017022425, 0.027644858, -0.04110834, -0.06540952, 0.02528588, -0.0008498095, -0.06048917, -0.06363494, -0.017347792, 0.041399866, -0.08665098, -0.0973719, -0.099235296, -0.04222559, -0.049764078, -0.09301097, -0.06588182, -0.10644727, -0.13635643, -0.10875486, -0.0900493, -0.14521363, -0.048939347, -0.05856209, -0.040900916, -0.030442134, -0.016549218, -0.08596993, -0.07870998, -0.014894329, -0.07236119, -0.057012387, -0.04647091, -0.09694755, -0.036462322, -0.09418368, -0.06028691, -0.05066279, -0.11470516, -0.1327562, 0.05246832, 0.107594736, 0.10167283, 0.048600312, 0.10708986, 0.050908476, 0.13420169, 0.10117312, 0.15632576, 0.078128844, 0.1113695, 0.12599175, 0.13670756, 0.08170977, 0.111465745, 0.097900495, 0.08744878, 0.1026299, 0.053295214, 0.10692918, 0.1191161, 0.03988837, 0.10729627, 0.08447462, 0.030157572, 0.11271111, 0.1308309, 0.13693699, 0.08559069, 0.06469094, -0.067639925, -0.032371484, -0.03548517, -0.072233774, -0.06711862, -0.06507155, -0.10027721, -0.049320634, -0.0413025, -0.074706525, -0.03496438, -0.08326237, -0.06348621, -0.021678068, -0.09195358, -0.08012341, -0.014274501, -0.07413777, -0.10281794, -0.05821137, -0.06375109, -0.010493132, -0.08112092, -0.03409899, -0.014150057, -0.054561056, -0.045916196, -0.023632359, -0.033166736, 0.008521374, -0.06449865, -0.08004154, -0.099300906, -0.058632288, -0.089799255, -0.089495875, -0.17781268, -0.14154315, -0.046909273, -0.09634712, -0.05362011, -0.114485666, -0.06285524, -0.13950919, -0.10304665, -0.11674934, -0.13093106, -0.027354779, -0.04486527, -0.05094929, -0.03693105, -0.07411214, -0.13234352, -0.12189802, -0.07041566, -0.13568889, -0.12904383, -0.080793746, -0.18453793, -0.034286138, 0.11098895, 0.14821374, 0.12004513, 0.13660766, 0.11624278, 0.1546726, 0.115683764, 0.06426687, 0.06689851, 0.06943008, 0.12169178, 0.1554092, 0.07855953, 0.16838048, 0.16760145, 0.1359074, 0.13024479, 0.15344721, 0.16788413, 0.12186846, 0.13198306, 0.11682763, 0.15420799, 0.1415083, 0.13704908, 0.15011871, 0.14289257, 0.051470052, 0.16072534, 0.034012392, -0.082474776, -0.03871796, -0.087135494, -0.014717725, -0.033708997, -0.037861608, -0.002544326, -0.030974356, -0.024878336, -0.07198711, -0.043030865, -0.0187825, -0.1104122, -0.058571044, -0.10915791, -0.01210464, -0.022454953, -0.10233523, -0.016223019, -0.019813662, -0.010873767, -0.06673199, -0.06879255, -0.07002539, -0.09338072, -0.04106796, -0.11382679, -0.06600078, -0.10259746, -0.11807788, -0.05642795, -0.14685011, -0.11878426, -0.17281705, -0.11573528, -0.07819462, -0.16841328, -0.1802272, -0.14727236, -0.10775169, -0.13535157, -0.14807023, -0.082852535, -0.1318946, -0.106337115, -0.08670691, -0.12461623, -0.0621335, -0.14926766, -0.15178537, -0.14351904, -0.067062505, -0.109670505, -0.082336314, -0.13968216, -0.15995798, -0.07308194, -0.13612348, -0.14420791, -0.012469299, 0.015552865, 0.034436267, 0.023844816, 0.06050566, 0.014879439, 0.022837907, 0.0038418614, 0.02995421, -0.0100761745, 0.009997599, -0.0002369673, 0.012858846, 0.024275424, -0.0010169431, 0.015189797, 0.015303907, 0.026303178, -0.00831505, -0.032987397, -0.027003491, 0.024947558, -0.0022172043, -0.022503668, 0.00883509, 0.0042958288, 0.04435033, 0.027955579, 0.011554402, 0.0813361, 0.0039038192, 0.14739971, 0.12123368, 0.11910491, 0.1159292, 0.10445241, 0.16519408, 0.18887691, 0.08417272, 0.1348345, 0.06099099, 0.14624207, 0.118736245, 0.13262208, 0.103126794, 0.13460286, 0.09252734, 0.169225, 0.14130348, 0.15426758, 0.13618632, 0.13856353, 0.16830587, 0.06335247, 0.1045078, 0.074084096, 0.09920288, 0.13064998, 0.11129804, 0.14565983, 0.07103714, -0.026325457, -0.0982614, -0.04777156, -0.054572128, -0.105121136, -0.04083894, -0.017536126, -0.07412272, -0.07747505, -0.03308614, -0.027427573, -0.0031015216, -0.06263328, -0.04196923, -0.11300956, -0.11191104, -0.04906585, -0.05358005, -0.1489679, -0.0043145507, -0.04196668, -0.030092645, -0.03798502, -0.082677186, -0.032069154, -0.029324181, -0.05870317, -0.10527234, -0.0654641, -0.10411884, -0.012639039, 0.0040955264, 0.026342833, 0.02660627, -0.058910493, -0.019761898, 0.038105424, 0.0061483667, -0.044767212, -0.016509086, -0.0066495137, -0.008820353, -0.05982117, 0.0028507742, -0.061793167, -0.0028467048, 0.024494622, 0.02747606, 0.013844483, -0.054835454, -0.0026260843, 0.027491821, 0.0046076044, 0.04240237, -0.01334759, -0.014447831, -0.017691908, -0.031302907, 0.014442957, -0.05415143, -0.075585075, 0.00014959437, -0.035751257, 0.008625596, 0.064206325, -0.047259334, 0.04688775, 0.047467742, -0.036874, 0.051011868, -0.030429156, -0.022616243, -0.014496124, -0.031614475, 0.038263693, -0.0031843462, 0.047618665, 0.028695878, 0.0057895365, 0.0086660115, -0.0063647213, -0.038650148, 0.043462303, 0.05238124, 0.058156896, -0.017824514, 0.052124072, -0.027788652, 0.0065571046, -0.0068862555, 0.027683763, -0.010949311, 0.039559778, -0.021940378, -0.0047271326, 0.0021845894, 0.04722353, 0.02107995, 0.0732751, 0.062056568, 0.027065381, 0.073179305, 0.017450478, -0.0052926005, 0.050046254, 0.0774439, 0.06214744, 0.051202826, 0.07587084, 0.037805613, -0.023214461, 0.024054555, 0.018991753, 0.012238745, 0.03013711, 0.027112097, -0.025997045, 0.0573569, 0.00781294, 0.065279216, -0.008310635, -0.0038299293, 0.02355625, -0.014554675, 0.035105735, 0.02314182, -0.06614468, 0.021824252, 0.0016678218, -0.047838863, -0.04360037, 0.0009510241, -0.05910332, -0.057443034, -0.067802414, -0.070847146, -0.06608259, -0.10405635, -0.10608743, -0.022599725, -0.10953192, -0.022721507, -0.01616346, -0.06735856, -0.076241806, -0.058120325, -0.02185348, -0.03616733, -0.008479378, -0.0070037786, -0.15756033, -0.04711611, -0.046748612, 0.016230777, -0.04286527, -0.040763866, -0.08711376, -0.008307187, -0.055629432, -0.031042594, -0.008613556, -0.056187432, -0.02038066, -0.027778659, -0.051082935, -0.06605327, -0.047255274, 0.0018466993, -0.05551692, -0.0847603, -0.034079045, -0.06863917, -0.03610883, -0.089964375, -0.042614482, -0.10707315, -0.017509373, -0.044320468, -0.067737766, -0.020429622, -0.050393097, -0.08239754, 0.010594455, -0.060045544, -0.025301099, -0.010287829, -0.022876453, 0.021269346, 0.018100718, -0.0032338987, -0.007964828, -0.03842629, -0.03362903, -0.016492702, -0.04099952, -0.019311244, -0.020102812, -0.04415532, -0.07422977, -0.04506866, 0.008308008, -0.07004704, -0.0413869, -0.042608015, -0.052622765, -0.0129865, -0.058391858, -0.005220981, -0.0775186, -0.04349804, 0.027679196, -0.041650023, -0.022096204, -0.02171223, -0.01977673, 0.011550634, 0.008999957, -0.013602665, 0.006062637, -0.024275152, 0.026796436, 0.018090706, -0.014840735, 0.022681406, -0.03952077, 0.009681773, -0.039025143, -0.02281755, 0.027073445, -0.0062625017, -0.05132096, -0.030786749, -0.00045842375, -0.011635484, -0.013081199, -0.046650294, -0.051090088, -0.027952075, 0.041873083, -0.019336235, -0.017425204, 0.03061717, 0.017900676, 0.058340974, 0.013135976, 0.059105873, 0.0714386, 0.011959407, 0.026772622, 0.07232723, -0.0060768602, 0.0009126706, 0.037793104, 0.07067954, 0.08088325, -0.012842862, 0.0030826426, 0.050429802, 0.009185542, 0.008252718, 0.005405973, 0.03438073, 0.042939357, 0.030819263, 0.05488805, 0.039695594, 0.028053366, 0.07318661, 0.0768758, 0.043043185, 0.005093775, 0.07839229, 0.054603558, 0.04161787, 0.034929864, 0.04599723, 0.018260403, 0.06181333, 0.0073905187, -0.0004940663, 0.017055137, 0.0017516849, 0.008304487, 0.018798837, 0.08524037, -0.002405763, 0.070901945, 0.0117821945, -0.0042596213, 0.031118259, 0.04197642, 0.012457419, 0.062876, 0.03885738, -0.02164633, 0.008179004, 0.031406414, 0.0007229981, 0.047805082, 0.0066859666, -0.0023407622, -0.068898514, -0.05549374, -0.08738951, -0.052393463, -0.026923424, -0.056726243, -0.06720342, -0.07468532, -0.054378115, 0.013060779, -0.07263923, -0.05658579, -0.013299724, -0.025779126, -0.004697321, -0.058488388, -0.038272932, -0.066769086, -0.06835464, -0.07734356, -0.003972408, -0.09937999, -0.033899076, -0.050253637, -0.030550344, 0.0052272286, -0.034573354, -0.08243152, -0.0578732, 0.054029103, 0.042593174, 0.04707538, 0.06363019, 0.10664157, 0.042913176, 0.10041843, 0.047232073, 0.011472746, 0.047545146, 0.0829072, 0.048680972, 0.07727269, 0.07364707, 0.04010323, 0.06728826, 0.065384276, 0.1144627, 0.052350998, 0.040485993, 0.04433524, 0.066790655, 0.06083686, 0.06426956, 0.06690704, 0.05778679, 0.03508206, 0.09236856, 0.017158205, 0.059307348, -0.03115725, -0.060382597, -0.014931927, -0.07305065, -0.020137435, -0.03291938, -0.07658432, -0.028400281, -0.027646972, -0.062350765, -0.048908714, -0.081947625, -0.08638618, -0.04419001, 0.015649853, 0.025410442, 0.0021097239, -0.056759138, -0.038090963, -0.043358777, -0.018628454, -0.067072876, -0.056255754, -0.026536973, -0.06573912, -0.012866037, 0.0020445683, -0.031738453, -0.008405053, 0.021908125, -0.0056573716, 0.007490141, 0.033669986, 0.036273457, 0.070778586, 0.028946782, 0.0691555, 0.053764984, 0.00643733, 0.02610478, 0.08756238, 0.0354447, 0.022113468, 0.010118615, 0.046164006, 0.04461796, 0.0058517233, 0.024035906, 0.019669337, -0.004033712, 0.05409852, -0.0077876286, 0.028830318, -0.019655596, 0.04551005, 0.03637015, 0.0045690164, 0.017886436, 0.068143755, 0.04384885, 0.0047161016, 0.032987528, 0.00839867, 0.022875847, 0.026419545, -0.0050115846, 0.04094587, 0.012262131, -0.027837455, 0.019585364, 0.010352529, -0.04045977, -0.023545384, -0.028907318, -0.041191515, 0.04928729, -0.048974656, -0.031543512, 0.014237286, -0.02475964, -0.01928353, -0.055721737, 0.04281738, 0.027212672, -0.023381356, -0.006468766, -0.056151584, -0.01996956, 0.0041157766, 0.06096325, -0.00595204, -0.045124274, 0.002514433, 0.06068307, -0.017593034, -0.03359651, 0.041178327, 0.043893714, 0.03847822, 0.0037694778, -0.0065776403, 0.027531272, -0.032803297, -0.030438205, 0.038857877, 0.031030336, 0.0016745293, 0.04437572, 0.03210158, 0.01459803, 0.019721823, -0.015835611, 0.05576823, 0.011379795, -0.0112549355, -0.0020122682, 0.04663559, -0.009626429, -0.0011365532, 0.06542182, 0.039588753, 0.010502271, 0.0017001545, -0.018316844, 0.02696922, 0.035894454, 0.031311277, 0.049072042, -0.015261412, 0.008028169, 0.040291537, -0.01706266, 0.017441032, 0.04490907, 0.022862114, 0.024754334, 0.048563786, 0.037861455, -0.003594184, 0.016356865, 0.021389129, 0.031339906, 0.06440866, 0.030448895, 0.006680525, 0.016544716, 0.024288736, 0.023259176, -0.015955098, 0.05217827, 0.13772467, 0.08457894, 0.06439321, 0.047624137, 0.1044494, 0.025094632, 0.08345655, 0.027614733, 0.09924948, 0.112306364, 0.09017948, 0.04012326, 0.048696212, 0.04277744, 0.07387715, 0.08623672, 0.013998416, 0.08539853, 0.039876282, 0.007693923, 0.05690464, 0.01309966, 0.052198786, 0.04092639, 0.069158174, 0.030121932, 0.07085161, 0.077332236, 0.08730603, 0.0733351, 0.112933636, 0.059462763, 0.009927591, 0.0027610834, 0.060895905, 0.08220194, 0.037519775, 0.07962461, 0.082910135, 0.042097695, 0.089549586, 0.06835564, 0.058490943, 0.032979593, 0.07287295, 0.074700475, 0.04862795, 0.027231412, 0.09443342, 0.086076744, 0.065683395, 0.08445716, 0.07756844, 0.02294573, 0.044546988, 0.025013573, 0.029932924, 0.013140896, 0.02529277, 0.05636808, -0.026047483, -0.053556703, -0.029856725, -0.04825925, -0.079959504, -0.020548865, -0.027903887, -0.08549552, -0.11204576, -0.073675126, -0.065499604, 0.0028403301, -0.06271986, -0.08728935, -0.029945038, -0.0068314807, -0.07473288, -0.018740635, -0.036488913, -0.009099565, -0.081421286, -0.063327394, -0.052829858, -0.024162285, -0.03367394, -0.023205666, 0.006488251, -0.060373675, -0.06274982, -0.016578177, 0.023497926, -0.008113635, -0.028595913, 0.061733656, -0.028897753, -0.019851986, 0.012849483, -0.007260381, 0.023696747, -0.008412925, -0.04863685, 0.00692414, 0.007511434, -0.049124286, 0.041567657, -0.013973266, -0.03677448, -0.018144008, -0.03654975, 0.030946523, -0.03861819, -0.029743452, -0.022060988, 0.015149513, 0.015570861, 0.024958348, 0.03549286, 0.010682572, -0.006190599, 0.02563565, -0.07314252, 0.01416347, 0.03670636, 0.03854084, -0.0453697, -0.003143778, -0.013829906, 0.046291795, -0.05680874, -0.008412215, 0.002068039, 0.011721022, 0.011056973, 0.029084038, 0.034359343, -0.015001257, 0.042035885, 0.0029198471, 0.015808463, 0.011510461, 0.043942586, 0.010284127, 0.040067032, 0.004247334, 0.0118858265, -0.028569719, 0.036078047, 0.02818805, -0.0064570247, 0.0012047706, 0.04898631, -0.0036267159, 0.06404668, 0.06771676, 0.08575827, 0.016854381, 0.0025421523, 0.08207692, 0.044339836, 0.015661275, 0.06428026, 0.052598864, -0.0065982835, 0.008954652, 0.013865023, 0.017704552, 0.00061348523, 0.045715142, 0.035789445, 0.012448491, 0.052479252, 0.007073708, 0.004704198, 0.00031415597, 0.024800444, 0.048803173, 0.04845431, 0.055123832, 0.056403123, 0.019945763, -0.10717827, -0.14435628, -0.13569322, -0.1327042, -0.07410221, -0.08017251, -0.083596624, -0.12221653, -0.13396586, -0.109791264, -0.10413738, -0.11178461, -0.10857317, -0.1114407, -0.08903475, -0.14104119, -0.07867918, -0.07673696, -0.1463251, -0.08102056, -0.05836794, -0.07091948, -0.08617921, -0.08590791, -0.09909854, -0.06931994, -0.065117724, -0.09477547, -0.0403124, -0.10934856, 0.011869219, 0.1259873, 0.03928456, 0.07711983, 0.041434392, 0.106840335, 0.024870863, 0.06562307, 0.086910404, 0.075577855, 0.061053075, 0.036369428, 0.030201027, 0.079322524, 0.100005716, 0.07858791, 0.020413928, -0.009308674, 0.06620636, 0.030116633, 0.04603571, 0.011006687, 0.017345173, 0.019527018, 0.06668916, 0.024619292, 0.08879143, 0.02345858, 0.09503736, 0.027555617, 0.0019024597, -0.076256335, -0.005457291, -0.020060055, 0.007494288, 0.039790187, 0.0013479288, 0.007549889, -0.033581603, 0.03104528, -0.013220374, 0.029548645, -0.05494243, -0.008381859, 0.02249573, -0.012949433, -0.028032726, -0.027463008, -0.03782009, -0.010445589, -0.04205875, 0.0018820369, -0.028505065, 0.04723561, -0.013091185, 0.014843912, -0.047636144, -0.0026632266, -0.03466532, -0.027275853, -0.04098647, -0.04813531, -0.0023974066, -0.024269389, -0.031014726, -0.012283017, -0.06055941, -0.00020386536, 0.0022937378, -0.002305755, 0.025082543, 0.008874433, -0.01977944, -0.0026835962, 0.012703221, 0.034896336, 0.030768687, -0.04769133, 0.03136591, 0.04084623, -0.008874088, 0.01385521, 0.012567395, 0.026762351, -0.013393802, -0.025657713, 0.015098347, -0.045555487, -0.0127258925, -0.014880451, 0.022084959, -0.015962807, 0.005580653, 0.019913722, -0.025602544, -0.043873936, -0.06359683, -0.03917527, -0.01270224, 0.012037817, -0.041109882, 0.009197159, -0.024954187, -0.011520581, 0.033651263, -0.034407366, -0.052970905, 0.020970935, -0.0597262, -0.058676552, -0.046851557, -0.048735324, -0.022937829, -0.043079425, 0.021654239, -0.055421796, -0.0007083166, -0.047397755, -0.026191456, -0.03369335, -0.10072526, -0.06440561, -0.04811446, -0.080692925, 0.0024364819, -0.02088291, -0.085994564, -0.048659287, -0.019434383, -0.034595665, -0.09114581, -0.063751236, -0.0072846278, -0.08158898, -0.031766895, 0.018612985, -0.079652436, -0.02849087, -0.08220599, -0.03473724, -0.0246262, -0.05127814, -0.08230771, -0.014305838, -0.07752134, -0.071368754, -0.077718586, -0.08744703, -0.017635912, -0.0017501045, 0.022612017, 0.0026093116, -0.008415646, -0.04444275, -0.009405484, 0.00970925, -0.06311348, 0.032450575, -0.039104942, 0.020312, -0.040361438, -0.024679666, 0.026558634, 0.01808646, 0.012263322, -0.0028623892, 0.013719687, -0.05765838, -0.0393681, -0.038540076, 0.018410299, 0.0002709053, 0.0064734025, -0.019485848, 0.035003066, 0.032295, -0.0013028032, -0.022666588, -0.0153068965, -0.05154576, -0.03237526, -0.024564706, -0.0075185606, -0.0067213154, -0.00013346698, 0.004283313, 0.010204309, -0.0646735, 0.035412975, 0.03272358, -0.050804414, -0.06078309, -0.027496058, -0.008425296, 0.004582513, 0.036775123, -0.037370887, -0.01573169, -0.017498072, 0.008993891, -0.0433783, -0.04108168, -0.032541357, 0.01195737, -0.054036915, 0.022640528, -0.036792237, 0.014707279, 0.003907064, -0.043913342, -0.012874682, -0.06988047, 0.038858343, 0.01979069, -0.024199413, 0.02037455, -0.020311845, 0.034856647, 0.027367203, -0.05201704, -0.051582083, 0.0148480125, -0.030132009, -0.020529121, -0.012833063, -0.04285911, -0.04155206, 0.012409619, -0.004248295, -0.024049154, 0.019159464, 0.012136071, -0.05752262, -0.02867777, -0.021260377, -0.014507524, -0.036879733, 0.004427453, -0.01377514, 0.011708724, 0.026133575, -0.0025675073, 0.03340001, -0.048999842, -0.03646931, -0.0412106, 0.020245254, -0.012392471, -0.026129786, 0.033251226, -0.045778506, -0.04891308, -0.016901989, -0.0075421883, -0.059256554, -0.063251525, -0.0007651298, 0.037950687, -0.0030172113, 0.026250608, 0.025556486, -0.044750713, -0.0045025833, 0.030463688, -0.010427716, -0.050045814, 0.031899605, -0.052112184, -0.015490619, 0.013307237, -0.0025175584, -0.06106414, 0.02582456, -0.046957456, -0.052058004, -0.012306612, 0.019553788, -0.06070309, -0.07494137, 0.011188058, -0.053745788, -0.024681555, -0.012059879, -0.045000747, -0.033483304, -0.007148159, -0.008032347, -0.0072673648, -0.013883652, -0.0477597, -0.023687141, 0.025742205, 0.02517209, -0.03808295, -0.026976109, -0.041092206, -0.0013406286, -0.010014959, -0.05134368, -0.026651045, 0.00012480395, 0.026778419, 0.02576886, -0.027687134, -0.05062614, -0.023148984, -0.033771705, -0.02393287, 0.023066504, -0.0023730884, -0.028153196, 0.023034958, 0.026141189, -0.010922869, 0.0035317768, -0.009181762, -0.025914902, -0.016004382, -0.011778109, 0.006797128, 0.024178503, -0.030804556, -0.044830848, -0.06088761, -0.036553815, -0.017195085, -0.003102075, -0.02361662, 0.011529995, 0.02799251, -0.03308925, -0.087969124, -0.08733378, -0.09829977, -0.03615674, -0.01718181, -0.06390779, -0.08509856, -0.005856616, -0.114662744, -0.114265054, -0.014016694, -0.10131706, -0.029296674, -0.10771747, -0.0119053405, -0.040055804, -0.012623943, -0.016954297, -0.028950978, -0.041105952, -0.07482973, -0.018199509, -0.03631386, -0.047301963, -0.08230814, -0.07728825, -0.051621653, -0.038765796, -0.06390444, -0.011927502, 0.008901968, 0.01665531, -0.054507185, -0.048189677, -0.049960356, -0.018979857, -0.01561883, -0.039316107, -0.014639052, -0.023909409, 0.014330327, -0.009447216, -0.003959573, 0.013251448, -0.056757033, -0.045543823, 0.013733639, -0.006847767, 0.020126289, -0.05669862, -0.0047562625, -0.020733327, -0.0015226664, -0.03759734, -0.011343915, 0.016335139, -0.009821774, 0.0009134046, -0.04496166, -0.06425222, 0.031971518, -0.005441457, -0.02507282, -0.06878285, 0.00014139715, -0.010354383, -0.015922591, 0.00090677186, 0.007370067, -0.057815485, -0.026819939, 0.025219982, -0.039333053, -0.060907558, -0.07054114, -0.06679025, -0.055328883, 0.0013568412, -0.018010402, -0.052544415, 0.025454309, -0.021615293, 0.023834927, 0.012492503, -0.0056400127, 0.02736121, -0.05841654, 0.016477123, -0.001890097};
const float balance_fc_1_bias[4] = {0.07352456, 0.073424116, -0.13728735, 0.021542326};
