const float weakpart_conv1_weight[360] = {0.27445942, 0.21766001, 0.026160944, 0.026109796, 0.17177875, -0.095228195, 0.021424191, 0.018710872, 0.0736201, -0.03611824, -0.13841225, -0.1816109, -0.27723193, -0.07809909, -0.005837439, 0.20142885, 0.20306675, 0.19894038, 0.09910302, 0.13278818, -0.1729336, -0.14042103, 0.17128034, 0.0021738326, -0.12644759, 0.22485794, 0.17645314, -0.072682515, 0.058890797, 0.046454243, 0.30067548, -0.02385733, 0.31556943, 0.073821776, 0.11369371, -0.18025793, -0.39128476, -0.09448249, -0.27729386, -0.22902498, -0.28174177, -0.07075617, -0.36772257, -0.15817477, -0.35983956, -0.13685058, -0.13924173, -0.1249461, 0.04801194, -0.21611665, 0.13038819, 0.13128729, 0.046470776, -0.103508785, -0.073807396, -0.21842875, 0.03794479, -0.15486613, -0.12013974, -0.012809763, -0.11434793, -0.08984908, -0.0682517, -0.3781069, -0.35991323, 0.27030826, 0.11235786, 0.14691249, 0.0757489, 0.30279, 0.10679882, 0.19994178, 0.23158492, 0.20349203, 0.09789673, -0.14951359, 0.21354881, 0.07466912, 0.07076405, -0.074047625, 0.18770663, 0.13245861, -0.18443686, 0.07058446, 0.15182132, -0.05562697, -0.13961385, -0.16848308, 0.043862656, -0.1179212, 0.30752233, 0.04791458, 0.02880876, 0.24004701, 0.3075448, -0.1952041, -0.03207778, -0.3513056, -0.22143956, -0.059043854, -0.38345656, -0.19251865, -0.09764731, -0.15518388, -0.38051444, -0.14891033, 0.13583528, 0.14004585, 0.17596325, 0.17476958, -0.18266305, -0.07282401, 0.02659855, 0.09952499, -0.093898624, 0.099112004, 0.096660696, 0.2116219, 0.06527658, 0.21335366, -0.044128362, -0.022264332, -0.2726488, -0.3399113, -0.293725, 0.23578587, 0.16943684, 0.051212665, 0.06068965, 0.14116094, 0.27881232, 0.33592978, 0.31833702, 0.3245492, 0.088146016, 0.041955967, 0.04234081, 0.12246394, 0.074316524, -0.12719966, -0.0055632964, 0.2716816, -0.012298147, 0.14897245, -0.123922534, 0.06299088, -0.1147447, 0.19032344, -0.18362655, -0.17167091, -0.06516438, -0.16833565, -0.021164542, 0.07963969, -0.03496555, 0.027036875, 0.2570213, 0.103269875, -0.0046115257, 0.11712073, -0.003413279, 0.09789764, 0.16802953, -0.066024765, -0.026558068, -0.1573666, 0.0034071403, -0.17259601, -0.04760051, 0.11249637, 0.17555183, -0.005616112, -0.14973225, 0.04595518, 0.09896469, 0.031680025, 0.0076050935, 0.020021195, 0.06304308, -0.11295187, 0.14588368, -0.0036565869, 0.01800867, 0.057185825, -0.049805526, -0.13571152, -0.14770657, 0.031596135, -0.068962574, -0.025541734, 0.055002257, -0.02227616, -0.17913349, -0.042554, -0.117750086, 0.09765656, -0.12852775, -0.08775373, -0.024307894, -0.100154154, 0.021394338, 0.02100162, 0.072258994, 0.15776828, -0.13371474, 0.012375985, 0.0031341994, 0.09117348, 0.13267592, 0.138215, -0.2435702, -0.084732115, -0.26341632, -0.27470613, -0.29038572, 0.36370653, 0.2183902, 0.11030367, 0.22715132, 0.26307836, 0.14216317, 0.068819635, 0.107520856, 0.24981107, 0.2410174, 0.16467665, 0.038805254, -0.12594426, -0.028068995, 0.061150733, 0.10563966, 0.029870363, 0.08512884, -0.07633024, 0.0037607083, -0.14883824, -0.05634192, -0.14881569, 0.024768986, -0.32575777, -0.33741072, -0.31299666, -0.015180299, -0.13706455, 0.004765879, 0.17093433, 0.2359215, 0.33389717, 0.113780394, 0.17849214, 0.06733683, 0.23635459, 0.2601754, 0.35844448, 0.21313402, -0.059268948, 0.17430104, -0.12707645, -0.12015082, -0.02174977, -0.023839043, -0.10909704, 0.03489191, -0.12971441, -0.21980645, 0.2138474, 0.21074885, 0.08794778, 0.016375171, 0.24154045, -0.058353037, -0.34200212, -0.2478494, -0.036693, -0.17023522, 0.09481599, 0.3542133, 0.27146164, 0.2069669, 0.37282583, 0.3524437, 0.3707929, 0.11860731, 0.15282586, 0.24939233, 0.1959625, -0.06442851, -0.12480848, 0.12519532, -0.014214075, -0.13199055, -0.12474924, 0.14931098, 0.10115481, 0.03341743, -0.047280274, -0.27990326, -0.12563318, -0.11290175, 0.07205715, 0.010967377, 0.073335394, -0.22994743, -0.028227385, -0.011264929, 0.10234829, 0.031994373, 0.16716497, 0.28561097, 0.26706672, 0.30881903, 0.07932032, 0.33612952, 0.24504907, 0.031501748, -0.108757906, -0.15732372, 0.07466181, 0.1667803, -0.061099827, -0.1381446, 0.1544177, -0.07881282, 0.028444631, 0.11432832, 0.09866413, -0.10205005, 0.22330634, 0.05981387, 0.16659676, -0.1415118, 0.15194814, 0.082056805, -0.0700921, -0.047292016, -0.1696996, 0.077287264, 0.16151485, -0.13168491, -0.11355373, 0.09430952, 0.1439903, -0.046766944, 0.058864996, -0.146688, 0.16424152, -0.17120653, 0.0047328835, -0.0012867977, 0.17113666, 0.106535666, 0.017619792, 0.03378014, 0.0749833, -0.042627722, 0.0651281, 0.06952641, 0.14829226, 0.10306975, 0.17564014};
const float weakpart_conv1_bias[12] = {0.100365385, 0.18577658, 0.102093175, 0.04298575, -0.092569396, 0.09300731, 0.041403208, 0.10844062, 0.057451345, 0.17441304, -0.010310841, -0.087273575};
const float weakpart_conv2_weight[432] = {0.19989541, -0.09215718, 0.039823998, 0.19514802, -0.053198766, 0.11233902, -0.072330214, -0.15671478, -0.13550028, 0.08620532, 0.083836645, 0.18930954, -0.10277591, -0.044596303, -0.0679017, 0.13232999, -0.08806317, 0.017753936, 0.14274001, -0.015302383, -0.08300124, -0.14052631, -0.18567029, -0.122305155, 0.0153264785, -0.05968881, -0.16950406, -0.2267831, -0.09958549, -0.10174766, -0.09276865, -0.06556138, 0.033417117, 0.027278565, -0.071722195, 0.13883676, -0.099236116, 0.07256839, 0.054801475, -0.08198249, 0.10004401, -0.07224871, -0.060735036, 0.017793586, 0.0895583, -0.029787919, -0.045792043, -0.1347061, 0.05323544, 0.17769545, 0.18925244, 0.10578611, 0.15673223, 0.008039601, 0.10424668, 0.15022302, -0.038338512, 0.19024223, 0.030181829, -0.011655505, 0.16245535, 0.10822567, 0.14135765, 0.088801585, 0.14840578, 0.064548686, 0.036349844, 0.03899855, 0.12085479, 0.1202998, 0.032994762, -0.017971212, 0.08843018, 0.17146689, 0.035187844, -0.16157815, -0.071125336, 0.01659528, -0.14701767, 0.100839525, -0.063575625, 0.06443778, 0.08397429, -0.1321888, -0.16054878, 0.07836636, -0.10275884, 0.14729762, -0.1674191, -0.0023004955, 0.027249865, 0.15719241, 0.15730973, -0.14638364, 0.028412245, -0.03657937, -0.056363028, 0.08125799, -0.09727591, -0.17966323, -0.18982251, 0.014490495, 0.009721419, -0.029556517, 0.09716577, -0.014029421, 0.17380613, -0.09850494, -0.023903396, -0.114320606, 0.069361776, 0.108696006, 0.036347553, -0.067168385, -0.048885003, 0.082056575, 0.17871557, 0.014713607, -0.01615678, 0.11281696, -0.06949372, -0.13036928, 0.17578377, -0.0006385713, 0.05081944, -0.034059744, -0.16552253, -0.04100897, 0.11997915, 0.12342554, 0.106204696, 0.057836473, -0.20146695, 0.055491142, -0.16056007, -0.038337935, 0.18878439, 0.092949525, -0.044571627, -0.124643184, -0.041766796, 0.022348046, -0.12869339, 0.006553716, -0.024119861, -0.05356405, 0.11250921, 0.015560126, 0.08487262, -0.110770024, 0.13489334, 0.08704319, -0.07387164, -0.046967115, -0.08711612, 0.12841159, -0.009376999, 0.093754165, 0.09573443, 0.027078113, 0.095993735, 0.079945736, 0.12246756, 0.058648, 0.1574768, -0.056078326, 0.064816445, 0.17435034, 0.19944535, 0.10384352, -0.08969359, 0.09874165, 0.12722836, 0.19890434, -0.03074475, 0.2060212, 0.13451886, 0.076809205, -0.12756051, -0.112805195, 0.012749964, 0.14186876, 0.15084735, 0.14483587, 0.16843326, -0.0019391002, -0.124388225, -0.041179266, 0.026730314, 0.16423634, 0.16712932, 0.12111722, 0.10392302, -0.014319807, -0.142077, 0.1752545, 0.04819615, 0.059209432, -0.07259131, 0.13901842, 0.0793065, -0.23595649, -0.04657534, 0.033005185, -0.15565385, -0.18210769, -0.040462784, -0.056766123, -0.1454908, 0.030717855, -0.12989268, -0.14427356, 0.087995455, 0.104761146, -0.04332451, -0.025304763, -0.061080158, 0.052184716, -0.06380047, -0.030365743, 0.008067983, -0.10109248, -0.05171054, 0.06739162, 0.09166257, -0.080816634, 0.06778599, -0.2590784, 0.19695762, 0.04633337, 0.22008394, 0.13464718, -0.015675241, 0.0068983063, 0.09576767, -0.026512144, 0.11680891, -0.056415584, -0.0895179, 0.011327332, -0.010557499, 0.005644254, 0.0753629, -0.03579965, -0.017236376, -0.095913246, 0.26359794, -0.03854735, -0.038257837, 0.010710536, 0.03754323, -0.014047162, 0.115801595, -0.046873994, 0.101817854, 0.004698373, -0.019054312, -0.020715348, 0.16967045, 0.19290179, 0.18513928, -0.12539428, -0.1329385, -0.10135104, 0.036801584, 0.18134774, 0.07821516, 0.10132504, -0.032092404, 0.08296479, -0.0852092, -0.06712134, -0.080995515, 0.24369086, 0.16097201, 0.21563506, 0.11318899, 0.17045708, 0.14552844, 0.16211121, 0.14132585, 0.102711126, 0.15720369, 0.07436694, 0.000733955, 0.03891879, -0.019762555, 0.16876431, -0.021740386, -0.115881436, 0.03029973, 0.038584538, 0.114837706, -0.009980848, 0.15237105, 0.007705439, -0.15382256, 0.18176895, -0.021132689, 0.121111475, -0.14195345, -0.13475683, -0.021104963, 0.12725024, -0.13350135, 0.14986984, 0.1032919, 0.10175943, 0.1369356, 0.08329497, -0.108092174, 0.1692438, -0.06116753, -0.12963885, -0.10286568, -0.008361586, 0.17692453, -0.12230815, -0.13975063, 0.122974314, -0.020168977, 0.04139946, -0.076207496, 0.012908884, -0.106676824, -0.10290989, 0.07659348, 0.121830024, -0.106398955, 0.087211415, -0.059149608, 0.07945438, -0.10235442, 0.105396785, -0.1339304, 0.013253481, -0.11102093, -0.023991175, 0.20693839, 0.043570127, -0.05090734, -0.091607764, -0.08835443, -0.08602637, 0.034232464, 0.017954618, 0.06026665, -0.10670028, 0.014314364, -0.1720724, -0.007217302, 0.022399373, 0.18078034, 0.10142265, -0.05297937, 0.088041954, 0.067414746, 0.17466722, -0.13162062, -0.13886039, -0.04971341, 0.15142109, -0.015322774, 0.038600527, 0.16821179, 0.18375954, 0.14400883, 0.09139703, -0.027274104, -0.095901705, -0.0542332, -0.032883953, 0.04034572, -0.016390678, -0.16572653, -0.16305187, 0.060301147, 0.14291891, 0.08919105, -0.092558764, -0.0866657, 0.046763532, -0.12612358, -0.12410499, 0.020736428, -0.09219121, -0.10242868, -0.02873144, -0.0086577935, -0.091551, -0.046113804, 0.03327217, 0.022310212, 0.08306671, -0.109222434, -0.18014045, 0.022627406, -0.04706856, 0.027982507, 7.9521975e-05, 0.0059970743, 0.14856221, -0.102695905, 0.12898293, -0.13304679, -0.10276904, -0.002802544, 0.037085492, -0.17902355, 0.026839754, -0.038495235, -0.070124224, 0.16256224, 0.107212245, 0.13391882, 0.10312371, 0.08221963, -0.15120918, -0.16188392, -0.107070595, -0.17777407, -0.12200811, -0.18175128, 0.09690214, 0.052985344, 0.010641862, 0.012401043, 0.041757137, 0.06900988, -0.13717926, 0.02322062, -0.086523175};
const float weakpart_conv2_bias[12] = {0.0077050542, 0.08202736, -0.07157833, 0.17632778, -0.109394714, -0.15994512, 0.00056578976, -0.066086315, -0.1264617, -0.017246861, -0.05643259, 0.031565305};
const float weakpart_fc_1_weight[720] = {0.0048100525, 0.022669844, 0.048162065, 0.077267826, 0.058759376, 0.054104615, 0.09396974, 0.100963086, 0.08337371, 0.10298299, 0.06893776, 0.10317879, 0.0863029, 0.064741954, 0.05705011, 0.090156674, 0.050936364, 0.04465421, 0.06583116, 0.07213878, 0.022710696, 0.001909197, 0.03605527, 0.037119392, 0.091111846, 0.055129405, -0.0036663474, 0.014890776, 0.08796295, 0.059371617, -0.07606268, -0.01602563, 0.01731379, -0.033960085, -0.06055326, -0.03914708, -0.030078646, -0.02616643, -0.05253138, -0.050129827, -0.005007744, -0.0029922214, 0.0090962965, -0.0149343815, -0.059135947, 0.015690034, -0.017822342, 0.0018698843, 0.020834245, -0.06165384, -0.07668372, 0.020616004, -0.009242929, -0.004154081, -0.022097696, 0.029182404, 0.0020678886, -0.020105314, 0.0076911063, -0.05739262, -0.03515904, 0.00011826973, -0.0029657432, 0.040352795, -0.027193656, 0.07692577, 0.06566077, -0.0097774295, 0.014230717, 0.052787382, 0.018420296, 0.054412637, -0.021978261, 0.034742564, 0.03652644, 0.06615284, 0.028859504, 0.052102085, 0.074000806, 0.022887116, 0.018245526, 0.05745782, -0.0137428325, 0.05245584, -0.02985415, -0.031646878, -0.03779679, -0.05100728, -0.046065647, 0.02382999, -0.05389973, -0.0766398, 0.009263289, -0.015759598, -0.08472296, -0.009935991, -0.008103519, -0.07125591, -0.096121505, -0.02748732, -0.07871191, -0.0500866, -0.05468568, -0.03493173, 0.008234022, 0.016199462, 0.018404573, -0.05729388, -0.02704389, -0.059016343, -0.064885385, -0.041774973, 0.013333275, -0.0049275835, -0.05156368, -0.022373311, 0.036930602, 0.030045852, 0.049562268, 0.048633862, 0.030636225, -0.041932046, -0.07193074, -0.041983895, -0.07151955, -0.039716337, 0.02970523, 0.033847604, -0.01385093, 0.009963311, -0.018031133, 0.018391585, -0.026138436, -0.023017416, -0.04987325, -0.030737808, -0.055628505, -0.051575456, -0.043428034, -0.045488037, 0.015960282, -0.02519758, -0.02360483, -0.060139053, -0.017976996, -0.038841717, -0.02555953, -4.206953e-06, -0.051985625, -0.029354272, 0.024145301, 0.06019433, 0.072302714, 0.07626752, -0.02277267, -0.017039068, 0.05675627, 0.06667345, 0.065784626, 0.0030980378, 0.051348712, 0.062349748, 0.07283975, 0.045431245, 0.06871626, 0.08089399, 0.052612744, 0.012011325, 0.036970276, 0.019487603, -0.012378235, 0.038651202, -0.002444974, 0.030362256, -0.027239395, 0.009404332, -0.012983052, 0.0189266, 0.017842023, 0.04428644, 0.04499428, 0.07630581, -0.05696453, -0.09747354, -0.16802955, -0.05596798, -0.093957625, -0.042029455, -0.050182644, -0.1076763, -0.040922858, -0.054728754, -0.1054942, -0.118023, -0.11749136, -0.12849553, -0.06347355, -0.055755123, -0.12000097, -0.060679074, -0.111027874, -0.08840004, -0.013607587, -0.078397796, -0.032706227, 0.0015960985, -0.035769127, -0.039037384, -0.003234315, 0.017982077, -0.083649725, -0.00878898, -0.06474025, -0.05214587, -0.004782219, -0.115774274, -0.035689846, -0.0697386, -0.11701517, -0.09186069, -0.08852395, -0.065605566, -0.13797842, -0.12839326, -0.06971903, -0.030579504, -0.12372314, -0.077133045, -0.103815824, -0.02493735, -0.045495097, -0.056886725, -0.04635066, -0.06395542, -0.09265243, -0.031203026, -0.05837396, -0.03691433, -0.04729879, -0.09450671, 0.034329157, -0.041607115, -0.037342243, 0.022556491, 0.00091204507, -0.0078481715, -0.028379578, 0.02694108, 0.02508736, 0.022709528, 0.02588351, 0.0020357848, 0.01821668, 0.01819389, -0.0102388915, 0.055753484, 0.060988016, -0.019456228, 0.03667379, 0.005398832, 0.020542983, 0.027687443, -0.009535634, -0.004690102, 0.00822631, -0.0027265213, 0.019299822, -0.018232793, 0.06771123, 0.052801605, 0.0040235464, -0.027592735, -0.036044557, -0.015709918, -0.008961945, -0.03169039, -0.053219736, -0.019784039, -0.012395052, 0.014830459, -0.021292035, 0.024113879, -0.023810985, -0.03419614, -0.025686111, -0.031663176, -0.032941826, -0.010546758, -0.024497725, -0.0121220155, -0.004527594, 0.020059586, 0.003026876, -0.051045086, -0.044593193, 0.004700287, -0.042311106, 0.028691739, -0.020609893, 0.008879729, 0.05787564, 0.034907516, -0.034352865, 0.053987406, -0.0043054502, 0.0405906, -0.01611672, -0.04259455, 0.037196472, 0.042862743, 0.07495151, 0.050688867, -0.012240735, 0.029708508, 0.028893365, 0.004790073, 0.04139321, -0.007360988, 0.028200332, 0.013842007, -0.021712616, -0.014854331, 0.05092512, 0.040630996, 0.028381899, 0.01867394, -0.0191702, 0.056331985, 0.013285507, 0.0044064284, 0.025630979, 0.034428228, 0.014536966, 0.05171251, -0.016813478, 0.017566023, -0.0040321685, 0.052214824, 0.028778829, -0.013729049, 0.0637325, 0.008437459, 0.064800814, 0.029136838, 0.000545213, 0.08046759, 0.007425759, 0.0009926921, 0.06690952, 0.07311043, 0.043099966, 0.038139682, 0.043743923, -0.02721343, 0.0211666, 0.06372511, 0.052784134, -0.005768466, 0.0028606807, -0.055068575, -0.0076506, -0.010245682, -0.07224103, -0.06682121, -0.09520581, -0.07465308, -0.07511637, -0.08114503, -0.024727112, -0.030829791, -0.02894724, -0.06789129, -0.07168681, -0.023912797, -0.100079566, -0.028695945, -0.083979875, -0.05030595, -0.009785699, -0.06362804, -0.07177849, -0.034446325, -0.056201864, 0.0011063867, -0.015858047, -0.050401405, -0.08235708, -0.07480213, -0.035462275, -0.01185891, 0.06708806, -0.004706863, 0.0052461578, 0.0019126204, 0.061339077, 0.02146786, 0.06255605, -0.025746208, 0.039477877, -0.01782351, -0.006094901, -0.018081792, 0.06379785, -0.009672644, -0.015189199, 0.032824095, 0.0047463914, 0.02622238, 0.06164167, 0.032092433, 0.05020186, 0.060072552, -0.003299484, 0.06320538, -0.005489045, 0.046664227, -0.016783565, 0.049523644, 0.07453504, -0.011708105, 0.013816783, -0.051629517, -0.039164394, -0.060048793, 0.021688865, -0.023329956, -0.07038954, -0.08255526, -0.0564575, -0.048770856, -0.053662706, -0.050113373, -0.03387895, -0.029328814, 0.027571034, -0.013720617, 0.0071967235, -0.013535752, -0.003414244, -0.002868763, -0.03319291, -0.032811534, 0.025631174, 0.02406724, 0.006178203, -0.029021546, 0.013482448, 0.019037273, -0.01954655, -0.0635289, 0.013096488, 0.056854, 0.03827742, 0.075302094, 0.055019476, 0.007653909, 0.07883687, 0.048589785, 0.033672772, 0.077924564, 0.032812, 0.00084760773, 0.04510132, 0.030258032, -0.006077615, -0.028826319, 0.014961782, 0.05374623, 0.03482028, 0.019720238, -0.0038467585, -0.008608477, 0.04691702, 0.088975266, 0.074729174, -0.015849391, -0.013869791, -0.01182825, 0.038288742, -0.043448623, -0.04875796, -0.0065258485, -0.009306819, 0.01203682, 0.03715739, -0.032473713, -0.024458531, -0.019402638, 0.058808774, 0.07304029, -0.008283316, 0.06197121, 0.062642194, 0.00894586, 0.030974345, 0.013032264, 0.006625395, 0.042554073, 0.063341625, 0.017518975, -0.021247115, 0.02276276, 0.047388945, 0.051659282, 0.041654546, 0.050851014, 0.05461563, 0.0085072, 0.027399894, -0.0056978725, -0.040041685, -0.028600123, 0.0033964105, -0.014979826, 0.0023822805, 0.021368664, -0.0644162, 0.008091834, 0.021478835, -0.020684125, -0.047789913, -0.01634616, -0.04050824, -0.0684511, -0.036508888, -0.04046326, -0.07912889, -0.0011475823, -0.044387173, -0.07489793, -0.030970499, -0.02002667, -0.05877398, -0.052419487, -0.05524114, -0.051028285, -0.055782083, 0.023145666, -0.043158315, -0.048807442, -0.067782484, -0.08173028, 0.113127254, 0.07633124, 0.12363864, 0.053312432, 0.089789584, 0.08234665, 0.05231125, 0.0858489, 0.06595502, 0.13239571, 0.046219993, 0.10647365, 0.14323628, 0.05098003, 0.10062985, 0.050204664, 0.038278345, 0.12084144, 0.11840908, 0.052541044, 0.047114715, 0.11312631, 0.06918188, 0.0025772257, 0.114849046, 0.13354857, 0.056961443, 0.0073796837, -0.007824685, 0.052200317, 0.087502226, 0.07819622, 0.029934933, 0.022606146, 0.084579535, 0.090001024, 0.09062516, 0.09766317, 0.0925883, 0.09291892, 0.08617664, 0.055473838, 0.047617942, 0.11737046, 0.035580978, 0.047910042, 0.059183653, 0.12190018, 0.053095292, 0.08682582, 0.07242696, 0.055004817, 0.054058805, 0.1071291, 0.07376231, 0.0849401, 0.056005824, 0.021011272, 0.03754925, 0.0145529825, -0.009469283, -0.034320615, 0.0029611767, 0.03346887, 0.0030344552, 0.011782245, 0.049320575, 0.022304513, 0.032068368, -0.016003298, -0.025726415, -0.03611588, -0.044585507, 0.017689172, 0.026612896, -0.072942324, -0.06561138, -0.03872971, -0.035725452, -0.0053827222, -0.048033576, 0.0003225109, 0.041531436, -0.055524144, -0.06038745, -0.047976237, 0.016552461, -0.015882716, -0.004106887, 0.0133852465, 0.055055276, 0.019447453, -0.011501243, 0.015151262, 0.014759292, 0.026420543, -0.007983793, 0.036932074, -0.018185593, 0.03527332, 0.027556477, 0.033958036, 0.020798098, 0.03441708, -0.031956967, 0.017423663, -0.029218502, 0.05069885, -0.00781763, 0.033047184, -0.011138001, -0.008289071, 0.035058666, -0.011163173, 0.02194738, 0.057512525, -0.041931055, -0.044767004, -0.09682314, -0.0037697596, 0.04341159, 0.009597311, 0.019752346, -0.050355017, 0.03700055, -0.025676182, -0.03018291, -0.022274304, -0.008760811, -0.07699953, -0.010785176, -0.039884724, -0.07739099, 0.017738877, 0.02136216, -0.044014346, -0.039115824, -0.052257225, -0.019446027, -0.04975203, 0.032244302, 0.0077435374, -0.05517404, 0.02122526, -0.042491626, 0.014271434, -0.028413301, 0.007904967, -0.029270947, 0.0006191104, 0.035968147, -0.025304584, -0.062401555, -0.003436005, -0.0018702231, -0.0111852465, -0.023514358, 0.0033649055, 0.0057167313, 0.0068898126, 0.0010034933, -0.021185942, -0.052606154, -0.00920333, -0.027052782, -0.03350662, -0.039575186, -0.018520957, -0.016609093, -0.03568498, -0.018262701, -0.05369714, -0.0073456937, 0.008068632, -0.06559759, 0.007089289, -0.070226885, 0.042526886};
const float weakpart_fc_1_bias[2] = {-0.015984323, 0.00956067};
