const float conv1_weight[360] = {-0.120800115, 0.11923152, -0.059291504, -0.13446361, -0.07481007, 0.26367164, 0.14631388, 0.31821272, 0.30236503, 0.22036165, 0.20532319, 0.1856399, 0.396996, 0.2826939, 0.21036972, 0.054345038, -0.1327305, -0.10582276, -0.06960414, -0.16590154, 0.11551627, 0.12649514, 0.17125812, 0.23595244, 0.0008781488, -0.02803347, 0.22206241, 0.23382095, -0.083916105, 0.11735705, 0.37884048, 0.08589479, 0.12180226, 0.03727869, 0.40519005, -0.029607145, 0.12706749, 0.116189174, 0.11211645, 0.23404051, 0.35904, 0.060164075, 0.08581179, 0.2234429, 0.12916946, -0.090710744, 0.19257675, 0.21707188, -0.011713324, 0.15556966, 0.027542856, 0.030997925, -0.052061312, -0.021474687, -0.036265627, 0.03919917, -0.02164837, -0.1966186, -0.22271015, 0.084125, -0.21642083, -0.29237252, -0.28017384, -0.18819217, -0.09970927, -0.13197489, -0.17753205, -0.1432035, -0.056604467, -0.15952519, -0.081655994, 0.25976145, 0.30703363, 0.2501208, 0.10476088, 0.011904193, 0.06431127, -0.10035013, -0.14377923, 0.08511513, 0.016343554, 0.1525155, 0.22272135, 0.25301278, 0.19546074, -0.024759186, 0.21523437, 0.09751196, -0.1224914, 0.13750963, -0.40299475, -0.10114951, -0.32855302, -0.14709325, -0.354953, 0.120608814, 0.17405349, 0.07628861, 0.014409962, -0.020887438, 0.22855885, 0.20873329, 0.23607084, 0.090436645, 0.13584526, 0.08172698, -0.047416866, -0.073747724, 0.03935873, 0.17934197, 0.09982543, 0.20642455, 0.16644727, -0.112350255, 0.20963763, -0.21266097, -0.21318492, -0.22193806, -0.1257395, -0.09594699, -0.10640635, -0.23621443, -0.15906422, 0.051672306, 0.033658653, 0.35210416, 0.28585678, 0.3777264, 0.31282088, 0.21778123, 0.27365553, 0.111327395, 0.27319872, 0.39305472, 0.31349182, 0.12253215, 0.0879081, -0.13558948, -0.09728337, 0.016597146, 0.055270698, -0.15907985, -0.053519882, -0.10471254, -0.016019966, -0.19379784, -0.010573124, 0.02784456, -0.014933184, -0.22499105, 0.26758057, 0.26688087, 0.45542306, 0.38684168, 0.2270909, -0.26737586, -0.17444365, -0.09446224, -0.27161002, -0.053939562, -0.16729176, -0.300838, -0.26629686, -0.31059077, -0.09192564, 0.24168316, -0.03270907, 0.10423574, 0.2193092, 0.050029013, 0.072721265, -0.08499768, -0.11239562, -0.06811356, 0.021005569, 0.17641574, 0.057875533, 0.11667973, 0.10810486, 0.10475027, -0.13080965, -0.2954703, -0.3803957, -0.26189214, -0.2834562, -0.32367793, -0.24407119, -0.37411648, -0.34664887, -0.37706944, -0.3759739, -0.197205, -0.4427056, -0.34129366, -0.39121756, 0.026741873, -0.0101459585, -0.1015527, 0.04871745, 0.057928633, -0.2387121, -0.17465606, -0.23979957, -0.22468773, -0.24314481, -0.06732295, -0.027441833, -0.029272828, 0.0044064103, -0.055723373, 0.0443634, 0.38198784, 0.16201818, 0.046479892, 0.24043003, -0.15645544, 0.09338753, -0.26341337, -0.12519576, -0.20559712, -0.17708693, -0.26937893, -0.043233655, -0.07590755, -0.06819954, -0.13237467, -0.18296285, -0.051357754, -0.0871889, -0.13837251, 0.14973105, 0.015280838, -0.07031443, 0.107902005, 0.08661366, -0.16260478, -0.14615938, -0.008026836, 0.018872676, -0.058234017, -0.14945786, -0.39439446, -0.15169153, -0.30790898, -0.15052271, -0.2893434, 0.025511108, -0.15387692, -0.26665542, -0.17149805, 0.16999605, 0.1136191, 0.20096351, 0.16751803, 0.039054915, -0.041942254, 0.047624186, -0.0017291092, -0.144788, 0.04817791, -0.18484649, -0.13376181, -0.023242159, -0.1970796, -0.094639815, 0.14645524, -0.0670236, -0.036176436, 0.094143115, -0.028472275, 0.107402034, 0.12587819, 0.2696262, -0.000328127, 0.11765565, 0.43716064, 0.28949222, 0.30821905, 0.28198755, 0.3268311, 0.3484753, 0.38955554, 0.23096737, 0.26334676, 0.40500778, -0.14260797, 0.09486541, -0.17040785, -0.025732571, -0.027253056, -0.2869158, -0.24168186, -0.10862239, -0.10122469, -0.094627775, 0.28594834, -0.055862017, -0.036688548, 0.120642945, 0.2732834, -0.2664111, -0.10434744, -0.36474958, -0.12642427, -0.14294152, 0.20958756, -0.0033331474, 0.06809007, 0.26676655, 0.21286604, 0.11303585, 0.2236178, 0.1905985, 0.4211, 0.17961787, -0.059278164, -0.0880072, -0.06576727, 0.15165368, 0.17635675, 0.21024552, 0.0025662896, 0.09846329, -0.024796434, 0.16011953, 0.013663905, -0.20741013, 0.14240713, -0.25324318, -0.29758096, 0.13053, 0.23301479, 0.3505117, 0.21011591, 0.11574945, -0.22200382, -0.036809124, -0.16465154, 0.086664975, -0.065630935, -0.14040065, -0.03208702, -0.2582167, -0.08119844, -0.3353994, -0.17093018, -0.013195447, 0.039160624, -0.05194476, -0.027328258, -0.093894295, 0.012397452, 0.008271428, 0.00966108, 0.024378836, 0.07933101, -0.044936005, 0.058094516, -0.041625462, -0.07685736};
const float conv1_bias[12] = {0.08692156, -0.07732658, 0.1960869, 0.35116577, 0.08856741, 0.038848612, 0.33394748, -0.1710818, 0.17155744, -0.23335809, 0.08950309, -0.36712724};
const float conv2_weight[432] = {0.15730083, -0.049123794, 0.07229134, 0.027059944, 0.10147406, 0.009244901, -0.09183508, -0.1317438, -0.08594976, -0.04756806, -0.09843123, 0.032352947, -0.11469322, 0.013357953, 0.16915826, 0.20017497, -0.13268954, -0.1158038, -0.17894565, -0.16406514, -0.15181445, -0.004016017, 0.15208678, 0.036870386, 0.07276899, -0.003514082, -0.059615467, 0.06644963, 0.12569901, -0.011604898, 0.16081062, -0.036377817, 0.16713922, 0.15740477, -0.067519054, -0.012697874, 0.13072903, -0.02992977, -0.1568266, -0.00072979054, 0.056543924, 0.05515344, 0.06545243, 0.042774603, -0.12931766, -0.027747327, -0.04372623, -0.088125885, 0.05736969, -0.1867799, -0.15009427, 0.103295125, 0.19637829, 0.20773359, 0.14758019, 0.19582614, 0.013312768, 0.0278237, 0.111870185, 0.15640901, 0.06555586, 0.041644022, -0.11106966, 0.04675875, -0.051121566, -0.07172713, -0.12636717, -0.047401555, -0.08644176, 0.10492694, 0.17548093, -0.08184862, 0.08573916, -0.019532371, -0.03356963, 0.15451224, -0.025604684, 0.060378287, -0.106803276, -0.104593664, -0.07985905, 0.19219732, 0.13814867, 0.21324602, 0.12752655, 0.22709094, 0.077479705, -0.17983955, -0.04793412, 0.11273512, 0.11388221, -0.057008006, 0.1123624, -0.0116285235, 0.042235706, 0.09535916, -0.048704863, -0.090025924, 0.02600904, -0.04778747, -0.13827445, -0.003952727, -0.047236633, 0.14198427, 0.11126567, -0.17203067, -0.15453528, -0.048520163, 0.115823, -0.11565519, -0.068563566, -0.14041063, 0.10588054, -0.12936977, 0.15831336, 0.04702085, 0.04661378, 0.054643758, 0.23104757, 0.009960646, -0.017965717, 0.044423178, 0.21915558, -0.17377828, 0.11235433, -0.048807487, 0.028067056, 0.12928884, -0.05875638, -0.089832105, -0.06763142, -0.036181826, 0.16309226, 0.20214058, -0.055576738, 0.19847144, 0.0508211, 0.25567788, 0.16593465, -0.003646563, 0.21586242, -0.030028122, 0.07972372, -0.04698835, 0.13735344, 0.17827547, 0.13888259, -0.028488819, -0.11017579, 0.08915175, -0.05453828, -0.11480794, -0.057658505, -0.042591684, -0.0060137277, -0.06941913, -0.13758214, 0.022908343, -0.050392404, 0.11595696, 0.029272491, -0.120407835, 0.011920201, -0.20922601, 0.006871876, 0.06447338, 0.111972295, 0.21631464, 0.033634327, -0.19250128, -0.17273682, -0.12067118, 0.10895791, 0.10679496, -0.081406765, -0.029395161, 0.08417287, 0.17076606, 0.14613971, -0.10418122, -0.042428955, 0.14331995, -0.01922274, -0.16506234, -0.098008975, -0.017261373, 0.12643838, 0.05085807, -0.12089496, -0.073327206, -0.12762173, -0.06847462, -0.00586454, -0.16928409, 0.0984946, 0.007266559, -0.096732356, 0.11776446, -0.13372655, 0.09777819, 0.017784063, -0.16358323, -0.054405842, -0.06853963, -0.09469326, 0.037222173, -0.038837723, 0.03760103, -0.14456604, -0.14017902, 0.080453545, 0.1516472, 0.037833355, 0.021900652, -0.086602636, -0.15443358, -0.040601376, -0.06551968, -0.10935909, 0.13634135, 0.045518234, 0.013750317, -0.0083725015, 0.10498762, -0.03544651, 0.036187913, -0.0026310207, -0.005171955, -0.027803432, 0.1443681, 0.044640426, 0.104739375, 0.11985498, -0.012580298, -0.015088281, -0.11459636, 0.0028867922, 0.09166968, 0.1407386, 0.18253319, 0.061003115, -0.061028462, -0.010249055, 0.023880135, 0.107232064, 0.016819471, 0.009617061, -0.019952167, 0.14529811, 0.025714284, 0.21975149, 0.06037922, 0.18391708, -0.07854514, 0.004991443, -0.047483858, -0.07868742, 0.15068738, 0.08121344, 0.0066426205, -0.074144915, -0.15588915, 0.11197046, -0.03550426, 0.111509755, 0.06328842, 0.06891697, -0.101279445, 0.034985214, -0.11383086, 0.04518042, -0.01329182, -0.16720302, 0.013654801, 0.11959189, 0.007491662, 0.020150624, -0.1394997, -0.10421239, 0.04433043, 0.12249144, 0.14839146, -0.15845765, 0.11297862, 0.11989912, 0.08877308, -0.102117516, 0.073239096, 0.1072251, 0.057353985, 0.18713325, 0.0881314, -0.03474387, 0.19024943, 0.008017715, 0.2325322, 0.23752064, -0.11617789, 0.17112559, -0.06498624, 0.05212574, -0.0005716928, -0.17813505, -0.032971345, -0.13644634, -0.08768874, -0.10444812, -0.14919949, -0.08543077, -0.0028359012, 0.12291984, -0.15180041, 0.07192382, 0.056656945, -0.005483588, -0.015357431, -0.10632156, -0.011665014, 0.05346535, 0.1774898, -0.09732479, 0.028156664, -0.17753345, -0.11148446, 0.03804664, 0.14180015, 0.10643691, -0.030427778, -0.19666012, -0.112315305, 0.036447965, 0.029094545, 0.13443121, 0.02766211, 0.038047053, 0.015208935, -0.11362823, -0.05219132, -0.14970271, -0.07476174, 0.11740838, -0.18757081, 0.23952204, 0.21629278, 0.21276215, 0.15198958, 0.17705683, -0.062479883, -0.056839563, 0.14897838, -0.08062745, -0.17799112, -0.10090749, -0.14910337, 0.105386645, 0.040388793, -0.021955397, -0.15715005, 0.11139963, -0.080143325, 0.051573418, -0.09829122, 0.100875355, 0.14391376, 0.12084, 0.12331481, 0.05201171, -0.0020162566, -0.15118238, 0.028966619, -0.007257891, 0.070679516, 0.1265549, -0.023726836, -0.007630655, 0.08632898, 0.14424919, -0.07496746, 0.042094838, -0.17191665, 0.1006092, -0.1346495, 0.019586049, -0.00072901737, -0.020494409, -0.016968675, -0.009382221, -0.042044472, -0.03989375, -0.023032341, 0.13767132, 0.059914373, 0.12632252, -0.10926801, 0.10310148, -0.064713925, 0.13680814, -0.016988983, -0.0028600767, 0.07837027, 0.17779359, 0.12944901, -0.090201996, -0.05549809, -0.08052039, 0.14624533, 0.05017658, 0.14568919, -0.045970775, 0.119112894, 0.21692468, 0.03135787, -0.06530066, -0.10392254, -0.14480099, -0.17356049, -0.16832991, -0.078027695, -0.0002624295, -0.07392264, -0.046070024, -0.021425745, 0.19233614, 0.16823557, 0.1424558, 0.083442256, 0.17401196, 0.1426938, -0.013936377, -0.0042442787, 0.027877431, 0.11878833};
const float conv2_bias[12] = {-0.10400981, 0.028052729, 0.0074668108, 0.25117347, -0.32345796, -0.08922821, -0.19140509, -0.26649106, 0.08918806, 0.41201583, -0.024534503, 0.13333496};
const float fc1_weight[1440] = {-0.07216094, -0.0343795, -0.09171189, -0.020992795, -0.073015116, -0.10476319, -0.05187004, -0.10465141, -0.04719902, -0.01775621, -0.06712464, -0.019206958, -0.049416754, -0.004125412, -0.053779706, -0.09213907, -0.07299948, -0.053012088, -0.07889305, -0.09795221, -0.061908863, -0.0882124, -0.06017381, -0.011846791, -0.0745104, -0.0007988861, -0.04427243, -0.023407415, -0.04728848, -0.11856322, -0.08317831, -0.012491919, -0.02827578, 0.026938105, -0.06889723, -0.03296524, 0.024462622, -0.067657925, -0.03120571, -0.074966714, 0.0006170811, -0.025745308, -0.020758163, -0.005689598, -0.06532193, -0.026771953, -0.07198163, 0.009110013, 0.015896684, 0.025994658, -0.038689047, 0.0026942329, 0.018535798, 0.017056275, 0.024338897, -0.032665774, -0.07409084, 0.02487272, 0.010140957, -0.04582695, -0.110705175, -0.087256454, -0.14694485, -0.12060542, -0.058260716, -0.1594625, -0.07233916, -0.08453699, -0.16995887, -0.18281396, -0.16844998, -0.17013906, -0.109939516, -0.1178321, -0.07601697, -0.11992579, -0.1599907, -0.13300455, -0.15638816, -0.096691206, -0.123498425, -0.03333785, -0.052071694, -0.11430837, -0.13464722, -0.15149364, -0.14002009, -0.068599805, -0.15202703, -0.16761154, -0.12720053, -0.027078448, -0.039766926, -0.087025635, -0.06342039, -0.034871485, -0.054068007, -0.041351106, -0.065602444, -0.075889416, -0.048374616, -0.087689, -0.041686982, -0.09576145, -0.03806923, -0.028703902, -0.057186518, -0.049140334, -0.082380734, -0.06457989, -0.09487725, -0.060593687, -0.059674546, -0.102320105, -0.11623234, -0.07238822, -0.08560202, -0.059320144, -0.087847665, -0.096224375, -0.020660397, -0.009754462, 0.052068014, 0.009899111, 0.06308133, 0.008542158, 0.03454652, -0.007110844, 0.051875412, -0.006013175, 0.038820565, 0.048192017, 0.037319373, 0.039799903, 0.06231538, 0.031700086, -0.010461705, 0.011586855, -0.023245875, 0.067160405, 0.03749666, -0.0023986748, 0.062206984, -0.020423003, 0.04362729, 0.030225774, -0.036774956, -0.013134079, 0.049485285, -0.07847725, 0.011523967, 0.027441207, -0.007347356, 0.012832152, 0.004447118, -0.03664592, 0.02396855, -0.009883404, -0.035749067, -0.0018697133, -0.028561652, -0.035039145, -0.018880919, 0.034878157, 0.007988152, 0.044485368, 0.0013759249, 0.011432495, 0.004678592, -0.0032187835, -0.01474069, -0.027641924, 0.01129754, -0.008386988, 0.0008529221, -0.038955804, -0.012310726, -0.066109836, -0.016920097, -0.0016590473, -0.027952384, -0.06270361, -0.09652502, -0.05430747, -0.058762338, -0.056472573, -0.088018015, -0.15224718, -0.06922844, -0.12547214, -0.089794405, -0.1288786, -0.12894788, -0.059504006, -0.07544722, -0.06560405, -0.059144527, -0.0399473, -0.06142646, -0.093362115, -0.13354959, -0.14344184, -0.12141476, -0.055258192, -0.11367678, -0.036532838, -0.07252558, -0.08976104, -0.04420278, -0.12080483, -0.010322855, 0.017793544, -0.040181883, -0.015256823, 0.0020329112, 0.03191757, -0.07663766, -0.025131548, -0.02777938, -0.016891958, 0.0057333107, -0.017862774, 0.012045496, -0.013814264, 0.01745185, -0.059672367, 0.023223149, 0.014820756, -0.02554407, -0.01177847, -0.07542102, -0.030773468, -0.066528216, 0.0010979803, -0.035554126, -0.07332673, 0.0094046155, -0.032003857, -0.051405486, 0.0035619254, 0.14423765, 0.084984824, 0.089318454, 0.14575028, 0.11699015, 0.13211636, 0.11790947, 0.058522902, 0.08161451, 0.1489791, 0.17262608, 0.12440194, 0.18028443, 0.14564852, 0.18466039, 0.13604309, 0.14312238, 0.111329645, 0.087800555, 0.081868395, 0.14065848, 0.106251515, 0.114649296, 0.12553526, 0.09699535, 0.120482445, 0.09051535, 0.07901043, 0.11272124, 0.06571136, 0.12823525, 0.114132494, 0.123840146, 0.10263502, 0.15836896, 0.1299183, 0.112459406, 0.11841234, 0.13372535, 0.14932705, 0.13103314, 0.11178435, 0.12340463, 0.102367036, 0.11667138, 0.07134719, 0.12926443, 0.1203234, 0.10182749, 0.13232873, 0.1466156, 0.1595797, 0.065331295, 0.101484016, 0.06072606, 0.13495965, 0.107427455, 0.11401256, 0.120051265, -0.0011459896, -0.066526614, -0.05649923, -0.035433523, -0.085205175, 0.015232785, -0.06164952, 0.012050736, -0.0331806, 0.0011265393, 0.007858032, -0.042957798, -0.00540127, 0.01319751, -0.022840915, -0.01658452, -0.027602289, -0.018872673, -0.041213423, -0.061238196, -0.02104425, -0.03069405, -0.04553426, -0.03289125, -0.00165794, 0.011426483, -0.0719208, -0.04132424, 0.007848285, -0.08993597, -0.033346742, -0.06561885, -0.08042013, -0.07924064, -0.043992154, -0.089904115, -0.061171617, -0.09739218, -0.06931902, -0.08198325, -0.071639106, -0.07042006, -0.08110845, -0.07010403, -0.1104338, -0.053592537, -0.0930726, -0.1362365, -0.0460797, -0.05245373, -0.09994318, -0.08847001, -0.10615949, -0.028080948, -0.040184528, -0.112416565, -0.0288085, -0.122612074, -0.112067536, -0.092626296, -0.057037067, -0.006506781, -0.041952413, 0.040818978, -0.0004574315, 0.002636502, -0.017032607, 0.0041617053, -0.062940285, -0.010104673, 0.04081005, -0.028681237, -0.01356711, 0.027050987, -0.06578404, -0.027201341, 0.027641328, -0.043114442, -0.038271666, -0.011790462, 0.01663675, -0.08473645, -0.042971607, -0.035289757, -0.00962625, 0.0013072434, -0.07397593, -0.0066012116, -0.027916474, 0.011112014, -0.02590284, -0.053819757, -0.02116142, -0.034810122, -0.03855582, 0.03246386, -0.045338195, -0.021654872, -0.024225868, -0.015907511, -0.022078842, -0.021612048, 0.0051118266, -0.0075482703, -0.011466817, -0.037734736, 0.041606106, -0.0007886437, -0.011157391, -0.014294668, -0.023727309, -0.035090033, -0.004298438, -0.040703386, -0.04665778, -0.026114851, -0.020363199, -0.024062702, 0.0060332296, 0.0048818947, -0.01961852, 0.009284245, -0.009366485, 0.01406941, 0.049058422, 0.03489872, 0.0017879466, -0.00145275, 0.05297246, 0.04741346, 0.032163877, 0.06358364, 0.028306609, 0.085553795, 0.034727987, 0.058102246, 0.046021447, -0.0001162402, 0.026063448, 0.044692073, 0.080741175, 0.026162112, 0.035256088, -0.0013181571, 0.014733727, 0.018929722, 0.053629227, 0.017885314, -0.021385204, 0.06125821, 0.016688295, 0.04704981, 0.058337837, 0.05831882, 0.071206, 0.06623808, 0.03510253, 0.058437023, 0.07419239, 0.070662834, 0.016592452, -0.0014161476, 0.091262236, 0.050223164, 0.006976042, 0.03739833, 0.054300174, 0.031225933, 0.077774554, 0.0787216, 0.0065900506, 0.079570845, 0.077731214, 0.06560244, 0.05347154, 0.08044551, 0.065515816, 0.027211923, 0.037028864, 0.022265576, 0.009616609, -0.08432721, -0.038153138, -0.09169453, -0.062346347, -0.023758585, -0.04915831, -0.047284964, -0.09424378, -0.05487659, -0.036177468, -0.08272052, -0.06035828, -0.03075348, -0.022536676, -0.055621028, -0.09685151, -0.10148622, -0.10243069, -0.08539489, -0.046759807, -0.05316779, -0.09564257, -0.044580854, -0.029609608, -0.11332463, -0.098648615, -0.053096354, -0.0838644, -0.09448628, -0.075283855, 0.016895048, 0.02334465, 0.035618868, -0.01596761, 0.0059869946, -0.024752287, 0.017791165, 0.044343323, 0.0055273636, 0.045603234, -0.02672018, 0.0013353883, 0.031111598, 0.053780742, -0.019784242, -0.010913686, 0.05834412, 0.04704951, 0.016684145, -0.012620331, 0.03546262, 0.014139931, 0.039898496, 0.0045488346, 0.03765235, -0.0011433277, 0.019574376, -0.028818047, -0.016563546, 0.03791755, 0.03172363, -0.005574031, -0.06663916, -0.043370016, -0.018529372, 0.02173259, 0.015828533, -0.0074605807, -0.037677657, 0.02214933, 0.05315416, -0.016891744, 0.006632898, 0.010074266, 0.048633605, 0.040404048, -0.020745737, 0.010687708, -0.007887539, -0.013102874, 0.022324068, 0.030798882, -0.027194606, 0.04902417, 0.033153553, -0.012470307, -0.017468246, 0.01116625, -0.04073592, -0.049937505, -0.033804968, -0.0071634636, 0.00037391917, 0.038055412, 0.0050451914, 0.0011158425, -0.003403474, -0.048919577, 0.02203259, 0.0068318117, 0.014551919, -0.04102852, -0.010054113, -0.013918439, -0.013127407, -0.03552941, -0.007056011, -0.02285689, -0.03892189, -0.021021, -0.04408694, -0.058578037, -0.03445051, -0.030534176, -0.036376122, -0.008342456, 0.031735018, -0.026987037, -0.003377052, -0.010687109, -0.0006202407, -0.012713205, 0.027944282, -0.022458656, 0.013887524, -0.010069272, 0.005546697, -0.03968852, 0.026987303, 0.028445736, -0.009293855, -0.012840916, -0.042279653, -0.029671889, 0.006828836, 0.007703679, -0.06497056, -0.043074954, -0.0023308818, 0.009232743, 0.01412114, -0.01818238, -0.0020776088, -0.003939138, -0.01448548, 0.013270468, -0.014777402, 0.0049940445, 0.01537119, -0.025405351, 0.08040226, 0.11057214, 0.024870789, 0.056596756, 0.027229901, 0.016421044, 0.09386578, 0.08807278, 0.07810605, 0.028264858, 0.059912536, 0.06316133, 0.051624846, -0.003650924, -0.007485725, 0.02021433, 0.026545934, 0.06649463, 0.015856637, 0.038865406, 0.012714087, 0.06242284, 0.024024058, 0.06010298, 0.011648882, 0.0078802565, 0.05749189, 0.006184214, 0.026417185, 0.04440443, -0.024782227, -0.05704232, -0.015264243, 0.009465015, -0.035734113, -0.049835954, 0.021087334, 0.021887643, -0.042865846, -0.045587305, -0.052840415, -0.032190833, -0.009236137, -0.0316464, -0.021033872, 0.010594573, -0.0018065248, -0.033715006, -0.002148812, -0.011357033, -0.031152658, -0.02575442, -0.017244874, 0.0031462992, -0.036289617, 0.016599797, -0.03426708, 0.01127613, 0.012318626, -0.03597765, -0.014017812, 0.015672198, -0.024158921, 0.040364906, 0.013835111, 0.017310118, 0.04797972, 0.037720293, 0.0008044473, 0.027520046, 0.049026642, 0.038593847, 0.012236538, -0.0003118604, -0.02352655, 0.03322965, 0.04112456, 0.06071073, -0.024571214, 0.029423542, 0.019203005, 0.018902816, 0.03329314, 0.010536807, 0.036939733, -0.009621909, 0.013661979, -0.015998723, 0.058151376, -0.0054213195, 0.024553556, 0.050466992, 0.011735965, 0.03168204, 0.03559112, 0.027838914, 0.03133195, 0.0008180231, 0.03420513, 0.05829163, 0.025093725, 0.046080526, 0.0071468763, 0.0522734, 0.023800703, 0.027755728, 0.03701582, 0.07061228, 0.052846372, 0.03689613, 0.09382991, 0.06480285, 0.096169166, 0.043261193, 0.017835157, 0.014385191, 0.0126428, 0.023691794, 0.012106704, 0.0008785938, -0.014377049, 0.06641351, 0.0061421334, 0.073068246, 0.047495276, 0.021123346, 0.01817312, 0.017777514, 0.035653107, 0.031796373, 0.042656306, 0.054811675, 0.019225791, 0.05310002, 0.053434543, 0.035113223, 0.036021348, 0.06501151, 0.006634539, -0.008684258, 0.049424298, 0.029508207, 0.07472034, 0.0116540585, -0.020848958, -0.01935519, -0.005898078, 0.026096633, 0.034751873, -0.039677817, 0.027304705, 0.006153716, 0.0041005537, -0.008378592, 0.058493614, 0.02254564, 0.01162452, 0.016785596, 0.010495118, 0.041281298, 0.026970204, -0.037084114, 0.04634455, -0.00910184, -0.0038008972, 0.023137579, 0.02795422, -0.04203549, 0.04413329, 0.04360663, 0.016552128, 0.015059655, 0.01377107, 0.001687233, 0.01614619, -0.022603208, -0.012236519, -0.020255055, 0.03476285, -0.07397671, -0.02742627, -0.05373514, -0.069293134, -0.019338477, -0.013917098, -0.022126772, -0.013057544, -0.005011228, -0.035526413, -0.063387655, -0.015325754, -0.0028791386, -0.061062884, -0.064495996, -0.03581431, -0.053422075, 0.02051949, -0.0409387, -0.03681465, 0.0034252768, -0.016905425, -0.04694143, -0.00803192, -0.047805116, 0.018211963, 0.010197306, -0.05309217, -0.066820115, -0.08460196, -0.082890116, 0.0970894, 0.025743848, 0.054917566, 0.091945104, 0.09445815, 0.035246484, 0.0933064, 0.02407411, 0.08461419, 0.096272305, 0.050899897, 0.08050505, 0.09925745, 0.08056436, 0.07165364, 0.09158644, 0.091693915, 0.013035062, 0.058913033, 0.067182384, 0.042907223, 0.06411596, 0.02808858, 0.08951822, 0.026553374, 0.0745804, 0.11355918, 0.015058511, 0.026680047, 0.10967529, 0.055699788, 0.009867427, -0.031540703, 0.005037657, 0.014347821, -0.002958869, -0.02699511, 0.0023268424, -0.029122295, 0.008872578, 0.026410984, 0.021106664, 0.03411666, -0.010660886, 0.017000107, 0.0072328397, 0.0248396, -0.045771662, -0.015269592, -0.007203376, 0.031193938, -0.010757296, -0.038975134, -0.04324535, -0.041464396, 0.012102254, -0.026412658, -0.05372192, 0.031817414, -0.036779407, 0.07552122, 0.08103561, 0.033960532, 0.032813903, 0.017605286, 0.028514445, 0.028541647, 0.076387875, 0.065613866, 0.041838955, 0.05924573, 0.0515854, 0.048716635, 0.061743863, 0.014652192, 0.019909766, -0.024085531, 0.05055853, 0.068280384, 0.027697297, -0.0017915498, 0.038211018, -0.0058442117, 0.05741617, 0.07139209, 0.0692955, 0.056502026, 0.050703432, 0.014374372, 0.10890925, 0.027892703, 0.040665284, 0.03826636, 0.022266174, 0.050189894, 0.05643118, 0.0873608, 0.004418246, 0.060671557, 0.03381495, 0.06581339, 0.038238794, -0.027565956, 0.014183253, 0.032746926, 0.068558276, 0.05835026, 0.011613483, 0.051214334, 0.0004934722, 0.037079547, 0.02058452, 0.04746594, 0.04953053, 0.06509107, 0.029240651, 0.04552711, 0.06263617, -0.006687655, 0.009657642, -0.046878964, 0.0009707568, -0.04154599, -0.011450503, -0.06141689, -0.0039327643, -0.058174673, 0.008094058, 0.0074001057, -0.03881621, -0.020191336, -0.0013056523, -0.038812336, -0.014549909, -0.00201624, 0.00027859, -0.0101986285, -0.014224187, 0.0016059098, 0.014896717, 0.038943786, -0.011255938, 0.010182556, -0.020991417, -0.042906106, -0.019278806, -0.021868752, -0.042633075, -0.025903467, 0.040520284, -0.09039151, -0.10634604, -0.13918047, -0.10080873, -0.10055941, -0.058024038, -0.06812035, -0.0970998, -0.059754092, -0.034150984, -0.11565644, -0.09264845, -0.07780383, -0.116237424, -0.09535358, -0.040665083, -0.13355653, -0.10484036, -0.061838865, -0.0846396, -0.10037481, -0.036344077, -0.074789956, -0.07145953, -0.07860485, -0.043281566, -0.03222099, -0.07686366, -0.11277325, -0.0015986328, 0.050433084, 0.07289081, 0.03579684, 0.0013857363, 0.032788716, 0.07200035, 0.065534264, 0.019286906, 0.02453644, 0.018993272, 0.022893805, 0.03270091, 0.017391412, -0.0061790827, 0.0786419, 0.067528546, 0.05339933, 0.0035621428, 0.02566905, 0.014151172, 0.010260833, 0.008566508, -0.017547335, 0.06725416, 0.009810575, 0.014809613, 0.08270529, 0.040734395, -0.002737076, 0.017437175, -0.030898482, -0.024500731, 0.017571473, 0.03607731, 0.03380457, -0.0012013402, -0.0061188005, 0.02542862, 0.024709316, 0.03321237, -0.004133838, 0.0068481397, 0.010840368, 0.04587479, 0.030686583, -0.016464058, 0.011178072, -0.011174972, 0.010940311, -0.0043119304, 0.010798609, 0.030337859, -0.004768495, 0.007982544, -0.01062401, 0.0046343724, 0.020330502, 0.014115348, -0.015761565, 0.040496204, 0.0024265356, -0.022934357, -0.028933978, -0.0725399, -0.068104625, -0.030681165, -0.07206951, 0.0071610566, -0.029163744, -0.0014395682, -0.07571774, -0.05994602, 0.011438908, -0.06292813, -0.058177516, -0.05975209, 0.012416184, -0.003348787, -0.061055142, -0.06623577, -0.016184052, -0.060456216, 0.00057011365, 0.016086437, -0.069258586, -0.04830243, -0.021385696, -0.06555812, -0.010316665, -0.031977423, -0.003598309, -0.011926907, -0.047910284, -0.06868191, -0.046413023, -0.0078004575, -0.042023808, -0.052035913, -0.05096905, -0.026239393, -0.0063370005, 0.0146419555, -0.027683334, 0.026327774, -0.022773663, -0.061941214, 0.02392615, 0.008438062, 0.011380262, -0.06405665, 0.023467386, -0.06945909, -0.060127486, 0.0049349717, 0.0033214816, -0.00301603, -0.054553986, 0.0041714055, 0.030776173, -0.033843227, -0.06593982, -0.004602202, -0.07155855, -0.031443473, -0.013968603, -0.077260405, -0.054669376, -0.07021861, -0.03402256, 0.02431577, -0.062657855, 0.0074501475, 0.0030001376, 0.009579588, -0.06735208, -0.041288752, 0.02756273, -0.017541649, 0.018966543, 0.018200845, -0.013909499, -0.030834984, 0.01960558, -0.04221594, 0.021854999, -0.05307208, 0.0056994795, -0.0075840913, -0.024323726, 0.00020157029, -0.05667474, -0.07296237, -0.07524604, -0.0568936, 0.01113424, 0.0022553874, -0.05177877, -0.028235106, -0.034773067, -0.06981045, -0.06513514, -0.06450577, 0.0158796, 0.021821603, -0.015497921, -0.05849479, 0.028046474, -0.031146547, -0.029721472, -0.016165715, 0.01844988, -0.024509137, -0.033977166, -0.04390267, -0.0043565594, -0.07102844, 0.00021083863, -0.016307553, -0.06381758, -0.045898642, 0.009480297, -0.013664981, -0.046269283, -0.048541836, 0.016091026, 0.019495187, -0.03630334, 0.016656252, -0.06964209, 0.015264182, 0.005515189, -0.020269623, 0.025199622, -0.05342898, -0.060664993, -0.026402406, -0.0009493251, -0.024302607, 0.011797914, -0.056342103, -0.008291164, -0.0011365315, -0.064699, -0.02635735, -0.0066468376, -0.024917062, -0.03471406, 0.029014027, -0.05635399, -0.023098135, 0.039459024, 0.03834064, -0.0082426015, -0.032011807, 0.039118502, -0.018731406, -0.014841693, -0.052076694, -0.017028257, -0.025278494, -0.029036453, 0.035833575, 0.03586642, 0.025596637, 0.03203073, -0.041201632, 0.034072187, 0.018038109, 0.017540932, -0.02375654, 0.04027016, 0.030311005, 0.0018362206, 0.013261124, -0.026341263, -0.026801858, -0.063889734, 0.039367326, 0.003682116, -0.06960036, -0.035585716, -0.018035425, -0.05369217, -0.05302318, 0.029576698, -0.0026473633, -0.027149586, -0.025896857, -0.0480936, 0.0055786227, 0.029265808, -0.04291443, 0.0015631653, 0.029881405, 0.015785592, 0.0028541996, 0.0019445956, 0.010866599, 4.7907834e-05, -0.0484427, -0.026605012, -0.066359155, -0.054853372, -0.0748718, -0.018205808, -0.044375125, -0.0290901, -0.014607627, -0.006426873, 0.027275968, -0.0064844633, -0.046780746, -0.04770104, 0.030839516, -0.06625438, -0.048704464, -0.02041678, -0.007035632, -0.067589976, -0.04227561, -0.033281416, -0.019080741, 0.02724844, 0.0032745954, 0.031949848, -0.063107446, -0.033024967, -0.05668245, -0.043900587, -0.0069197738, -0.05230539, -0.06603554, -0.050742056, -0.04153957, -0.046622347, 0.02376017, -0.062057734, -0.027631516, 0.0055614454, -0.045671243, -0.025878035, -0.025433447, -0.07718594, -0.017360002, -0.05908291, -0.022352144, -0.013582881, -0.05489579, -0.026842793, -0.08574321, -0.029239252, -0.028306894, -0.094267964, -0.016870858, -0.048076484, -0.07689807, -0.09919845, -0.007825011, -0.02727648, -0.032230433, -0.09979069, -0.074210286, -0.09775672, -0.054639652, -0.077338055, -0.06495142, -0.053504862, -0.09010662, -0.07646014, -0.05330179, -0.027903732, -0.047220048, -0.08789185, -0.05235522, -0.043203134, -0.0024839102, -0.04626752, -0.014412979, -0.09257417, -0.10009446, -0.039943665, -0.013773706, -0.04997525, -0.01451823, -0.05849847, -0.0028943964, 0.0022009832, -0.09030498, -0.013891648, 0.008797657, -0.08134918, -0.09756782, -0.027824836, -0.04167241, -0.03280709, -0.079378754, -0.09957835, -0.08799102, -0.06304808, -0.07781364, -0.0675281, -0.032649398, -0.06147171, 0.008496097, 0.0146575235, -0.0029516558, -0.0018158964, -0.056235477, 0.031538546, -0.0041661556, -0.05890771, -0.03255734, -0.008461715, -0.014528655, 0.03711548, 0.01440087, 0.0022366445, 0.02608095, -0.028139962, -0.034053575, -0.008303963, -0.038848273, 0.0071635447, -0.007742475, -0.037845638, -0.007817258, -0.011186081, -0.033460703, 0.013856927, -0.016197225, -0.0025569603, -0.020886831, -0.010307699, 0.006986951, 0.0137630785, -0.051977444, -0.034197137, 0.015170277, -0.018087463, 0.025545051, 0.02151209, 0.0050169723, -0.0068194373, -0.056949515, -0.034040965, -0.021203138, -0.044279326, 0.028818466, 0.017761035, -0.06811989, 0.021692215, 0.013554555, -0.059523046, 0.021866253, 0.015367734, 0.011412986, -0.010914748, -0.0065789325, -0.005177478, 0.021551829};
const float fc1_bias[4] = {0.020349257, 0.11070076, -0.094530575, -0.029860085};
const float fc2_weight[720] = {0.007479041, 0.006770088, 0.024893286, -0.021766258, 0.0018770853, -0.054126773, -0.041495264, -0.013110147, 0.025990233, -0.03844889, 0.012617215, 0.03740711, 0.03537481, 0.016477404, -0.059612818, 0.00067375234, -0.04748934, -0.023093099, 0.022841338, -0.03621086, 0.031668413, 0.040970076, -0.021684853, -0.0015774098, 0.03673942, 0.04311178, -0.033698972, -0.053304218, 0.035776377, -0.012528856, 0.08261049, 0.106776215, 0.07376094, 0.10746965, 0.036041714, 0.06566692, 0.05596076, 0.049402393, 0.08312738, 0.08378483, 0.0378996, 0.040754512, 0.088918716, 0.07903783, 0.08187202, 0.089318074, 0.07964758, 0.087813884, 0.10279933, 0.024052188, 0.05146403, 0.09048593, 0.04055485, 0.008308659, 0.060536195, 0.03311212, 0.039155215, 0.03770106, 0.055725355, 0.037549783, 0.058032256, -0.05397796, -0.06045, -0.07578663, -0.021034045, -0.0051927175, -0.059439335, -0.0059136557, -0.08255144, -0.06283583, -0.061710797, -0.011939916, -0.0009981588, -0.09377119, -0.018667005, 0.0012970488, -0.08336156, -0.06072676, -0.08884387, -0.047569912, -0.08899324, -0.019487785, -0.06268371, -0.012820547, -0.07026674, -0.0019682376, -0.07194254, 0.008407065, -0.010639594, 0.0023867162, -0.050781835, -0.05251663, -0.024424523, -0.071586646, -0.11254784, -0.04980868, -0.012118047, -0.10953058, -0.051758606, -0.056577392, -0.050920993, -0.100368366, -0.035690535, -0.019064313, -0.10349259, -0.06396208, -0.07785092, -0.091140695, -0.06992479, -0.05943168, -0.0365448, -0.030416649, -0.052214198, -0.094427995, -0.07785735, -0.08619496, -0.02200901, -0.014481219, -0.052554324, -0.089563176, -0.0060325623, -0.010763195, 0.050450265, -0.025650043, 0.027971024, -0.0069282493, -0.004171812, 0.045864686, 0.03268571, 0.046346076, -0.027391976, 0.025223244, 0.0086207455, 0.050534017, 0.06161058, 0.022366632, 0.0035965994, -0.023130128, 7.774237e-05, 0.022910288, 0.046277888, 0.054579176, 0.02525963, -0.031516884, 0.057439834, -0.03244797, -0.025873875, -0.030748354, -0.013897645, 0.07717618, 0.0007143012, 0.03302107, 0.017860737, -0.018499317, -0.013795402, 0.031873047, -0.046151727, 0.013482298, 0.019349387, -0.025088562, -0.020518322, 0.043896984, 0.0040252497, 0.021807311, -0.035637107, 0.04229912, -0.030560132, 0.0100397095, -0.008253376, 0.03282985, 0.027250437, 0.0034719252, 0.0065242304, -0.012031785, -0.0141896885, -0.04212214, -0.04286114, 0.03446316, -0.009274919, 0.010694855, 0.06339048, -0.015703296, 0.054607634, 0.015333019, 9.209113e-05, 0.036581893, 0.03456707, 0.01626136, 0.04800902, -0.022397408, 0.066990875, 0.0409252, 0.053590346, 0.03201504, -0.0053252988, -0.012749802, 0.005673595, 0.055469524, 0.023696164, -0.00163049, 0.041248087, 0.0090654995, 0.0026653912, 0.053233095, 0.00050943263, 0.04428205, 0.019875916, 0.029015044, -0.023439614, 0.046155386, -0.054581597, 0.05131115, -0.0133361695, -0.010305951, -0.018959634, -0.046721585, -0.048070703, 0.0130852815, -0.007843161, 0.022558836, 0.050450124, 0.044272102, 0.035246167, -0.02662526, 0.0022309239, 0.019250477, -0.023376115, -0.047648225, 0.03785743, 0.027613413, -0.0036884325, -0.017696612, -0.03685416, -0.04750561, -0.0041736667, -0.041554816, 0.0122936005, 0.009166354, -0.045650832, -0.022805868, -0.098432094, -0.016634798, -0.08297864, -0.062204923, -0.097175, -0.029919071, -0.06017168, -0.036454424, -0.09669181, -0.10093117, -0.10040968, -0.07675434, -0.03793846, -0.027750464, -0.059388813, -0.055144075, -0.05164154, -0.041915253, 0.01598849, -0.05465539, -0.05836216, 0.025761453, -0.03772644, 0.006491096, -0.041508075, -0.041299522, -0.0035762647, -0.03957639, -0.046316557, 0.01748822, -0.026242334, -0.044922706, 0.062593065, 0.029740212, -0.0022348813, 0.041858442, -0.0140584, 0.05079525, 0.04342718, 0.0428516, 0.0003503083, 0.063250296, -0.002165, -0.008865618, 0.03834076, 0.076909214, 0.053809755, 0.0062835896, 0.049841627, 0.020216964, 0.020319961, 0.07522076, 0.06550306, 0.023870453, 0.031191394, 0.0189704, 0.053530794, 0.07582316, 0.10392344, 0.049764354, 0.01953136, 0.03790676, -0.0240548, 0.034442782, -0.010700496, -0.025190044, -0.02971278, -0.03684576, 0.01916898, -0.023943277, 0.039827824, 0.035138704, -0.019408572, -0.030727, 0.021588428, 0.013502868, -0.006310792, 0.03802789, 0.015479996, 0.0035912336, -0.036544193, 0.017764375, -0.010175292, -0.062042434, -0.038358524, -0.016364723, -0.015157893, 0.017344434, -0.05975439, -0.0060541285, -0.039613754, -0.08773354, -0.084145315, -0.022005603, 0.0029677078, -0.08911714, -0.045177516, -0.009140425, -0.07806887, -0.06451253, -0.029163918, -0.09052439, -0.054425187, -0.030733531, -0.024756812, -0.046973582, -0.077445656, -0.0828778, -0.06020703, -0.10043933, -0.044136114, -0.051354133, -0.03883355, -0.015272518, -0.064934194, -0.04552985, -0.031052303, -0.013970539, -0.0686535, -0.07254739, 0.043103594, -0.01112291, -0.04336068, 0.033490892, 0.026073305, 0.008113525, -0.006403369, 0.013449171, 0.051491704, 0.00687713, 0.027102888, -0.047162298, -0.04267843, 0.013920259, 0.05599591, 0.0070444425, 0.006766823, 0.005489347, 0.044771638, -0.030892702, 0.062138624, -0.0077777514, -5.693308e-05, 0.003680147, 0.0065250723, 0.035880484, -0.017314885, 0.027320942, 0.00513908, 0.031821497, -0.022594756, -0.021769539, -0.027426543, -0.02643171, -0.0729686, -0.0965966, -0.106134295, -0.054527856, -0.04250925, -0.03663938, -0.042021472, -0.08321899, -0.00020045559, -0.078930825, -0.02262533, -0.05880781, -0.10313103, -0.017679421, -0.04891467, -0.090285644, -0.027979452, -0.04530947, -0.07287216, -0.07215331, 0.005037594, -0.048193775, 0.026807686, -0.05270604, -0.06232682, 0.008483264, 0.027801964, -0.017756714, 0.0843132, 0.064484514, 0.05419465, 0.057793077, 0.07968297, 0.03366834, 0.10163294, 0.07683727, 0.09328823, 0.08192981, 0.077828415, 0.03927492, 0.057393666, -0.008064118, 0.0096782725, 0.050059576, 0.03189077, 0.024170803, 0.08918765, 0.028340917, 0.10361415, 0.09748679, 0.011715822, 0.00056788063, 0.009519716, 0.04766098, 0.00080606504, 0.0028317238, 0.06080668, 0.06928726, 0.031187942, 0.08470267, 0.03145344, 0.009133087, 0.07226238, 0.009401372, 0.028622704, 0.09214296, 0.07816057, 0.10009299, 0.096706934, 0.068295166, 0.035165638, 0.048288513, 0.084968224, 0.024766907, 0.118032955, 0.07289215, 0.09877694, 0.06844091, 0.07146754, 0.063026875, 0.030184826, 0.012474117, 0.053030316, 0.08278595, 0.029298458, 0.0158943, -0.0067040324, -0.023001404, -0.01047618, -0.04652009, -0.041369498, -0.038937934, -0.003567695, -0.003938018, -0.058360673, -0.037986517, -0.049763974, -0.023513155, 0.008363691, -0.0044674193, -0.05543221, -0.01600879, 0.031454064, -0.045172915, 0.00689523, -0.023839844, 0.005393615, 0.019866236, 0.030679906, -0.053412266, 0.0114045, -0.040046416, -0.058905564, -0.0068437774, -0.0035417904, -0.033384096, -0.023317173, -0.009307921, -0.017710462, -0.016066965, -0.041487094, 0.029163253, 0.017214224, 0.020979842, -0.0011775004, 0.03725923, 0.040795054, -0.04805814, 0.01802568, 0.038991485, -0.019385146, -0.03724605, -0.03451622, -0.0061017517, 0.0548042, -0.040574025, 0.032784306, -0.032306284, -0.01612473, -0.04598644, -0.018357402, 0.034031224, 0.003994207, -0.013681667, 0.0022093593, 0.05924649, -0.023750935, -0.071189106, 0.0010543041, 0.016801786, -0.009008095, 0.012286511, 0.0046671554, -0.017883167, -0.05177683, 0.011111688, -0.003157681, 0.012497883, -0.0063156104, -0.054351076, -0.07092151, 0.022940531, -0.029559013, -0.06291518, -0.052987628, -0.012023535, 0.025289372, 0.0073698717, 0.037057824, -0.036810786, -0.0007986966, 0.029584136, 0.031019585, -0.036776528, -0.041430824, -0.050628908, 0.059005808, 0.031764816, -0.0022796043, 0.021518953, -0.009770484, 0.037184983, 0.012126286, -0.031995952, -0.016265431, -0.0042945645, 0.048893936, 0.04520405, 0.025203943, 0.034592014, 0.03583212, 0.02102072, -0.030760467, -0.046140127, -0.041185502, -0.010978922, -0.016978, -0.0018349921, 0.0039704437, 0.030000353, 0.03541859, -0.014041473, 0.051355887, 0.02267864, 0.047182113, -0.015349691, 0.03524155, 0.011284807, 0.039763533, 0.06625828, 0.061785698, 0.08238161, 0.065578796, 0.08968039, 0.040565223, 0.07113337, 0.024461169, -0.001172785, 0.085729726, 0.069079034, 0.08171352, 0.05709277, 0.07115387, 0.034887947, 0.03921876, 0.051722128, 0.038113482, 0.021544596, 0.06390388, 0.016343774, 0.06841297, -0.013161075, 0.03408446, 0.029849032, 0.051474795, 0.029624483, 0.05099677, -0.044946335, 0.025556762, -0.022309724, -0.022679282, -0.0521772, -0.017392516, 0.027777264, -0.023160813, 0.039317906, 0.0050181802, 0.012844601, -0.06485939, 0.010249446, -0.039605517, -0.051891934, -0.017192649, -0.019876558, -0.055751987, 0.00021041192, -0.044140562, -0.03412577, -0.019675728, -0.07562191, -0.07007105, -0.08789012, 0.0012831229, -0.025586233, -0.015231863, 0.0011304374, 0.06768123, -0.04640112, -0.010126733, -0.041304924, 0.0021890823, 0.0038993445, 0.026651042, -0.020579288, 0.003265441, -0.023876516, 0.031693507, 0.022458047, -0.01810194, 0.035435595, 0.022042282, -0.0016133975, 0.01018585, 0.007880822, -0.008290044, -0.0036192948, 0.024040157, -0.023898901, 0.021527331, 0.022102537, 0.030980557, -0.0027273232, 0.027884983, 0.020814251, 0.047025308, 0.021919515, 0.02338043, 0.07457051, -0.0034913612, 0.02206404, 0.0681074, 0.06874582, 0.014125204, 0.039947312, 0.023741156, 0.054888032, 0.06929985, 0.10257484, 0.08323504, 0.040427163, 0.09467296, 0.10558701, 0.08023243, 0.07557113, 0.08086286, 0.06637161, 0.047282916, 0.10806163, 0.041104566, 0.036792725, 0.07524603, 0.072553046, 0.027026262, 0.07887756, 0.068793505, 0.016951567};
const float fc2_bias[2] = {-0.017051449, 0.045076583};
