#ifndef TENSOR_DATA_H
#define TENSOR_DATA_H

const float tensor_data[6][60] = {
    {-0.019287, 0.027588, 0.032471, 0.053955, 0.046875, 0.007324, 0.02832, 0.016357, -0.026367, -0.053711, -0.00708, -0.005371, -0.026123, -0.010742, 0.037109, 0.013428, -0.002197, 0.091309, -0.034424, -0.020264, -0.053467, -0.019043, -0.061035, 0.025391, 0.079834, 0.064697, 0.077881, 0.022705, -0.030518, 0.000732, -0.041748, -0.086914, -0.041748, -0.070801, -0.030273, -0.036133, -0.032959, -0.000244, -0.005615, -0.00415, 0.011475, 0.01709, -0.011475, -0.02002, -0.009766, 0.021484, -0.004883, 0.040039, 0.06665, 0.000488, -0.003174, -0.074219, -0.08252, -0.073975, 0.014404, -0.061035, -0.013916, -0.019775, -0.01709, 0.029541},
    {0.293152, 0.300964, 0.282166, 0.206482, 0.239197, 0.16449, 0.163757, 0.108826, 0.022888, -0.019836, 0.010925, -0.011536, 0.00531, -0.002747, 0.038025, 0.077576, 0.102722, 0.256531, 0.239441, 0.307312, 0.223572, 0.336609, 0.357117, 0.355896, 0.255066, 0.231873, 0.163757, 0.170349, 0.129333, -0.005676, -0.120911, -0.059631, -0.094788, -0.096497, -0.100647, -0.04718, 0.013367, 0.045593, 0.190369, 0.264099, 0.326355, 0.353943, 0.430359, 0.372009, 0.412048, 0.345886, 0.322449, 0.173523, 0.150085, 0.127869, 0.131042, 0.002136, -0.074036, -0.068909, -0.055237, -0.053528, 0.004822, 0.055603, 0.085144, 0.176941},
    {0.019653, 0.045044, 0.010132, 0.031616, 0.012329, 0.055298, 0.026245, 0.026245, 0.009155, 0.005981, 0.011108, -0.001587, 0.028687, 0.03064, 0.018188, 0.021606, 0.046021, 0.01355, -0.034058, -0.006226, 0.032593, 0.016724, 0.094849, 0.061401, 0.031128, -0.020874, 0.015015, 0.029663, -0.01355, -0.01062, -0.006226, -0.034302, 0.012817, 0.006958, -0.000366, 0.019165, 0.001831, 0.005005, 0.040405, 0.016479, 0.037476, 0.06189, 0.023315, 0.034546, 0.035767, 0.002319, 0.007202, 0.019653, 0.014282, 0.044312, 0.071167, -0.026001, 0.03186, 0.006714, 0.014771, 0.038208, 0.016968, 0.005249, -0.006714, 0.040649},
    {-2.624512, -7.507324, -9.063721, -17.181396, -11.505127, -13.885498, -9.887695, 0.88501, -11.810303, -6.469727, -6.408691, -3.601074, 2.105713, 5.065918, 11.688232, 16.51001, 25.08545, 5.859375, 7.995605, 3.417969, -17.364502, -21.728516, -8.666992, -2.655029, -15.441895, -16.448975, -15.74707, -8.758545, -15.350342, -23.864746, -17.27295, -5.401611, -2.960205, 3.112793, 3.631592, 10.620117, 12.817383, 10.742188, 27.801514, 18.585205, 18.615723, 1.495361, 5.615234, -2.716064, -9.674072, -13.122559, -18.005371, -24.780273, -21.850586, -19.073486, 0.061035, -7.263184, -11.413574, -2.288818, -5.950928, 3.601074, 8.026123, 9.490967, 9.70459, 6.04248},
    {0.671387, -2.258301, 3.204346, 1.556396, 3.692627, 4.119873, 0.12207, 1.068115, 0.091553, -1.342773, 0.549316, 1.647949, -0.152588, -3.112793, -3.875732, -0.88501, -3.601074, 5.859375, 11.535645, 0.488281, -0.213623, -1.708984, -1.098633, 0.701904, 1.77002, 0.823975, 2.075195, 2.89917, -0.274658, 4.333496, 7.507324, 1.495361, -0.946045, -1.159668, -1.678467, -0.854492, -1.098633, -0.976562, -0.457764, 0.946045, -1.037598, 2.410889, 0.244141, 0.762939, 1.861572, 3.356934, -1.525879, 1.342773, 2.319336, 5.401611, 5.79834, 5.310059, -0.305176, -5.523682, 0.091553, -1.647949, -0.213623, 0.274658, 0.061035, -0.183105},
    {7.141113, 12.023926, 0.701904, -1.556396, -3.692627, -8.026123, 7.69043, 10.650635, 1.861572, 3.295898, 5.310059, 0.305176, -1.800537, 3.112793, -0.030518, 0.88501, 1.647949, -5.859375, -13.48877, -2.441406, 4.119873, 5.615234, -0.854492, 3.204346, 2.13623, 3.082275, 3.78418, 1.00708, 4.180908, -2.380371, -7.507324, 4.364014, -4.91333, -8.605957, 3.631592, -1.098633, -2.807617, -4.882812, -5.401611, -2.89917, -2.868652, -4.364014, 5.615234, -4.669189, 5.950928, 2.502441, 7.385254, 8.422852, 5.493164, 4.364014, 2.01416, -5.310059, 12.023926, 19.195557, -3.997803, -12.023926, -1.739502, -2.227783, 1.89209, -1.77002},
};

#endif // TENSOR_DATA_H
